432 300
plane -0.19893 0.34909 0.092872 -0.2002 0.44934 -0.32763 -0.16775 -0.33267 -0.019822 -0.027282 -0.18002 -0.032898 0.1278 0.38587 0.12864 -0.050111 0.03146 0.15796 -0.043859 0.10596 0.1852 0.15085 0.23128 0.37893 0.39185 -0.39521 0.19525 0.033908 -4.3596E-4 -0.12755 -0.23698 0.37396 0.14703 0.58261 0.1716 -0.084006 0.17784 -0.034205 0.029262 0.16648 -0.18612 -0.49787 -0.47505 0.032217 -0.11441 -0.021555 0.53286 0.20431 -0.19823 -0.42515 0.13709 -0.42489 -0.21064 -0.043585 0.51851 -0.034692 -2.2863E-4 -0.26068 -0.056631 -0.093725 -0.069349 0.15032 0.13134 0.13671 0.2547 -0.44386 0.10949 0.020154 0.0079575 -0.041327 0.27292 -0.042279 0.21437 -0.15626 -0.10401 0.16336 0.70411 0.36762 0.29255 -0.22619 -0.08221 -0.29087 -0.31006 0.33765 0.052252 0.28076 0.039714 -0.20329 -0.18492 0.20879 0.33693 0.2839 0.18375 -0.29212 0.057422 -0.20845 0.011201 -0.2575 0.18022 -0.15926 0.34251 0.037846 0.28182 0.83475 0.42706 0.3162 0.013072 -0.19271 0.12876 -0.20504 0.26841 0.46753 0.18524 0.27699 0.08421 -0.08393 -0.091375 -0.17916 -0.087512 -0.016711 -0.066057 0.097605 0.15548 -0.19621 -0.089544 -0.016211 0.54352 -0.046564 0.35628 -0.045503 -0.044841 -0.28459 -0.43841 -0.0082694 0.17372 0.10983 0.35892 -0.22709 -0.28088 -0.0070391 0.21445 -0.1344 0.10922 0.17144 0.051268 0.21969 0.073286 -0.36571 -0.26919 0.41852 0.045218 0.23412 -0.26176 0.22945 -0.040607 -0.14599 -0.25714 0.11879 -0.23192 0.045803 0.20041 -0.18328 -0.3002 -0.16215 -0.073971 -0.20578 -0.050984 0.073932 -0.45778 0.054085 0.0825 -0.14466 -0.018401 -0.23937 0.063395 -0.0019896 0.090637 -0.091673 -0.23456 0.090329 0.044856 0.091417 0.022514 -0.0061852 -0.43562 0.036728 -0.35895 0.11227 0.27685 0.17757 0.42589 -0.36671 -0.34133 -0.21674 0.51881 -0.24785 -0.31595 0.012056 0.23649 -0.098277 0.17194 -0.62375 0.28902 -0.18326 -0.11213 -0.03968 -0.27793 -0.075215 0.12461 0.10546 0.0044751 0.1937 -0.14588 -0.11696 -0.18498 0.61141 -0.14084 0.21256 -0.014734 -0.12578 0.03398 0.012324 0.18833 0.28294 0.14528 0.20778 -0.3062 -0.3755 -0.31885 -0.31851 -0.50607 0.076156 -0.4031 -0.49246 0.34323 -0.14838 0.39191 0.072552 0.11328 0.014721 -0.069357 -0.18388 -0.026285 -0.35578 0.29022 0.19365 -0.15998 0.10946 -0.20477 0.10617 -0.040623 0.28913 -0.11389 -0.36991 0.18651 -0.00462 0.56341 -0.3495 0.10223 0.070914 0.1581 -0.041618 0.087375 0.19262 0.2436 -0.029883 0.026771 -0.086569 0.053577 -0.016728 0.34207 0.43251 -0.10421 -0.16028 -0.15709 0.34983 0.35876 -0.067526 0.35534 -0.32583 -0.015065 0.21983 0.18014 -0.18211 -0.24066 0.026652 0.16296 -0.28308 -0.050937 0.381 0.020321 -0.020638 -0.24326 -0.37939 0.23254 0.014364 0.22296 0.51846 -0.39574 0.41123
stupid -0.084221 0.28271 0.062161 -0.047271 0.39118 0.36559 -0.23892 -0.081946 5.3711E-4 -0.11433 0.64831 -0.45829 -0.17249 -0.030492 -0.21275 -0.21223 -0.25401 -0.061713 0.095094 0.10327 0.012672 0.13301 -0.36727 -0.10366 0.010087 -0.26527 0.30607 -0.076185 0.27229 -0.11584 0.034212 -0.54712 0.49273 0.043308 -0.17261 -0.89078 -0.39084 -0.44723 -0.30753 0.13006 -0.03943 0.16651 -0.11215 -0.26891 0.42219 0.29305 0.032521 0.060472 -0.0016077 -0.19864 -0.067812 -0.60062 -0.34907 -0.052223 -0.14025 0.22469 -0.17672 -0.3492 -0.20308 -0.36239 0.14104 -0.12112 0.10142 -0.11907 0.21114 0.059281 0.24321 -0.26856 -0.001294 -0.11464 0.8474 0.0092749 0.11356 0.16948 -0.23144 0.11224 0.39724 0.34404 0.12066 0.048521 0.59203 0.27595 -0.056289 -0.13222 -0.26992 -0.16485 -0.41556 -0.52614 0.12067 -0.15855 0.23544 -0.026273 0.066777 0.21037 -0.0085555 0.16121 -0.3639 -0.21294 0.11404 0.33369 0.26344 0.39715 0.21083 -0.13838 -0.095392 0.24935 -0.21285 -0.035694 0.011781 0.056041 -0.027266 0.25283 -0.0074309 0.16785 0.14978 0.049363 0.30117 -0.0029925 -0.039666 -0.075179 0.23829 -0.31947 0.34424 -0.25222 -0.32588 -0.14948 -0.13164 -0.033618 -0.45481 -0.12933 0.14355 -0.16314 0.25006 0.16527 -0.40508 -0.054082 0.33437 0.16379 0.3119 -0.11016 -0.17095 -0.20169 -0.089325 -0.098242 -0.16859 0.047804 -0.34725 0.1418 0.034641 0.22708 -0.20979 -0.065695 0.28452 -0.029992 -0.097677 -0.39892 0.029489 -0.039039 -0.12076 0.33999 0.22743 0.1887 0.028652 0.2064 0.11754 -0.091588 -0.055739 0.29843 -0.15383 0.44785 0.048417 -0.13711 -0.2363 -0.041832 0.11067 0.12232 -0.022386 0.12045 0.066547 -0.37827 -0.38351 -0.22835 0.2848 -0.22032 0.30812 -0.083591 0.015759 -0.31492 -0.11528 0.11412 0.20643 0.10472 -0.33252 0.01026 0.045502 -0.18884 -0.10127 0.17893 -0.079973 -0.50543 0.34944 -0.0086056 0.069506 0.035115 -0.18367 0.14444 -0.44757 0.27908 0.36293 0.38471 0.5678 0.17787 -0.19616 0.10381 0.077986 0.11534 0.13658 -0.52545 -0.35064 -0.23752 -0.23845 -0.13665 0.56358 -0.030021 0.040765 -0.49944 -0.31405 -0.0054237 -0.40551 0.094166 -0.43634 -0.020099 -0.057434 -0.019619 -0.19489 -0.058446 0.14754 -0.14966 0.12025 0.4237 0.023563 -0.10441 -0.27142 0.26473 -0.42247 -0.10141 -0.0075631 0.1738 0.042163 -0.25418 0.047424 -0.089353 -0.44385 0.017405 0.90152 0.073258 0.12595 0.0036633 -0.038776 -0.099403 -0.18021 -0.32717 0.15285 0.67629 -0.040554 -0.043096 0.26588 0.010811 -0.012985 0.078637 -0.01332 0.45664 -0.022922 -0.10177 -0.2276 0.046123 -0.2212 -0.077855 -0.126 -0.26901 -0.16239 0.15408 0.11126 -0.094806 0.020371 -0.20358 0.31247 0.54701 0.011216 0.065428 0.13129 0.018375 0.19344 -0.10904 0.035778 0.043918 0.20439 -0.26346 -0.11288 -0.032307
egg 0.022678 -0.25309 0.073959 0.37393 0.26794 -0.11463 0.22013 -0.36475 -0.097662 -0.051638 -0.068727 -0.39391 0.33219 -0.4347 0.30608 0.15509 0.49427 0.17189 0.4225 -0.13371 -0.29965 0.12606 -0.21137 0.15142 0.56141 -0.19388 0.078707 0.053225 -0.073959 0.20549 -0.6397 0.10538 0.2506 -0.34893 0.057032 -0.43032 0.017701 -0.14112 -0.24819 -0.089926 0.35789 0.020443 -0.30404 -0.67035 0.16444 0.69928 -0.084238 -0.2641 -0.31286 0.063762 0.09158 -0.12992 -0.14816 -0.23385 -0.15273 0.49086 -0.30714 0.28994 -0.50187 0.090322 0.27449 -0.19512 0.2073 -0.32132 0.10221 -0.73421 0.31943 0.6749 -0.0022401 0.48002 0.21199 0.12272 0.38702 -0.087543 -0.012333 -0.69808 0.21887 0.17352 -0.48252 -0.1365 0.19406 0.24694 0.20887 0.26095 -0.2117 -0.088863 -0.36707 0.18696 -0.02217 0.097464 -0.16951 0.033189 -0.41113 0.19987 -0.11401 0.11065 -0.067134 0.40684 0.043505 0.16995 -0.037117 0.31755 -0.035436 0.09345 -0.35623 0.28973 -2.2216E-4 -0.31513 0.07507 0.1314 0.31373 0.39529 -0.1273 -0.024892 -0.10087 0.78078 0.34175 -0.07523 0.038709 -0.54379 0.27361 -0.71148 0.036801 0.23082 -0.15797 -0.20707 -0.077611 -0.15075 -0.54112 0.43171 -0.062874 -0.65211 -0.30758 -0.30765 0.056625 0.17857 -0.34856 -0.156 0.32335 0.30965 0.091607 -0.54829 0.13493 0.45249 -0.56555 -0.046498 -0.038685 0.057654 -0.0097988 0.27745 -0.13634 0.1622 0.19376 -0.22868 0.53854 0.12794 -0.33875 -0.2929 0.13727 0.45817 -0.037553 0.43393 -0.027639 -0.062111 0.18696 -0.47198 -0.17264 0.080697 -0.36909 -0.023325 0.0099782 -0.079789 0.2295 0.15932 0.14664 -0.18585 0.10105 -0.10766 -0.20586 0.15128 -0.22136 0.28899 -0.051729 0.13915 0.5155 -0.092385 -0.3176 0.35885 -0.40697 0.19269 -0.024935 -0.055789 0.27521 -0.42646 -0.35724 -0.05237 0.033919 -0.34333 -0.042219 -0.48262 -0.0018346 -0.073393 0.083932 -0.21674 -0.1233 0.12819 -0.28981 -0.23343 0.26076 -0.0010918 0.14588 -0.10063 0.12631 0.36477 -0.33586 0.84248 -0.097023 0.070957 -0.39357 0.18741 0.018415 -0.52526 -0.056978 0.048074 0.33367 0.17455 0.22214 -0.29042 0.24604 0.044382 -0.258 0.0048382 -0.20948 0.036003 -0.6495 0.090422 0.081102 0.42221 0.25156 -0.1 -0.14799 -0.19317 0.14881 -0.06676 0.42902 0.44258 0.06506 -0.30351 -0.22968 -0.055257 0.30723 0.099548 -0.071837 -0.13278 0.65615 -0.14056 0.17462 -0.29592 -0.25528 0.22521 -0.10477 0.034281 -0.37716 -0.003581 0.22052 0.092557 0.14258 -0.079111 -0.28021 0.10815 0.31565 0.012911 0.41108 -0.31181 0.10626 -0.12207 -0.48339 0.11713 0.090945 -0.16987 -0.078636 -0.52837 -0.045701 0.053598 0.34122 -0.13256 0.39711 0.18036 0.55721 0.17824 0.49695 0.04905 -0.1713 0.25721 0.0063247 -0.21046 0.32654 0.40883 -0.17836 0.86246
year 0.057423 0.015524 -7.4191E-4 -0.11928 0.046995 -0.049581 -0.035759 -0.26357 0.1582 -0.1059 -0.024387 -0.14154 0.027566 -0.037523 0.10444 0.04996 -0.036678 0.29057 -0.16194 -0.18361 -0.16894 0.079509 -0.25069 0.050512 0.004968 -0.048627 0.12478 0.10524 -0.31084 0.032386 -0.044677 0.24031 0.30248 -0.34414 -0.023419 0.029865 -0.051483 0.035692 -0.053331 0.1652 -0.018775 0.13013 -0.044727 -0.10913 0.14386 -0.0020722 -0.031638 -0.19645 0.172 0.099652 0.039988 -0.064746 0.07788 -0.026704 -0.27229 0.040404 -0.16671 -0.040527 0.054593 0.07332 0.096229 -0.13862 -0.089304 0.079879 -0.05816 -0.18602 0.02884 0.04301 -0.015052 -0.2102 0.010398 -0.0020122 0.10833 -0.069717 -0.18338 0.061299 -0.014505 0.077005 0.10839 0.089272 -0.017493 -0.03253 0.049883 0.3796 -0.059432 0.31309 0.093984 0.10755 -0.12732 -0.20405 -0.075759 -0.21989 0.036226 -0.1261 0.011764 -0.1376 0.18605 -0.027489 -0.54176 -0.11229 0.37889 0.022187 -0.15169 0.047551 0.098457 0.18577 0.044041 0.2832 0.14155 0.37227 -0.040302 0.24457 0.012033 -0.28873 -0.022231 0.24848 -0.050766 -0.036678 0.1476 0.098585 0.024652 -0.063832 7.2114E-4 -0.09431 0.042889 -0.12468 0.19689 0.034802 0.1418 -0.19795 0.10858 0.020536 0.13017 0.088757 0.048999 -0.087637 0.34142 0.10332 0.15042 -0.020189 -0.21178 0.053378 0.042449 -0.045438 0.011914 -0.056205 -0.018456 0.012524 0.055619 0.21012 -0.20322 -0.063405 -0.20609 -0.11264 -0.38019 -0.11212 -0.17557 0.10057 -0.072364 -0.038681 -0.066099 -0.1469 0.042232 -0.1646 0.043746 0.0059479 -0.13993 -0.35575 -0.15453 -0.066358 -0.049216 0.13754 -0.092896 0.26321 -0.39768 0.050242 -0.017892 0.2609 -0.08625 -0.042779 -0.19154 0.21114 -0.092601 -0.15129 0.13268 0.2312 0.17141 0.20571 0.15111 0.13092 -0.171 -0.070243 -0.20325 0.02733 0.076274 0.1407 0.11597 -0.0092868 -0.094308 -0.10536 0.22325 -0.11112 -0.011198 -0.3162 -0.24233 0.040215 -0.021487 -0.25077 0.052033 -0.043189 0.17388 -0.18736 0.12288 0.26633 -0.1992 0.042265 -0.27827 -0.3219 -0.22961 0.24044 -0.1591 0.043404 -0.073335 -0.0044507 -0.23649 0.018784 0.021923 -0.1488 -0.0036453 0.079731 0.10522 0.188 0.37858 -0.22263 0.051803 -0.25087 0.21937 0.14188 0.12961 -0.10101 -0.063027 0.13422 -0.37975 0.18726 -0.0049737 0.19434 -0.067909 0.11727 0.26538 0.32184 0.40949 -0.11364 0.082852 0.12605 0.2561 0.084664 0.1899 -0.054842 0.33209 0.017249 0.017234 0.20166 0.27341 0.30024 0.19529 0.046442 0.18005 -0.25694 -0.074342 0.033837 0.10349 -0.016742 0.12616 0.21642 0.045281 0.019131 -0.08467 0.20456 0.2364 -0.1127 -0.049706 -0.22876 -0.097354 0.20331 0.36437 0.010097 0.19317 0.054162 0.030701 0.23539 -0.23701 0.14639 0.14774 -0.35536 -0.045946 -0.02266 0.038727 0.12602 -0.034906 0.23945
psychiatry 0.74306 -0.12414 -0.033528 -0.24187 -0.22625 -0.02684 0.45015 0.082103 -0.19284 0.13839 -0.21855 -0.28111 -0.22866 -0.28554 -0.050469 -0.25448 0.18722 -0.29941 -0.19175 0.48218 0.0019219 0.088814 -0.17304 -0.070439 -0.30042 -0.17194 0.50553 0.0049632 -0.31792 -0.19316 -0.18389 0.01095 0.60144 0.099511 0.37782 -0.30775 -0.38847 -0.25787 0.079459 -0.29791 0.11668 -0.15819 -0.25363 -0.57761 0.072672 0.38506 0.098231 -0.042576 0.083269 0.10891 0.10485 -0.69056 0.06899 -0.11539 0.16309 -0.05163 0.0040814 0.46081 -0.044531 0.09149 -0.21128 -0.060211 0.11937 0.12777 -0.01263 -0.098545 0.41564 -0.44084 0.34358 -0.46993 0.49726 0.052398 0.67798 0.18715 -0.061076 0.048184 0.077572 0.098698 -0.22525 0.24338 -0.18757 0.45024 0.059961 -0.67346 -0.0042677 0.12852 0.1221 -0.36676 0.069857 -0.27884 -0.28784 -0.57466 0.17843 -0.038485 -0.062582 -0.027274 -0.080048 -0.49508 -0.090693 0.13044 0.43937 0.39981 -0.24693 0.31527 -0.34835 0.093197 0.18254 -0.29705 0.62025 0.17542 0.46492 0.12193 -0.14018 -0.23424 0.061535 0.43244 0.35852 -0.19497 -0.14054 -0.36792 -0.16254 0.16638 0.14174 -0.15569 -0.58696 -0.039627 0.016909 -0.22732 -0.26849 0.23782 0.059672 -0.06849 0.39069 -0.27195 -0.05886 -0.23472 -0.62777 -0.071373 -0.26751 0.23743 0.029854 -0.36094 0.29993 0.47422 -0.28989 0.041173 -0.16136 0.044259 -0.5405 -0.2126 0.21467 -0.017223 -0.44738 0.22391 0.039147 -0.16587 -0.73125 0.050868 0.13472 0.17397 -0.43224 0.04855 -0.017391 -0.061559 0.092666 -0.19755 -0.15363 0.043371 -0.053103 0.16137 -0.6246 0.19085 -0.19115 -0.090173 -0.36509 -0.015385 -0.3963 0.22384 -0.56143 -0.40881 -0.069812 0.37564 0.39741 0.29099 0.31134 -0.01404 -0.12239 0.14934 -0.043937 -0.50264 0.58036 -0.2485 0.28753 -0.18276 -0.20514 -0.16492 0.31154 0.1656 0.19425 0.074869 0.21043 -0.057354 0.15849 0.044026 0.036626 -0.034133 -0.054864 0.12548 -0.1594 0.1996 0.3469 -0.61893 0.032938 -0.40286 0.20137 0.304 -0.10314 -0.24891 -0.0019954 -0.11083 0.17774 0.030833 -0.36109 0.27835 -0.073621 0.60524 0.31821 -0.38707 0.049839 -0.064422 0.0054933 -0.28495 0.0035274 0.32987 0.20883 0.20292 0.40082 0.0031962 -0.60052 0.43707 0.14646 0.031666 -0.12215 -0.27651 0.181 -0.053651 -0.25336 0.37057 -0.30089 0.23924 0.23851 0.1263 -0.48891 0.12317 0.060202 0.15402 0.34787 0.15038 0.14231 -0.09161 0.17481 -0.018569 0.1847 0.17145 -0.23773 -0.20381 0.13521 0.004636 0.44212 -0.20505 0.0059252 0.1796 0.16938 -0.23567 0.10271 0.085686 0.19165 0.14156 -0.017127 -0.49286 -0.37044 0.53062 0.30787 0.24504 -0.14156 -0.21542 0.049739 0.42119 -0.28018 -0.11399 0.017891 -0.2345 0.014321 -0.51584 0.081535 0.31922 -0.10172 -0.060216 -0.22526 -0.14061
asylum 0.054371 -0.3208 -0.59936 -0.39364 0.03487 0.33532 4.3448E-4 -0.10729 0.038777 -0.38606 0.1624 0.015414 0.0944 0.085916 -0.092969 -0.031736 -0.14586 0.29635 0.14161 0.31345 0.093407 -0.030258 -0.11569 -0.058323 -0.043118 -0.34601 0.18148 0.078507 -0.40583 -0.1949 0.038288 0.41127 0.80281 0.20546 -0.19962 0.073389 -0.32462 -0.27767 0.54709 0.11145 -0.23835 -0.13567 -0.17509 -0.55974 -0.29586 -0.06385 0.22469 -0.39908 -0.32084 -0.84 -0.10758 -0.35764 -0.046302 -0.30811 -0.026245 -0.11232 -0.013662 -0.10523 0.2738 -0.094073 0.38442 0.27638 0.050475 0.87218 0.10744 0.16781 0.62598 0.37795 -0.18143 0.018624 0.20747 0.04476 0.24712 -0.05781 -0.079226 0.09172 0.040901 0.78806 -0.28599 -0.07588 0.28423 -0.2321 -0.076171 -0.2618 0.048234 0.19105 0.053873 -0.30243 -0.26592 -0.46198 -0.33321 -0.40706 0.36226 0.48374 0.08062 -0.28405 -0.25708 -0.25206 -0.14103 0.55438 0.083122 -0.44185 0.014868 0.14388 0.16004 -0.15263 0.0053092 0.17774 0.11843 0.11578 0.37125 -0.077738 0.19216 -0.072532 0.056466 0.055097 0.11531 0.22134 0.17036 -0.086048 0.39497 0.23217 0.19429 -0.70204 0.27971 0.21732 0.20817 -0.086823 -0.1737 0.24829 0.1829 0.037443 0.38114 -0.14028 9.1638E-4 -0.31403 0.049816 0.62013 0.3624 -0.030018 0.0071832 -0.47248 -0.24718 -0.46602 0.27234 0.18207 0.18815 -0.11897 0.41338 -0.34702 -0.23298 -0.0090959 -0.32567 -0.080752 -0.11145 -0.17389 0.099618 0.10204 -0.34076 -0.22871 0.0026268 0.427 0.15533 -0.17567 0.17525 -0.62415 -0.21761 -0.268 -0.44831 -0.1741 -0.081732 0.28192 -0.034275 0.081171 -0.61721 -0.2437 -0.0064578 -0.27806 -0.46248 -0.32789 -0.21974 0.061023 0.24227 0.14851 -0.0995 0.32413 0.45107 -0.12752 0.28355 -0.30258 0.40135 -0.47225 -0.36608 -0.43131 0.17053 0.11579 -0.71389 -0.22699 0.39994 -0.54114 0.27756 -0.74354 -0.18134 -0.21605 0.12365 -0.09903 -0.19813 -0.33187 -0.1301 -0.373 -0.15368 -0.45934 -0.27749 -0.023667 -0.42534 0.21313 -0.07518 -0.17111 -0.30366 -0.26904 -7.9258E-5 0.031257 0.34518 0.24866 0.39658 -0.050712 -0.27529 -0.27393 -0.0079751 -0.19636 -0.37415 -0.23978 -0.36759 0.14393 0.10065 0.20115 0.08615 0.6821 0.086463 -0.063753 0.054839 0.21089 0.079827 -0.16261 0.033598 -0.27338 -0.23235 -0.42127 0.22468 -0.067704 0.17307 0.28063 -0.38024 0.21244 0.46846 -0.14376 0.34505 -0.23694 0.21811 0.37478 0.37149 0.14421 -0.14525 -0.31928 0.11114 -0.14591 -0.1894 0.043364 0.031704 -0.024683 -0.11241 0.19959 0.13932 -0.16929 0.30206 0.48292 0.24438 -0.12004 0.15746 -0.46621 -0.14265 0.13433 0.043347 -0.024343 0.36729 0.051107 0.23622 0.035806 -0.28384 0.29621 0.68613 -0.1759 0.34966 0.3372 -0.07585 0.16034 -0.044838 -0.049185 -0.069241 -0.21001
manslaughter 0.13844 0.2762 0.18162 0.45208 0.14909 -0.24897 -0.064758 -0.18803 -0.0055417 -0.076077 -0.036109 -0.14169 0.19306 -0.31904 -0.080188 -0.1641 -0.0075431 6.3211E-4 -5.0347E-4 0.3869 -0.14844 0.35492 -0.30577 -0.087943 -0.29319 -0.23558 -0.17337 -0.64111 -0.59808 -0.5266 0.14196 -0.087759 0.18083 0.22135 0.12116 -0.027403 -0.45276 0.20976 0.0014644 -0.015682 0.29065 0.19288 -0.36237 0.024446 0.051321 0.21966 -0.49759 0.16782 0.028185 -0.31096 -0.13206 -0.78525 -0.0022541 -0.27529 -0.15949 -0.13574 -0.3293 -0.21691 -0.048596 0.034771 -0.087072 -0.13727 0.50677 -0.035785 -0.052696 -0.055963 -0.23717 -0.12183 0.0098361 -0.060694 0.55104 0.42886 -0.16293 -0.1709 -0.31283 -0.17993 0.16086 0.43533 -0.24724 0.13355 -0.11899 0.28872 -0.039558 0.2518 0.084865 -0.010606 -0.022437 -0.14345 -0.042663 0.4347 -0.014005 -0.3874 0.30442 -0.19991 -0.25859 0.21653 -0.40718 -0.32253 -0.094032 0.16583 0.42081 0.33112 -0.087103 0.048952 0.13851 0.07202 0.075249 0.42726 0.36226 0.088705 0.32675 0.39629 0.17634 0.34728 0.16923 0.44995 -0.25129 -0.4162 -0.13111 -0.048157 -0.08466 0.12413 -0.080662 0.17703 -0.014384 0.03936 0.39674 -0.1918 0.20438 0.023485 -0.096841 -0.29823 0.17282 -0.29678 0.2061 0.23058 -0.71716 0.48344 -0.034385 0.22892 -0.11319 -0.0018712 -0.0098891 0.13224 0.30392 -0.27107 0.31957 -0.33001 -0.39024 -0.20584 -0.23321 0.015396 -0.34367 0.39628 0.08645 0.066466 -0.25353 -0.24546 0.016218 0.56966 -0.04722 0.11926 0.042414 -0.1718 0.4128 0.17893 -0.42803 0.15448 -0.44352 0.45469 -0.32439 -0.40131 -0.33182 0.15485 -0.35895 -0.078717 -0.16532 -0.44543 -0.4704 -0.29806 0.105 0.21081 -0.05232 0.286 0.36476 -0.08173 -0.041722 -0.13188 0.16893 0.10379 0.3952 -0.59202 -0.50175 0.13598 -0.14796 -0.075225 -0.14262 -0.39991 0.25385 -0.48755 -0.14779 0.025269 -0.31144 -0.063203 -0.33691 0.36183 0.13807 -0.088696 -0.12315 0.10268 -0.46398 0.030697 0.30661 -0.2229 -0.41754 -0.048451 0.029262 0.027224 -0.40715 0.094561 0.58705 0.13684 0.10003 0.0017945 0.1858 0.42053 0.66234 -0.05651 -0.14175 -0.0621 0.022381 -0.21994 0.59271 -0.065857 -0.19804 -0.006641 0.15091 0.32453 -0.54219 0.29223 0.16087 0.044977 -0.47056 0.50019 0.1403 0.081118 -0.34846 0.58342 -0.20609 0.52189 0.3509 0.3756 0.35308 0.054226 0.11487 -0.026539 -0.10442 -0.02167 0.16995 0.31955 0.19754 -0.46485 0.1487 0.32126 -0.10395 -0.28607 -0.24457 0.17977 0.60367 -0.13695 0.10529 0.074798 0.3485 0.065129 -0.32626 0.096968 -0.029937 -0.075354 0.25891 -0.33368 -0.096637 -0.029839 0.14056 0.065985 0.33777 -0.18028 0.07304 0.26625 -0.1378 0.19534 0.027054 -0.17547 0.62618 -0.207 -0.05419 0.035234 0.38442 0.19329 -0.051392 -0.023671
music 0.43256 -0.25878 0.1768 0.016321 0.1751 -0.23315 0.23195 0.12314 0.1992 0.011653 -0.2849 -0.22603 -0.34017 0.12879 0.038857 0.3458 -0.30943 0.2066 0.061294 0.10969 0.074712 3.2973E-4 0.041927 0.28754 -0.097056 -0.022122 -0.13701 -0.09745 -0.13201 0.076355 -0.50886 0.1282 -0.2863 0.067597 0.024172 -0.12233 0.15967 0.067604 0.29283 -0.076457 -0.010496 0.12934 -0.30993 -0.36403 0.13018 -0.2135 -0.27406 0.42331 -0.089043 0.073701 0.16015 -0.20697 -0.084288 -0.17215 0.12525 0.1682 0.087334 0.22781 -0.18311 0.0065949 -0.16963 -0.046577 -0.091578 -0.45088 0.37819 0.29807 -0.077935 0.18725 0.047316 0.32232 0.12394 -0.08739 -0.01972 0.115 -0.2122 0.10825 -0.11761 -0.40792 -0.15318 0.26234 0.042683 0.044988 0.32907 0.044843 -0.17668 0.16196 0.085031 0.05332 -0.28701 0.022304 0.05827 0.0094195 0.25344 0.52548 0.17035 0.010114 -0.15545 -0.065888 -0.29764 -0.026732 0.33844 0.11552 -0.39244 0.20277 -0.14866 0.1651 -0.37613 0.16228 -0.06851 -0.0044662 0.38321 0.019041 -0.0098343 0.097542 -0.27032 0.038211 0.43079 0.18502 -0.037832 0.12918 -0.19842 -0.08173 0.32023 -0.1176 -0.052726 -0.16716 0.14686 -0.063711 -0.29114 0.44816 -0.056854 0.22196 0.1372 -0.61249 0.26435 -0.17075 -0.56319 -0.013948 0.026094 0.066834 0.32814 0.068362 -0.048904 0.3872 -0.19985 -0.0070719 -0.19605 -0.0026896 -0.078582 0.25392 0.062438 -0.26174 -0.14758 -0.2986 0.09345 -0.084716 -0.15399 0.065527 -0.21561 0.51072 0.099348 0.23242 -0.30279 0.45818 0.083696 -0.11243 0.043954 -0.30413 -0.16325 0.18501 -0.48302 0.17541 -0.39762 0.0061247 -0.27308 -0.1191 0.31996 0.17074 -0.37496 -0.56254 0.096553 -0.24557 0.10447 0.20776 -0.1333 0.40508 0.0031006 0.19311 -0.028085 0.23651 0.32035 0.034808 -0.37145 -0.36877 -0.15487 -0.294 -0.23 -0.15452 -0.17669 0.099076 0.26879 0.16366 -0.28724 -0.19657 -0.028755 -0.14207 -0.055309 -0.19234 -0.055931 0.12163 0.26337 -0.28972 0.12018 0.041191 -0.35144 0.22137 -0.35001 -0.49157 -0.066412 0.062011 -0.4584 -0.12491 -0.070068 0.22684 -0.052227 0.19403 -0.17388 -0.039927 -0.032532 0.21231 -0.3347 0.077674 0.065636 -0.62331 0.39051 -0.10054 -0.37224 0.0028342 0.073278 0.31381 -0.11473 -0.1558 -0.067995 -0.46729 0.30823 -0.15655 -0.24771 0.20516 -0.047862 0.049489 0.014408 0.068208 -0.27127 0.11297 0.42765 0.2048 0.51917 0.28147 0.48261 0.052434 -0.14634 0.14717 0.20074 0.20226 0.10199 -0.090981 -0.087194 0.12047 0.1159 0.0304 0.059875 0.52275 0.0018689 0.24281 -0.29775 -0.022727 -0.095756 0.27224 -4.9028E-4 -0.1066 0.37815 -0.58306 0.40681 0.054478 -0.18773 0.12679 -0.033029 0.45153 0.033499 0.077871 -0.11967 -0.33042 -0.11391 0.11392 0.021533 0.16847 0.1003 0.046514 0.31507 0.23572
record -0.18587 0.12991 0.13355 0.099353 -0.080813 0.23501 0.024034 -0.03364 -0.053339 -0.25543 0.085507 -0.39385 0.074206 0.067557 0.056369 -0.13634 0.22428 0.14155 -0.23984 0.13673 -0.19759 -0.61228 -0.0097133 0.038454 0.012842 0.13182 0.19263 0.24153 -0.29431 -0.12218 -0.02891 0.23159 0.36762 0.1888 0.088645 -0.06411 -0.2159 0.15671 -0.093885 -0.097044 -0.37124 0.11159 0.23771 0.14016 0.060938 -0.055175 -0.11588 0.24203 0.14443 0.28288 -0.12481 -0.35389 -0.24743 -0.73393 -0.16017 0.047737 -0.27943 0.20884 0.53248 -0.24958 -0.21728 0.33116 -0.095891 -0.067605 0.13646 0.067974 -0.1591 0.05554 -0.076876 -0.15341 -0.0035992 -0.54098 -0.15394 -0.34402 0.026746 -0.23755 0.21488 -0.30658 -0.17873 -0.12995 0.2399 0.063064 0.033992 0.067839 -0.14099 0.25814 -0.17407 0.1104 -0.041731 -0.23247 0.14883 -0.11886 0.34562 0.41736 -0.0068213 -0.14704 -0.056265 -0.10364 -0.46012 -0.041978 0.60821 0.088901 -0.025281 0.30074 -0.23067 0.15238 -0.243 -0.060772 -0.01464 -0.098882 -0.083682 0.086918 -0.30327 -0.14306 -0.18589 0.15782 -0.022575 -0.30229 0.43984 -0.35408 0.018097 -0.1651 0.12154 -0.14515 -0.010196 0.39332 0.38846 -0.1115 0.045798 0.19497 -0.18569 -0.23743 -0.0024252 -0.0575 0.34081 -0.25507 0.31715 -0.095323 0.19903 0.30805 -0.23847 -0.22218 -0.064912 0.4327 -0.049806 0.179 0.04964 -0.66889 0.15956 0.43114 0.14164 -0.14023 -0.28879 -0.0087724 0.08259 0.21666 -0.023063 0.076371 -0.1724 -0.12881 0.024866 -0.43874 0.11703 -0.15607 0.17325 0.10409 -0.15284 0.21169 -0.32874 0.098604 -0.29978 0.19242 -0.5174 0.18681 -0.2525 0.063785 -0.1466 -0.0072697 -0.27653 -0.31867 -0.041893 -0.064393 0.24505 -0.029251 0.31904 0.13499 -0.017863 -0.22957 -0.33239 0.16619 0.13412 -0.27845 -0.12351 -0.462 -0.095634 0.027287 -0.084207 -0.13016 -0.32961 -0.27861 0.043115 -0.10766 -0.15928 -0.27535 -0.15229 -0.065195 0.12834 -0.23946 0.34037 -0.12087 0.19525 -0.0032504 -0.16321 0.06345 -0.081785 -0.22011 -0.0919 -0.21295 0.02456 0.21257 -0.18469 -0.19593 -0.12528 0.015562 -0.24352 0.1485 0.094482 -0.21495 -0.26362 -0.33873 -0.19305 -0.25705 0.045268 -0.12409 -0.1414 0.0037264 -0.15102 0.20057 0.47199 -0.19499 -0.1775 0.22009 -0.25662 0.1457 0.42956 0.27887 0.060163 0.18051 0.095885 0.070979 0.4019 0.12241 0.13144 0.42476 0.1609 -0.082799 0.043659 0.26684 0.3816 0.067861 -0.14565 0.30382 -0.030067 -0.022881 0.25002 0.13726 0.30269 0.15801 -0.2867 -0.23724 0.054342 0.20051 0.16056 -0.1507 -0.17901 0.03197 0.18927 0.27507 -0.15417 -0.27716 0.47215 -0.19269 -0.021811 0.40251 -0.059145 0.17926 0.14263 0.26205 -0.22415 0.044601 -0.051853 0.29561 -0.14068 -0.17815 0.50934 0.19551 0.10576 0.013905 -0.039253 -0.034569
energy 0.51567 -0.25043 -0.19899 0.054679 0.018365 -0.10753 0.12364 0.15083 -0.11629 -0.1199 0.30764 -0.080273 0.53903 0.17263 0.34233 0.045179 -0.017275 -0.058124 0.090447 0.16337 -0.37314 -0.14108 -0.17924 -0.13532 -0.1559 -0.15448 0.14473 0.08968 0.031274 0.27047 -0.29524 -0.10552 0.030236 0.073589 -0.20006 -0.22686 -0.10988 -0.48419 0.10522 -0.1751 0.18638 0.25097 0.17918 -0.45434 -0.074373 0.10292 0.17129 -0.54898 -0.1476 0.12099 -0.03626 -0.017928 -0.3948 0.023541 0.041427 0.44984 0.066644 -0.40266 0.08099 -0.075345 0.32744 0.1371 -0.31613 -0.3265 0.071973 -0.19073 -0.25778 -0.069034 0.1593 -0.017279 0.21521 -0.45802 0.15228 0.19219 -0.043804 0.06611 0.2964 0.16094 -0.14181 -0.071464 0.12284 -0.54716 -0.16369 -0.15959 0.013918 0.16182 0.029414 -6.0135E-4 0.13636 -0.049767 0.24511 -0.097567 0.28019 -0.30892 0.098068 0.2048 -0.040967 -0.087201 -0.65842 -0.040958 0.48061 -0.27749 -0.52477 0.44474 0.049476 0.0030408 0.3731 0.027773 0.30241 -0.16547 0.45576 0.19082 -0.12026 -0.25252 -0.10735 0.031996 0.66426 0.051232 0.11316 -0.23133 -0.27274 -0.091757 0.16694 0.029355 -0.11054 0.10423 0.13745 -0.077262 0.52378 -0.01215 0.061999 -0.33283 0.20065 -0.15863 -0.38356 0.036044 -0.065524 -0.12584 -0.072087 0.40066 -0.13026 -0.4998 0.22627 0.26968 -0.15777 0.099586 -0.23558 -0.0089655 0.033477 0.39187 0.10371 0.19187 -0.042619 -0.079366 -0.30705 0.30157 -0.079511 0.029998 -0.12709 0.28476 -0.12083 -0.0061108 -0.05619 -0.065092 -0.2344 0.17346 0.14436 0.24032 -0.29702 0.22395 -0.13042 0.13048 -0.096263 0.015545 0.13521 -0.44453 0.011891 -0.04473 -0.31597 0.083776 0.018575 -0.061 -0.26844 0.2546 0.01195 -0.25196 0.2958 0.46521 0.56889 0.34694 -0.182 0.34814 -0.34779 -0.10018 -0.030615 -0.11204 0.08267 -0.15145 -0.19568 -0.02118 -0.16127 -0.058769 0.045249 -0.049073 0.17601 0.018178 -0.13874 0.2237 -0.10266 0.14055 0.13191 -0.12998 0.30695 0.074658 -0.086038 0.048196 -0.37126 -0.24433 0.22729 0.42109 0.14445 -0.1667 -0.018441 -0.030209 0.60323 -0.052998 -0.052766 -0.10275 -0.44921 -0.1776 -0.5377 0.056194 -0.010916 -0.32526 0.038184 -0.010122 -0.10717 0.109 0.32989 -0.46396 -0.24431 0.34572 -0.051292 -0.18178 -0.094285 -0.11896 -0.10755 0.16114 0.18674 0.037331 -0.032034 0.053557 -0.14122 0.13121 0.32877 0.25338 -0.0037689 0.23995 -0.089982 0.053553 0.42087 -0.16848 0.26449 -0.014247 0.32189 -0.11758 -0.47247 -0.96631 -0.37236 0.18632 0.12606 -0.0071071 -0.054163 -0.067307 0.040643 0.046576 -0.034239 -0.23034 0.11848 -0.24107 -0.025642 -0.23082 -0.26032 0.14237 0.23849 -0.42993 -0.047721 0.27248 0.055497 0.15642 0.060423 -0.083104 0.14013 -0.04594 0.044117 0.013053 -0.17351 -0.11955 0.02558 -0.28098
announcement 0.083934 0.44499 -0.038582 -0.093883 -0.13375 -0.065683 0.023075 -0.24437 0.064148 0.14134 0.31502 0.015463 0.29448 0.028013 0.26894 0.42991 0.039993 0.091184 0.12659 0.071124 -0.063959 0.057549 -0.24336 -0.15418 0.15001 0.0436 -0.23836 0.20769 -0.43993 0.015577 -0.20945 0.32775 0.21788 -0.11051 0.37649 0.030793 0.14847 0.040975 0.10427 -0.13622 0.10545 0.22714 -0.08299 -0.15132 0.038049 0.032222 0.078274 -0.11899 -0.23266 -0.26353 -0.090923 -0.58763 0.17147 -0.159 -0.20602 0.12651 0.03211 0.017551 -0.12979 -0.030073 0.1401 -0.13352 -0.085817 -0.086937 -0.0019635 0.12227 0.22906 -0.13384 -0.058269 -0.046085 0.098325 0.084642 0.019035 0.33727 0.045809 0.09914 0.069746 -0.2009 -0.11553 0.11346 0.031967 0.044342 -0.39093 0.42992 0.11053 0.039232 -0.15988 -0.037208 -0.27634 0.10243 -0.056868 0.14612 -0.24603 0.079708 0.074587 -0.30912 -0.25519 0.24378 -0.26417 -0.36499 0.40092 0.067064 0.036275 0.23417 0.15255 0.2753 0.080079 0.22962 -0.0033849 0.01173 0.054586 0.24825 -0.10175 0.1807 -0.2437 0.15612 0.022323 0.061083 0.052756 0.13832 0.21693 0.026334 0.18696 0.072441 0.10955 -0.088712 0.37729 -0.14851 0.1196 -0.13532 0.1531 -0.31975 0.034778 -0.19932 0.056395 -0.135 -0.048602 0.19464 -0.037555 -0.32347 0.099236 -0.18958 -0.10971 -0.16194 0.064661 -0.32302 -0.14696 -0.18716 0.10896 -0.14876 0.29764 0.0069622 0.1981 0.11596 -0.1686 -0.12087 0.1071 0.11852 -0.19603 -0.0080418 0.35597 -0.42492 0.13142 0.12568 -0.23627 0.57328 0.35004 0.2134 0.046601 0.26581 -0.22284 -0.007489 -0.11623 0.2657 -0.19936 0.29843 -0.29924 0.11281 -0.41237 0.16437 0.095588 -0.35791 -0.24683 0.27595 0.46769 0.56203 -0.1306 0.28769 0.056116 -0.092607 0.21093 -0.39481 -0.13647 0.051903 0.25463 0.065449 -0.5338 0.060879 -0.10859 0.19441 0.39671 -0.32579 -0.028853 -0.21654 0.035314 -0.052826 -0.28458 0.3129 -0.06884 -0.11093 0.31544 -0.37511 0.10458 0.34096 0.084349 0.17639 0.23087 -0.066951 0.10692 -0.16151 -0.19747 -0.12746 0.13285 0.14879 0.12855 -0.085451 -0.053154 -0.17809 -0.030279 -0.21471 -0.029513 -0.015206 0.15056 -0.1374 -0.30423 0.058823 0.1355 0.12274 0.13455 0.012216 -0.059563 0.33618 -0.24732 -0.073968 0.28937 0.22064 -0.23193 0.070348 0.15996 0.41863 0.086861 -0.17332 0.3592 0.3346 0.06812 0.41207 -0.077469 0.059943 0.079075 -0.19961 -0.12893 0.2388 -0.1071 0.16684 -0.12227 0.15782 -0.088255 -0.25094 -0.25218 0.10066 0.053103 0.091015 0.022859 0.19852 -0.11467 0.29863 0.1115 0.1991 0.14189 -0.095368 -0.17937 -0.34249 0.4473 -0.048293 -0.062503 0.0015459 0.0074844 -0.10191 -0.19059 0.3498 -0.31912 -0.11614 -0.014779 0.12211 -0.11901 0.14615 0.5294 0.12954 0.018391 -0.036116
mile -0.018495 -0.024275 -0.28943 -0.10579 0.10271 0.2134 0.08153 -0.44737 0.26918 -0.14641 0.10659 -0.45496 0.1419 -0.084581 -0.20661 -0.073791 0.17748 -0.25151 -0.39434 0.16547 0.02641 0.23927 0.12759 0.078639 -0.011615 -0.16565 0.1791 0.32436 -0.32576 0.0068168 0.29913 0.12333 0.16486 -0.13735 -0.27919 0.2132 0.072237 0.19481 -0.31775 -0.041501 0.44814 -0.032331 0.36935 0.27822 -0.07609 0.09831 0.021724 0.17278 -0.17869 0.048912 -0.080222 -0.14085 -0.10629 0.20204 -0.027326 -0.15541 -0.46407 0.39854 -0.19896 0.1108 0.13242 -0.19875 -0.11633 -0.022176 0.16378 -0.52437 0.32738 -0.045432 -0.41978 -0.16752 -0.13226 0.032228 0.51835 0.090898 -0.23171 0.22395 0.70896 -0.045452 0.15784 0.26843 -0.087796 -0.30704 0.017157 0.18502 0.1239 -0.11991 0.33165 0.2668 0.11443 0.24737 -0.023601 0.2535 0.75525 0.0083342 0.084958 0.074301 0.21648 -0.051974 -0.03213 -0.28566 0.36288 -0.13134 -0.17316 0.40697 0.18273 0.10816 0.090216 0.27886 0.056094 0.59364 0.34658 0.31752 0.089977 -0.19555 0.15959 0.076669 0.13363 -0.05093 0.65523 -0.1728 0.05699 0.36539 0.10699 0.074552 -0.0070665 -0.14593 0.060828 0.29383 -0.072146 -0.49685 -0.03255 -0.53915 0.69615 -0.38094 0.13508 -0.35205 -0.12125 -0.3767 0.22783 -0.040509 0.3701 0.1836 -0.25984 0.43535 0.008212 -0.13382 -0.14396 -0.13914 -0.039099 -0.048141 -0.17244 0.13113 -0.33821 -0.62308 0.28753 -0.21978 0.023616 -0.21311 -0.24315 -0.19339 -0.048694 0.072711 0.04095 0.16755 -0.19492 0.15681 -0.28675 -0.013345 -0.36761 0.19771 -0.14573 -0.3671 -0.67141 0.28963 -0.34519 -0.57455 -0.093615 0.16981 0.071958 -0.25121 -0.0023283 -0.2866 0.22943 -0.28271 0.11088 -0.16223 -0.46914 0.39173 0.27102 -0.24266 0.23649 0.42335 0.17417 -0.42483 0.055604 -0.01008 0.21044 0.45052 0.28005 -0.036668 0.2269 -0.38716 0.051183 -0.18891 -0.14844 0.15031 -0.25014 -0.22812 0.15112 0.023983 0.5261 -0.11958 0.11157 -0.010433 0.083277 -0.099477 0.37264 -0.17086 0.031708 0.20997 0.1008 -0.093917 0.2433 -0.11884 0.16346 0.0096044 0.37872 -0.26232 -0.26683 -0.012375 -0.51926 0.40964 0.22231 -0.38709 -0.13966 -0.33575 0.16534 -0.0040441 0.20337 0.3517 0.0483 -0.24778 0.12765 0.10204 0.17378 0.12232 -0.21651 0.035708 0.046036 0.30461 0.38276 0.38854 0.026603 -0.3879 -0.0028427 0.088559 0.072646 -0.58292 0.17681 0.41806 -0.19918 0.029663 -0.52013 -0.35714 0.39573 -0.18781 0.14466 -0.088389 -0.43916 -0.033967 -0.18988 0.077716 -0.028058 0.3477 -0.17963 -0.046129 0.33571 -0.15089 0.198 -0.1629 0.33434 -0.054562 -0.14243 0.0024211 0.026776 -0.081961 -0.01341 0.26117 0.059213 0.099101 -0.30599 0.12943 0.21689 -0.67598 -0.0058328 -0.10409 -0.025853 0.22735 -0.54787 0.33147
airport 0.21656 0.25314 -0.19267 -0.31396 0.08023 -0.36272 -0.1899 -0.26924 0.13873 -0.079983 -0.34533 0.2659 0.017515 -0.0099988 0.0381 0.12484 0.40631 0.1275 -0.10505 0.070748 0.53593 0.47866 0.10538 -0.069774 0.21978 -0.33878 0.49687 0.15406 -0.056752 -0.46777 -0.2033 0.44467 0.19796 0.23251 -0.08556 -0.12683 0.15406 0.1609 0.20185 -0.28635 -0.082061 0.023615 -0.047511 0.41575 -0.21538 -0.23986 0.49555 0.58665 -0.039515 -0.62708 -0.3519 -0.47681 -0.57234 0.087228 0.15318 0.10576 0.19643 -0.16127 -0.065473 -0.052902 -0.043009 0.22175 -0.077701 -2.4103E-4 -0.18736 -0.092297 -0.077754 -0.026625 0.043847 0.16284 0.33926 0.082825 0.15763 0.51678 0.20131 0.26624 0.60005 0.21161 0.24793 -0.28367 0.23598 -0.36621 -0.078363 0.46417 0.14286 -0.055121 -0.37543 -0.37708 -0.068511 -0.11556 0.025746 0.080734 -0.032635 -0.014204 -0.026495 -0.081157 -0.016427 -0.25902 0.052375 -0.13881 0.30916 0.31596 0.18004 0.69938 0.16028 0.084643 -0.29646 0.24921 -0.13106 -0.29059 0.6377 0.3018 0.14266 0.021191 -0.12498 -0.0090012 -0.049859 0.12974 -0.29388 -0.10284 0.22826 0.078038 0.11783 -0.42492 -0.15228 -0.22372 0.32779 0.15354 0.172 -0.47231 -0.078136 -0.36038 0.0072317 -0.063277 0.12743 0.18638 0.13869 -0.18982 0.11654 -0.28819 -0.025843 0.033357 0.02348 -0.26737 0.045674 0.0061819 0.24883 -0.25731 -0.082795 0.20253 -0.26419 0.07039 0.35574 -0.25559 0.084719 -0.013235 -0.32253 -0.024832 -0.19961 0.16469 0.28791 0.3945 -0.026398 -0.30371 -0.37272 -0.099559 -0.047608 0.073447 -0.1431 0.011788 -0.3336 0.12221 -0.10674 -0.261 -0.023976 -0.25902 0.24377 0.026836 -0.17983 -0.14436 0.086942 0.31926 -0.10752 0.16742 0.30235 0.17704 -0.40437 0.16274 0.37426 -0.16794 0.23077 0.2452 -0.22048 -0.13257 0.20061 -0.22182 -0.21001 0.044393 0.40781 -0.40885 0.3369 -0.48906 0.30605 -0.14281 0.081321 0.10713 -0.087821 -0.11513 -0.1696 -0.094697 -0.28555 -0.43341 0.025062 0.11464 -0.30545 0.58079 0.10135 0.2179 0.016732 0.44432 0.10536 -0.23192 0.17053 0.0058513 -0.15233 -0.10133 0.16833 -0.4742 0.2326 -0.09619 -0.49041 0.084035 -0.42292 -0.66919 0.30797 0.022477 0.6733 -0.17956 0.27528 -0.0911 -0.12189 -0.14946 -0.26734 0.16911 -0.1378 0.0064363 -0.30884 0.027543 -0.18425 0.0062538 0.10049 0.29117 0.10837 -0.31856 0.12378 -0.18873 0.11868 -0.11253 0.2853 0.12125 0.30136 -0.35147 0.16202 0.43306 0.56793 -0.16098 -0.18988 0.16195 0.031077 -0.16454 0.29664 0.18749 0.1811 -0.38136 -0.19377 0.15348 7.4764E-4 0.26316 0.16281 -0.31169 -0.0029976 0.31848 -0.05437 -0.060035 -0.090748 0.098754 0.042436 0.075677 -0.1793 0.13939 -0.2499 -0.058922 0.24834 -0.66687 -0.13933 -0.32443 0.0025289 0.017663 -0.57935 0.37269
population 0.014652 4.9515E-4 -0.18715 0.39789 0.054488 0.29049 -0.1483 -0.46635 0.30242 -0.15244 0.13289 -0.12019 0.44932 -0.1441 0.2522 0.33886 0.057035 0.39576 0.044743 0.52447 0.014314 0.25513 0.22846 -0.028447 -0.13526 -0.2001 0.16468 0.15309 -0.52935 0.18131 -0.3029 0.15531 0.37122 0.34629 0.20701 -0.17338 -0.083176 -0.49883 0.040625 0.52792 0.41079 -0.47829 -0.027937 -0.26895 -0.0045538 0.0040325 0.53092 -0.020264 -0.3106 -0.17035 0.073018 0.23168 -0.12653 -0.16424 -0.098481 0.44607 0.037685 0.028696 -0.53609 -0.35199 -0.11717 0.025752 0.0064415 0.0044355 0.41765 -0.044218 0.20524 0.046827 0.38492 -0.041536 0.14521 0.23984 0.32751 -0.10182 0.01421 0.10354 0.10972 -0.088939 -0.24911 -0.033944 -0.024331 -0.48875 -0.02814 -0.41403 -0.17413 -0.14006 0.049951 0.073139 0.033316 0.0097092 -0.063792 -0.24777 0.19055 -0.18376 0.21625 0.15463 0.062348 0.012474 -0.34798 0.29128 -0.039492 -0.033717 -0.039864 0.14083 -0.24405 -0.099211 -0.27572 -0.22306 -0.086749 0.04303 0.19688 0.017821 0.17134 -0.64557 0.07369 0.15313 0.08158 0.096308 -0.17319 -0.26926 0.16163 -0.18206 -0.43495 0.10073 0.12243 0.059464 0.20369 0.043319 0.037473 -0.020429 -0.31624 0.075197 -0.12446 -0.23588 0.13115 -0.066121 0.34601 0.147 0.1214 -0.1863 -0.32556 -0.14405 0.11721 0.38236 0.25708 -0.41505 -0.14729 -0.071973 0.051066 0.11001 -0.1118 0.56061 0.11454 -0.36461 -0.19793 0.050393 -0.3577 -0.40779 0.30895 -0.16029 -0.1327 0.018829 0.083346 0.032742 0.20452 -0.048515 -0.20461 -0.0016387 -0.21173 -0.032577 -0.28303 -0.099504 -0.56728 0.080961 -0.47852 -0.52711 0.34859 0.069693 -0.29346 -0.25149 0.37044 -0.14026 -0.063259 0.067017 -0.31448 -0.19316 0.22791 0.16619 0.17066 -0.15716 0.1067 -0.39763 0.19104 0.19244 -0.076035 -0.10472 -0.10628 0.061232 0.17891 -0.55327 -0.052768 0.0078238 0.50812 -0.29923 0.47135 0.068368 -0.10856 0.057259 -0.051163 0.048574 0.30317 0.093078 0.25741 0.34095 -0.21747 -0.029891 -0.24993 -0.059402 -0.38601 -0.023187 -0.047501 -0.042876 0.074001 0.16207 0.086888 0.034097 0.29111 -0.37453 0.18645 -0.17568 -0.28576 -0.055178 0.1368 -0.1287 0.047996 0.18044 -0.052208 -0.094487 -0.0096736 0.22556 0.10372 -0.03578 0.074006 0.3223 -0.12417 0.097933 0.0067873 -0.0018623 0.36164 0.3455 0.32639 0.3725 -0.18905 0.075805 0.28784 -0.0092664 0.1615 0.14342 0.18988 0.16531 0.11627 0.12813 0.21192 0.095803 0.14077 0.1591 -0.35843 -0.19478 0.16956 0.18187 -0.14491 0.091337 0.25507 -0.050168 -0.14299 0.13399 0.29571 0.25233 -0.19663 -0.12997 -0.12785 0.16053 -0.29379 0.19066 0.32529 -0.076898 0.41448 0.087771 0.30262 0.13265 0.22272 -0.019184 0.079985 -0.18569 -0.077061 -0.11137 0.22244 0.22891 -0.058049 0.11248
planning -0.053612 0.19205 0.11539 -0.23957 -0.42438 -0.21022 -0.038227 0.11904 0.026303 -0.113 0.50958 0.039696 -0.013598 0.15902 0.12132 0.054867 0.13432 0.099056 0.20812 -0.054942 0.29806 0.2918 -0.2512 0.057019 -0.075806 0.021017 0.1786 0.10954 -0.12285 -0.31026 -0.30763 -0.031479 0.0056333 -0.15914 0.15602 -0.19314 0.073117 -0.096275 0.15178 -0.098038 -0.12978 -0.19488 -0.0019141 0.28651 -0.2981 0.25841 0.010269 0.042019 0.21336 0.02889 -0.082032 -0.4649 -0.20712 0.24688 -0.011732 0.11986 -0.01439 0.17183 -0.018525 -0.27216 0.18379 -0.097818 0.1588 0.15708 -0.30521 -0.14417 -0.0046705 0.073694 0.37108 -0.15937 0.17799 0.11414 -0.19184 0.076297 0.16776 -0.016767 0.39017 0.24595 -0.18092 -0.23762 -0.093628 -0.041908 -0.0043339 0.26037 0.23701 -0.25088 -0.092231 -0.2072 0.051364 0.11745 0.17634 -0.18442 -0.43148 0.04121 0.049966 0.0043591 -0.083299 -0.039106 -0.04797 -0.25267 0.44593 -0.10069 -0.28076 0.24931 -0.23606 0.23027 -0.068869 0.29242 -0.045503 0.14022 0.36355 0.14842 -0.13727 -0.13357 0.333 0.2672 0.2987 -0.095974 0.070154 0.29115 0.11323 0.14179 -0.12987 -0.029842 -0.16879 -0.13166 0.053397 -0.079713 0.020112 0.10942 0.091683 -0.12981 -0.13587 0.039104 -0.11167 -0.26153 -0.16777 0.098331 0.0068823 0.27124 -0.10808 -0.032427 0.27233 -0.32818 -0.18602 0.053777 0.070853 -0.55274 -0.12479 -0.019147 -0.050079 -0.14424 -0.085117 -0.055139 -0.18711 -0.13075 -0.053375 0.1202 -0.21793 -0.091156 0.15633 0.15838 0.10256 -0.14443 0.092511 -0.25961 -0.03247 -0.0052478 -0.3067 -0.17848 -0.20046 0.075708 -0.13499 0.060504 -0.28073 0.18423 0.027413 0.16862 -0.085661 0.029507 0.0027766 0.49943 -0.017253 0.26267 0.01364 -0.025001 0.16727 0.21998 0.30288 0.3435 -0.15589 -0.3517 -0.22674 0.012173 0.27658 -0.068228 -0.35913 0.24158 -0.017173 -0.10716 0.068885 -0.05058 -0.007637 -0.13472 0.34015 0.030214 0.021392 -0.25215 -0.07134 0.04647 0.33201 0.15549 0.078926 -0.15266 0.080093 0.036357 -0.14069 -0.4276 0.18856 -0.19835 0.023476 0.041109 0.0024371 0.10373 0.15152 0.012084 0.013879 -0.14038 -0.2773 0.083659 -0.13226 0.064352 0.061456 -0.27516 -0.072902 0.2091 0.19965 0.23011 0.10337 0.22057 0.35257 0.07958 0.005766 0.1317 -0.05156 -0.25042 -0.3601 -0.045524 0.22277 0.28525 0.18979 -0.14209 0.09188 0.33513 0.47532 0.2105 0.15525 0.34012 0.051588 -0.27385 0.062611 0.10071 0.090008 0.096502 0.16615 -0.13977 -0.18221 -0.19277 -0.19219 -0.013891 -0.22674 -0.078449 0.3728 0.13122 -0.071305 0.015707 -0.062219 0.022937 -0.11446 0.18013 -0.16046 0.14317 0.12581 0.2656 -0.026126 0.18617 -0.0062608 0.13767 0.23717 0.64557 -0.06532 -0.019749 -0.13692 -0.17655 0.078791 0.098652 0.082917 0.057949 -0.13311 0.076613
canyon -0.16063 -0.10597 -0.20821 0.39444 0.4532 -0.023578 0.061436 -0.2495 0.60636 0.17301 -0.0055719 -0.34705 0.34901 -0.14851 -0.38148 -0.095827 0.47344 0.16304 -0.020652 0.06456 0.17931 -0.11722 -0.073716 -0.065403 0.32097 -0.27578 -0.080737 0.30221 0.12464 -0.21018 0.19161 0.22316 0.28435 0.026654 -0.056021 -0.36077 -0.079 0.33153 -0.017262 -0.015247 0.076051 0.012946 -0.33641 -0.024725 -0.21327 -0.21359 0.33681 -0.22396 0.3067 -0.17332 0.42628 -0.094665 -0.34637 0.033633 0.31208 -0.14474 -0.50213 -0.22847 -0.24685 -0.41421 0.092634 0.3916 -0.39488 0.21501 0.25298 -0.097649 0.065245 -0.0027627 -0.37867 -0.18504 -0.098211 -0.19955 0.33209 -0.11715 0.007627 0.20555 0.28342 -0.06596 0.060596 0.27337 -0.31291 -0.21053 -0.11761 -0.0067299 0.29706 0.22317 0.098207 0.28034 0.043027 -0.036513 0.59296 -0.084325 0.27766 0.053898 0.070226 -0.38046 -0.11426 0.013864 0.25506 -0.12955 0.12421 0.082451 -0.19267 0.20538 0.19005 0.1209 -0.045854 -0.27063 0.033419 0.21167 0.113 0.3133 -0.17113 -0.10222 0.1744 -0.10812 0.13619 0.15901 0.15108 -0.078496 -0.1189 -0.12981 0.10707 -0.15386 -0.16913 0.26288 0.17795 0.12023 0.24937 -0.2778 0.17065 -0.41976 0.082827 -0.53266 -0.14272 -0.5086 -0.24945 0.16306 0.29564 0.057501 0.017623 0.12053 -0.54026 0.59914 -0.20572 0.10521 -0.053253 0.27269 0.12593 -0.20909 0.12412 0.15079 -0.36777 -0.38333 -0.059551 -0.052891 0.12916 -0.16636 -0.32333 0.11059 -0.27891 0.25362 0.21888 0.18104 -0.069834 -0.4128 -0.012574 -0.070625 -0.34237 0.35876 0.08739 0.16817 -0.16212 -0.039541 -0.4564 -0.71525 -0.10929 0.13313 -0.17167 -0.35137 0.06174 -0.11835 -0.45255 0.23208 -0.28597 -0.16541 -0.52102 -0.0013725 0.22765 0.054292 0.17647 0.20457 -0.18186 -0.32127 0.025616 0.26712 -0.24562 0.11353 0.01887 -0.45749 -0.054445 0.25949 -0.27348 -0.12214 0.35998 -0.091004 -0.28935 -0.30082 0.21692 -0.031942 0.40531 0.071099 0.048475 -0.36028 -0.31221 -0.25856 -0.06448 0.15517 0.17242 0.16031 -0.16182 -0.026095 0.066585 0.55487 0.19657 -0.21573 0.38795 0.18002 0.16687 -0.049021 -0.33391 -0.0093325 0.051446 -0.34774 -0.083151 -0.33237 -0.35436 0.13454 0.21484 0.18339 0.33716 -0.52286 0.02413 0.051244 0.055137 -0.17867 -0.2037 -0.1282 -0.27385 0.20002 0.3468 0.32414 0.2233 -0.28269 0.14373 0.45635 0.30944 -0.23535 0.13002 0.37065 0.14744 0.17908 -0.40315 -0.12408 -0.11244 -0.10795 0.10246 -0.067796 -0.031832 -0.3184 0.060196 -0.068717 -0.16591 0.2322 -0.046437 0.15259 0.21066 0.15789 0.14718 -0.36243 -0.078704 0.071226 -0.052291 0.40198 -0.3006 0.25633 0.071936 -0.082093 -0.025185 -0.06845 -0.28972 0.20344 0.6658 -0.51241 0.34478 -0.40441 -0.35416 0.46214 -0.40902 0.33829
delay 0.31621 0.33241 -0.086706 -0.22144 -0.25316 -0.32566 -0.027573 -0.35457 0.38202 -0.12839 0.32913 0.046751 -0.03879 -0.24915 0.27849 0.63711 0.17898 -0.045104 -0.22447 0.2574 0.17101 -0.19541 -0.27345 0.12589 0.25673 -0.020671 0.15117 -0.071337 -0.15703 -0.045062 -0.054269 0.41975 0.32966 0.16644 0.057138 -0.058807 -0.10663 0.20002 0.086757 0.060656 0.069166 -0.010834 -0.13897 -0.0040414 0.17042 0.27524 -0.12943 -0.11756 0.27471 -0.33051 -0.44374 -0.45816 -0.41581 -0.35419 -0.097262 -0.037671 0.095669 0.049421 -0.021664 0.076226 0.31611 0.015294 0.0030172 0.082646 -0.20015 0.1506 0.24618 0.33824 -0.28488 -0.050149 0.28584 0.23215 -0.038675 -0.17455 0.0061079 -0.099899 0.27736 0.38293 -0.32073 0.01452 -0.088042 0.20198 -0.142 -0.087287 0.22466 0.069296 -0.041249 0.0055782 -0.044328 0.50053 0.028516 0.22908 -0.50597 -0.23888 0.092344 -0.06829 -0.64802 -0.046838 -0.24546 0.13819 0.2153 -0.1559 -0.16841 0.20601 0.16452 0.47793 0.16653 0.42088 0.21328 -0.26772 0.24313 0.2517 -0.087108 -0.37349 0.23479 0.1829 0.018609 -0.10561 0.068439 0.052702 0.34322 -0.40942 0.39892 0.20504 -0.28002 0.014915 0.1805 0.377 -0.13861 -0.15602 0.13045 -0.30906 -0.2026 0.26926 -0.016363 -0.037775 0.15717 0.26377 -0.14642 -0.02677 -3.5204E-5 -0.13762 0.0092986 -0.3539 -0.31851 -0.13458 0.083775 -0.068653 -0.10701 -0.015734 0.27498 -0.26543 0.37773 -0.089117 -0.036104 0.13328 0.028873 -0.26525 0.085568 -0.36754 0.61102 -0.07441 -0.177 -0.010207 -0.15115 0.16166 0.090748 0.13852 0.04366 0.0047221 -0.0015165 -0.10029 -0.22305 0.24681 -0.33193 0.36383 -0.26476 0.14012 -0.023116 -0.14782 -0.031865 0.53276 0.2511 0.38741 -0.04733 0.32901 -0.0013254 0.20014 0.20791 0.10597 -0.082236 -0.42528 -0.14331 -0.28066 -0.19969 -0.14429 -0.41198 0.10775 0.12577 0.16252 0.057385 -0.4932 -0.061299 -0.39682 0.13662 -0.15864 0.20197 -0.043988 0.018347 0.043497 0.12648 -0.030302 -0.019931 -0.068605 0.079965 0.14862 0.28598 -0.10533 -0.17389 -0.15176 -0.021026 0.056929 0.070664 0.14007 0.22217 0.24727 -0.1451 -0.1205 -0.13011 -0.088761 0.11535 0.27313 -0.12144 -0.19479 -0.098565 0.28873 -0.11289 0.10664 0.20748 -0.33089 0.10164 0.086527 -0.24817 0.39127 0.08071 -0.093858 0.080644 0.12824 0.11214 0.31058 0.063704 -0.24952 0.1588 0.032454 0.10254 -0.019906 0.29479 -0.13923 -0.072087 -0.075806 0.17243 -0.18883 0.19433 0.099143 0.017273 -0.18929 -0.12289 -0.11697 0.15159 -0.051552 0.21778 0.20199 0.18124 0.20902 -0.30022 0.1972 0.11552 -0.34836 0.0021154 -0.25286 -0.1468 -0.044419 0.1386 0.12497 -0.018118 -0.1564 -0.054624 0.3017 0.10459 0.3919 0.18165 -0.10819 -0.10585 -0.016589 0.29186 -0.21744 0.2993 -0.14877 -0.22169 -0.025505
size -0.082762 0.152 -0.14059 0.14778 -0.032374 0.4753 0.33227 -0.048752 0.39234 -0.18203 -0.17077 0.2701 0.34018 -0.3671 0.071969 0.52988 -0.23512 -0.058731 0.092934 0.19125 0.05515 0.30168 -0.19375 -0.26877 0.048863 0.12494 0.52536 -0.12828 -0.188 -0.099709 -0.40814 -0.074224 0.2583 -0.43769 0.19054 -0.09484 0.019108 -0.12109 0.17887 -0.22208 0.16607 0.27286 -0.06397 0.08022 -0.38676 -0.15093 0.34025 -0.075784 0.29934 0.032771 0.18951 0.041264 0.14817 0.057898 -0.23838 0.26865 -0.25895 -0.24088 -0.11654 -0.19956 -0.036613 0.053864 0.11026 0.19548 0.2717 -5.327E-4 0.38423 0.066355 0.067001 -0.20812 -0.10534 -0.13413 -0.13544 0.13309 -0.16904 0.27864 0.23458 -0.21169 0.015127 0.22987 0.16666 0.097934 -0.39607 -0.17057 0.072375 -0.08288 -0.17276 -0.026163 0.10751 -0.019844 0.28848 -0.21129 -0.030396 -0.0037417 0.038985 0.07105 0.049177 -0.11318 -0.29286 0.10533 0.18366 -0.24054 0.062164 0.22977 -0.17159 -0.12793 0.29336 -0.19586 0.21994 0.05633 0.23875 -0.10959 -0.21415 -0.067616 0.10548 0.68041 -0.047861 3.4981E-4 -0.016506 -0.22535 0.20358 0.026382 -0.34572 -0.034369 -0.096718 0.1314 0.15971 0.33445 0.27527 0.014867 -0.13084 -0.32318 -0.12698 -0.042474 -0.26777 -0.204 0.047433 -0.07553 0.084359 -0.16337 0.38191 -0.027306 0.059398 0.29644 -0.26241 -0.43449 0.18461 0.051113 0.33253 0.13983 -0.12353 0.41967 -0.082508 -0.016996 0.012614 0.1072 0.033175 -0.2397 0.38487 0.22847 0.029641 0.10189 -0.28761 -0.11308 0.18903 -0.19291 0.1443 -0.068696 -0.44373 0.1235 0.20212 -0.11399 -0.082381 0.076387 0.13479 0.070068 0.075978 0.049938 -0.11494 0.23462 0.19937 0.042735 0.026354 0.22187 -0.64779 -0.36368 -0.32792 0.027444 0.17186 -0.044564 0.095515 -0.0021893 0.17361 -0.14789 0.21411 -0.14851 -0.045376 -0.0093645 -0.0055125 -0.50013 0.16586 -0.32622 0.15499 -0.48834 0.3322 0.11983 -0.19547 0.42117 -0.056574 -0.13511 0.45419 -0.176 0.11754 0.42918 -0.12948 0.47818 0.14015 -0.24737 -0.47344 -0.13231 -0.21805 -0.21186 0.30836 0.19465 0.14309 -0.0014464 0.0204 0.16126 -0.030451 -0.28237 0.0039179 0.19388 0.22397 -0.12105 -0.30796 0.2033 0.016728 0.45917 0.32202 -0.11224 0.20646 -0.37042 0.090281 0.17188 0.14851 0.021361 -0.25319 0.40959 0.22176 0.096552 -0.094152 -0.22256 -0.13952 0.056797 0.022513 -0.14694 0.10345 -0.30698 0.074868 0.52592 0.0040022 0.21891 0.19358 -0.091161 0.29762 0.072422 -0.068381 -0.17216 0.012877 0.17169 0.33455 0.012236 0.60302 0.33191 -0.49533 -0.084173 0.43758 -0.010792 -0.1328 -0.086866 0.33568 0.13832 -0.19767 0.072367 0.33926 0.14227 0.28347 0.096418 -0.0053693 0.12365 -0.36294 0.0015056 -0.052374 -0.24739 0.066751 -0.24366 0.32453 0.26606 -0.20564 -0.25682
peace 0.020623 -0.12282 -0.32565 0.11719 -0.15129 -0.15795 0.026124 -0.18729 -0.011648 -0.59431 -0.073543 -0.26881 0.69203 0.088225 -0.063296 0.058279 -0.31802 -0.10444 -0.48767 -0.19384 0.2118 0.1361 -0.108 -0.089261 -0.078803 -0.20859 -0.11428 -0.58053 -0.13063 -0.15508 -0.22109 0.082209 0.56563 -0.021471 0.10541 -0.18309 -0.013775 0.088214 -0.037775 0.10174 0.0060643 -0.25255 0.0071641 -0.2979 -0.36324 -0.034348 0.28666 -0.12467 -0.038854 -0.30317 0.21623 0.065334 -0.070716 -0.072735 -0.045047 0.23778 0.16604 -0.12195 -0.29513 0.026146 0.28871 0.76274 -0.34094 0.23079 -0.058285 0.2777 -0.28952 -0.1943 -0.192 0.63796 0.60223 0.1968 0.12263 -0.10886 -0.36392 0.23723 0.089607 0.044822 -0.0058192 0.19908 0.087974 -0.19697 -0.35786 -0.082211 -0.15823 0.26971 0.27462 0.053749 -0.0033673 0.0512 0.10811 -0.62175 0.10956 -0.18008 0.58521 0.094192 -0.21612 0.30079 0.59395 -0.070811 0.10542 -0.092085 -0.0095579 0.2428 0.042306 0.31956 -0.39678 0.13397 0.3369 -0.042848 0.21332 0.094795 0.045704 -0.12184 0.1356 -0.27073 0.20715 -0.22984 0.44231 0.14308 0.051551 -0.10126 0.38393 -0.080312 -0.64256 -0.021013 0.039148 -0.37531 -0.14465 -0.39865 0.4216 -0.4863 -0.19497 -6.2387E-4 0.14812 -0.035138 -0.17476 0.28267 0.023609 -0.045954 -0.28 -0.086381 -0.1941 0.10585 -0.47683 -0.050882 -0.49105 -0.32289 0.28137 -0.098181 0.24744 -0.025198 -0.21387 -0.13618 -0.29828 -0.2433 -0.018999 -0.32982 0.14137 0.41362 -0.15524 -0.14217 -0.1816 0.084872 -0.050307 -0.071038 -0.065055 -0.21625 -0.1949 0.20568 -0.060131 0.64657 -0.033916 -0.2174 -0.35023 -0.088277 0.36663 -0.18954 -0.62122 -0.21335 0.43598 -0.34909 -0.4342 0.27324 0.28112 0.1952 -0.22625 0.16826 0.25945 0.39266 0.16114 -0.13266 0.028532 -0.25245 -0.085274 0.024992 0.081689 0.048219 0.010114 0.14553 0.57894 -0.47902 -0.37944 -0.23261 -0.11888 -0.41544 -0.024361 0.19944 -0.14755 0.011484 -0.26364 -0.15213 -0.21698 0.093346 -0.27223 0.081044 -0.12783 0.054485 0.28604 -0.12473 -0.12629 -0.0688 -0.096598 0.38024 0.2123 -0.52011 -0.061248 -0.64843 -0.44943 -0.010595 -0.026539 -0.25147 -0.08148 0.078004 0.095719 -0.2004 -0.026049 0.16778 -0.10415 -0.066983 0.54814 0.1406 -0.18165 0.3699 0.29403 0.083002 -0.063856 0.075047 -0.16213 0.12558 9.055E-4 0.1222 0.092647 0.52822 0.42848 -0.10711 0.44179 0.25958 0.20561 0.30392 0.44347 -0.16829 -0.13822 0.40952 0.16958 0.19504 -0.25628 -0.16393 0.19305 0.4661 0.46696 0.17389 -0.07814 -0.43615 -0.37684 0.091124 -0.2073 0.12077 -0.14252 -0.44626 0.23147 -0.25203 0.073742 0.18494 0.02563 -0.063695 -0.08462 -0.20307 0.10705 -0.25961 -0.40347 -0.041937 0.27839 -0.29886 -0.19473 -0.11843 0.25648 -0.39379 -0.27706 -0.020623
science 0.29271 0.047637 -0.026181 -0.18672 0.23973 0.060425 0.043023 0.59421 -0.08625 0.078349 -0.42849 0.054999 0.054183 -0.18851 0.1583 -0.1719 0.038778 0.08446 -0.15585 -0.044874 -0.16726 0.25542 -0.42264 -0.039777 0.089277 -0.4134 0.29648 0.25436 -0.026381 0.024864 -0.27014 -0.08716 0.85888 0.40359 0.24221 -0.42059 -0.13779 0.14014 -0.1073 0.017343 0.11022 0.22467 0.069813 -0.1075 0.18894 0.2251 0.21448 -0.36423 -0.17094 0.23551 0.13243 -0.37215 -0.10981 -0.01772 0.011066 0.20585 0.1104 0.050447 -0.29539 0.0098249 -0.17272 0.14827 -0.13646 -0.042134 0.2448 0.24992 0.082619 0.013686 0.29 -0.083113 0.39149 0.013043 0.21089 0.30816 -0.074403 0.075856 -0.15322 -0.11112 -0.16957 0.091365 -0.13925 0.025307 0.25531 -0.24069 -0.016117 -0.033055 0.42308 -0.23507 0.17661 -0.011718 0.012528 0.25556 -0.3447 -0.020568 0.07008 0.13082 -0.14329 0.2664 -0.096994 0.32779 0.066298 -0.021213 -0.25634 0.0020957 -0.18802 0.043079 0.36353 0.10993 0.14287 -0.22241 0.09133 0.36623 -0.21015 -0.62249 0.30098 0.17927 0.2778 0.20468 -0.13127 -0.22311 -0.24485 -0.25716 -0.1208 -0.0065609 -0.14794 -0.063387 0.58878 0.054943 0.09053 0.084512 0.12078 -0.18735 0.27689 0.0068691 -0.20867 -0.16827 -0.16247 0.15647 -0.17835 0.11333 -0.059415 -0.09306 0.26651 0.090141 -0.26983 0.015589 -0.44751 0.094749 -0.16692 -0.26716 -0.12652 0.12776 -0.26135 -0.16347 -0.1569 -0.0026041 -0.61041 0.093571 -0.0075904 0.032495 0.080295 0.039609 -0.6073 0.19913 -0.25139 0.15178 -0.27033 -0.0040478 -0.356 0.43228 -0.18028 0.23574 0.17056 0.17034 -0.30184 -0.29476 -0.22957 -0.12164 -0.13106 -0.14514 -0.092029 -0.10636 0.29513 0.067864 0.2287 -0.15159 -0.090575 0.042507 -0.08109 -0.088724 0.19116 0.094308 -0.13146 -0.001228 0.20954 -0.34476 -0.016307 -0.54778 0.25451 -0.16724 0.026599 -0.35765 0.16605 -0.091746 0.22899 -0.14495 -0.089115 0.13405 -0.0071556 0.42224 0.067405 -0.48743 0.09257 0.013016 -0.15132 0.33598 -0.11617 -0.38838 -0.20846 -0.10961 -0.23705 -0.18632 -0.37915 0.26422 0.22232 0.02174 -0.34437 0.19495 -0.011817 0.16621 -0.21686 0.11683 0.31073 -0.014864 0.077962 -0.25941 0.023979 0.24072 -0.63386 0.003387 0.30948 -0.17824 -0.12735 -0.055594 0.14427 -0.076125 0.10354 0.17218 -0.2507 -0.012242 0.28034 -0.092285 -0.077837 0.18355 0.34163 0.38532 0.42587 0.28823 -0.25423 -0.02051 0.31887 0.11345 -0.10787 0.086211 -0.10551 -0.32373 -0.19146 0.083649 -0.13249 0.4432 0.23491 0.23733 -0.014988 0.1988 0.54427 0.16584 0.17672 -0.068702 -0.0072755 -0.35971 0.292 -0.025726 0.25599 0.5021 -0.35364 -0.29361 0.083035 0.44772 0.052901 -0.10177 -0.042755 -0.017029 -0.11496 -0.036413 0.10107 0.27348 0.42686 0.33043 -0.049904 -0.11845
dawn -0.080877 0.10909 -0.054886 0.016213 0.3811 -0.19008 0.27896 -0.4626 0.44046 0.032729 0.23237 0.15452 -0.054026 -0.015238 -0.21374 -0.016993 0.4832 -0.12383 0.35517 -0.073081 -0.27311 0.10257 0.54204 -0.0049368 -0.098647 -0.026954 -0.08536 -0.24529 -0.349 -0.035859 0.29912 0.2765 0.62105 0.35462 0.12086 -0.4045 0.015667 0.10232 0.0085212 -0.019289 0.36295 -0.051955 -0.052375 0.30247 -0.07594 0.21739 0.27844 0.026017 -0.3508 -0.21222 0.10042 -0.011139 -0.42001 0.18116 -0.3215 0.10385 -0.083521 0.18077 -0.40099 0.042038 -0.082012 0.016934 -0.24684 -0.17894 0.24085 -0.40394 0.11577 0.092665 -0.23246 0.14888 0.32088 -0.02305 0.28095 -0.3069 0.054048 0.20781 0.3555 -0.11124 0.2516 -0.22669 -0.10405 0.30271 -0.081355 0.54715 0.02121 -0.12516 0.25537 0.02414 0.23778 0.25468 0.18036 -0.37872 -0.0267 -0.28786 0.35064 -0.1632 -0.053176 0.076518 0.044486 -0.18404 0.357 -0.34048 0.38097 0.40911 -0.1219 -0.15804 0.17995 -0.089405 -0.25263 0.3566 -0.0053688 0.10245 -0.17133 0.18473 -0.011908 -0.097051 -0.1403 0.14882 0.20988 -0.034041 0.33517 0.10162 0.35176 -0.26788 0.050746 0.16538 -0.1419 0.40126 0.39786 0.23665 -0.17761 -0.46078 -0.015502 -0.13857 0.081394 -0.033554 -0.13597 -0.23163 -0.11309 -0.19442 0.10975 0.47073 -0.10934 0.26294 -0.030502 -0.2339 -0.33832 -0.26215 0.29045 -0.070556 -0.29762 -0.1875 0.48861 -0.0062002 -0.10206 -0.30317 0.089463 -0.41148 -0.45635 -0.034045 0.23304 -0.30331 -0.3547 0.10732 -0.17291 -0.27557 -0.16283 0.34847 0.09965 0.34669 -0.14492 0.092771 -0.53123 0.34588 -0.062035 -0.10514 -0.051254 -0.20316 -0.23597 0.20607 -0.16526 0.29087 -0.16229 -0.20024 0.13096 0.16674 -0.46377 0.10944 -0.17023 0.038466 0.35107 -0.15312 -0.21344 -0.40654 -0.19719 -0.12208 -0.34458 0.047683 -0.048548 -0.45835 0.27578 -0.18448 -0.083974 0.1587 -0.12041 -0.19493 -0.24658 -0.27053 -0.094276 -0.31542 0.069089 -0.10834 0.24865 0.19097 0.27854 0.021821 0.2335 0.24537 -0.20564 0.039602 0.012717 -0.23875 0.082597 0.25857 0.10986 -0.36685 -0.12157 -0.39613 0.16354 0.27319 -0.66134 -0.36218 0.19317 -0.17582 -0.15806 0.052427 -0.20535 0.22532 0.050143 0.23892 -0.14581 0.16332 -0.028231 -0.015177 0.66689 -0.10489 0.022676 0.02859 0.056471 0.33638 0.015594 -0.22637 0.46745 -0.22353 0.19427 0.15874 -0.085608 0.025842 0.37611 -0.29806 0.19675 0.1936 0.22339 0.03531 0.34399 -0.19073 -0.32544 0.11941 0.064539 0.011211 0.13283 0.082756 -0.29817 0.20338 0.094806 0.21139 0.16188 0.060104 0.45268 -0.28639 0.13079 0.025199 0.37407 0.41271 -0.026562 -0.017242 -0.055871 0.21426 0.24139 0.2388 -0.09047 -0.19755 0.45018 -0.47935 0.10635 -0.078098 -0.074263 -0.17539 -0.14765 0.25387
brother -0.098618 0.31298 0.12163 -0.29125 0.090945 -0.25632 0.17176 0.068727 0.45371 -0.061395 0.16278 -0.42784 -0.27709 0.13506 -0.015079 -0.10818 -0.072614 0.53153 0.19517 0.2475 0.051846 -0.43289 -0.049998 -0.052927 0.18023 -0.12324 0.20912 0.15133 -0.27393 -0.34777 -0.2596 0.2665 -0.08607 0.2583 0.12874 0.22125 -0.22198 -0.29148 0.22873 -0.010763 -0.0029849 -0.5612 -0.17692 0.047975 -0.40584 -0.40264 -0.22177 0.16319 0.13662 -0.49673 0.20936 -0.48209 -0.13602 0.029524 -0.025297 0.21 0.072866 -0.23784 -0.05636 0.19283 -0.075864 0.29329 0.21581 0.1173 -0.26945 0.051694 0.30588 -0.42045 -0.22136 0.16412 0.13537 0.0929 0.36429 0.33787 -0.075777 -0.0024875 0.43272 0.48975 0.27544 0.18662 -0.1215 -0.12163 0.12119 0.24287 0.014143 -0.23401 0.24389 0.3104 -0.34402 -0.018155 0.10366 -0.3975 0.29423 0.092786 -0.016051 0.22265 0.23935 0.11063 -0.21181 -0.26072 -0.034341 0.016549 -0.088681 0.18402 -0.02629 0.18244 -0.22814 -0.10606 0.010701 0.21808 0.20779 0.34456 -0.0048215 0.24089 0.47372 -0.075577 -0.16569 -0.37715 0.25981 -0.38615 0.16465 -0.14952 0.097993 -0.26229 -0.030432 -0.24066 -0.011358 -0.068819 0.13059 -0.26498 0.47562 -0.33473 0.14209 -0.17184 0.2192 0.083655 -0.079031 -0.077583 0.04108 -0.18944 0.27207 -0.18909 0.44466 0.33664 -0.038824 -0.18535 -0.54391 0.26004 0.011286 -0.29741 -0.28322 -0.010898 0.028318 0.20621 -0.23257 0.19773 0.14566 -0.0018056 -0.12311 0.14588 0.33813 0.023013 -0.27968 0.071074 0.45362 0.17577 -0.30189 0.16454 -0.20672 0.11096 0.15277 0.17356 -0.068217 -0.098458 -0.28647 0.28124 -0.082306 -0.18362 -0.067029 -0.17065 0.080864 0.1873 -0.08126 0.33996 0.38427 -0.29113 -0.064278 -0.072321 0.19897 0.03603 0.21964 -0.26272 0.12988 -0.39255 0.054691 -0.27547 -0.23216 -0.027738 -0.17242 -0.1489 0.16849 -0.19708 -0.020384 0.22952 0.27711 0.12026 0.072481 -0.27082 -0.04354 0.25312 -0.20525 0.029173 0.53073 0.37836 -0.27877 0.045263 -0.16968 0.12696 -0.2651 0.13667 0.18922 -0.099107 0.21949 0.31685 0.24951 0.012261 0.21351 -0.074838 0.18941 -0.15858 -0.37356 0.25006 0.54777 -0.33481 0.016002 0.14077 -0.13652 0.3285 -0.060595 0.38667 0.037233 0.36658 -0.15368 0.22428 0.097093 -0.25001 -7.8739E-5 0.30742 -0.058721 -0.17849 0.37265 0.091264 -0.076994 0.04507 0.46644 0.051505 0.28408 0.12471 0.21054 0.13042 -0.21214 -0.17926 -0.20048 -0.11034 0.035699 -0.13135 0.32905 -0.033264 0.23458 0.1144 0.038939 -0.091951 -0.30234 0.33125 -0.30282 0.15335 -0.076671 -0.29957 0.22792 -0.25942 -0.16656 -0.29428 -0.10873 -0.29767 0.42603 0.088377 0.027007 0.031823 -0.26333 0.058729 -0.019656 0.015898 -0.14124 0.15575 0.30437 -0.0031223 0.070545 0.029644 0.14517 0.036274
wine 0.47201 -0.02422 0.21306 0.094567 -0.076452 -0.019678 0.095495 -0.31275 0.33597 -0.34675 -0.035156 -0.30699 -0.21274 -0.48984 -0.043152 0.42382 0.43211 0.10969 -0.46517 -0.31231 0.19896 0.10759 -0.023365 0.50564 0.21979 -0.35564 0.0037154 -0.20339 0.090026 0.18888 -0.48885 0.40738 -0.17095 -0.20399 0.020617 -0.33157 0.15852 0.027223 -0.1078 -0.20986 0.025706 -0.034261 -0.1382 -0.20404 0.54575 0.0048101 0.20081 -0.073874 -0.51677 0.27467 0.29296 -0.23106 -0.21312 0.060084 -0.27157 0.26185 0.15037 -0.32786 -0.38447 0.13006 -0.080871 -0.15244 0.28002 -0.056675 0.20761 -0.24097 -0.13425 0.16938 0.035519 0.46019 0.23689 -0.34943 0.15197 0.024405 0.25816 0.0099924 0.37192 0.24595 -0.23476 0.090002 0.24273 0.21562 0.25134 0.17212 -0.12444 0.38191 0.27277 0.41933 0.44542 -0.12047 0.22538 0.063896 0.15788 0.17399 0.46281 0.14852 -0.56302 0.018601 0.36737 0.36729 0.55203 0.11802 -0.13239 -0.036527 -0.17929 0.13839 -0.24425 -0.41706 -0.18971 0.0022362 0.17352 0.17233 0.053594 -0.067353 0.01282 -0.022273 0.21671 -0.17378 -0.16474 -0.038897 -0.26979 0.29444 0.08415 0.016768 -0.13132 -0.34772 0.24096 0.19465 0.50018 -0.10112 0.058409 -0.29771 0.29634 -0.25832 0.08628 -0.11513 -0.32758 0.46182 -0.090667 0.0020834 -0.081069 0.14889 0.20591 0.27284 -0.70562 -0.0056089 0.065155 0.35367 -0.070372 0.14885 0.11048 0.36661 -0.38654 -0.14879 0.074497 0.10313 -0.44487 -0.030975 -0.42706 0.63585 0.22408 0.35531 -0.24418 0.35732 -0.098183 -0.37873 -0.30547 0.29885 -0.023113 -0.28597 -0.024346 0.34345 -0.12264 0.18513 0.49824 -0.48384 0.24172 -0.081304 -0.067699 -0.016476 -0.091192 0.017756 0.20212 0.52743 -0.17374 -0.0105 -0.45477 0.59444 0.16746 0.21278 -0.18257 0.065543 -0.054566 -0.052127 -0.32811 -0.047615 -0.32946 -0.10987 0.097729 0.011988 0.028483 0.1322 -0.25001 -0.4007 0.20692 0.03825 -0.31153 -0.22621 -0.17935 0.41696 0.77222 -0.49464 0.022382 -0.26204 -0.14007 0.30339 0.31304 -0.18669 -0.18622 0.48313 0.32711 -0.17684 0.12777 0.54476 -0.087246 0.030034 0.22476 0.014794 -0.040922 0.43068 0.11234 0.032957 -0.34181 -0.3189 0.10237 -0.37775 0.19266 -0.052904 0.2594 -0.088358 -0.13078 0.18111 0.030291 -0.21644 0.13938 -0.21887 -0.10921 0.15443 0.1229 0.25396 0.068827 0.18688 -0.24759 0.18354 0.13294 0.092236 -0.074726 -0.0056296 0.24068 0.18016 0.1113 -0.012527 0.18316 0.15649 0.61697 0.13489 0.3554 0.078305 0.23125 -0.59419 0.50716 -0.086915 0.064573 0.3921 -0.13635 0.37666 -0.061772 -0.33045 -0.28615 -0.39802 -0.24404 -0.18625 0.15161 -0.20953 0.42678 0.11534 0.048499 0.036341 -0.071308 -0.081304 0.40722 0.070696 0.1832 0.2039 -0.084881 0.1571 -0.16056 0.36567 -0.15563 0.30093
object -0.0066514 0.17905 -0.14735 0.13547 -0.10919 -0.23266 0.0020178 0.069722 -0.054207 0.18847 -0.21283 -0.044687 0.060538 0.13105 0.10591 -0.10933 -0.20749 -0.30151 0.19161 0.1288 -0.33675 0.0034143 -0.016584 0.1847 0.0099645 -0.46701 0.17898 -0.32278 -0.31341 -0.39126 -0.13585 0.052147 0.027718 0.056851 0.013241 -0.3911 -0.14041 -0.099579 0.079124 -0.19886 0.22523 0.17194 -0.36122 0.070149 0.06856 -0.15166 0.0036134 -0.17513 -0.31159 -0.27093 -0.13485 0.18777 -0.31927 0.020251 0.07615 -0.023552 -0.31551 -0.16474 -0.12354 -0.18093 0.056201 0.15133 -0.18863 0.25232 0.11052 0.18575 0.34596 0.03302 -0.18603 -0.17885 0.36187 -0.18877 0.09073 -0.1492 -0.14384 0.063456 0.0031847 -0.14083 0.03632 -0.12938 0.012551 -0.096903 -0.14327 -0.059752 0.16696 0.076616 0.097288 -0.0090802 -0.17326 -0.20014 0.2159 -0.16663 -0.15383 0.093855 -0.0028795 0.030273 -0.12242 0.20394 0.11116 -0.14251 0.084382 0.10513 -0.25353 -0.060956 -0.029195 0.2506 0.051478 -0.37366 -0.091862 0.167 0.54019 0.35861 0.087065 -0.082006 -0.11257 0.0035128 0.14702 -0.15015 -0.07482 0.19845 0.25351 -0.085154 -0.1428 0.14629 -0.2483 -0.017331 0.21223 -5.7807E-4 -0.27757 -0.17292 0.18422 -0.31381 0.08288 -0.08372 0.074123 -0.22733 -0.29965 -0.087355 0.0062486 -0.24024 0.48459 -0.2132 -0.01971 0.092479 -0.30871 0.14355 -0.058617 -0.059011 -0.20696 0.1103 0.076993 -0.11212 0.58076 0.18937 0.29302 0.088715 -0.25171 -0.37877 0.0013414 0.0058328 0.22363 -0.18028 -0.0019023 0.21697 0.19013 0.07428 -0.25443 0.22979 -0.39853 0.028866 -0.24747 -0.052672 -0.1687 -0.060527 -0.45565 -0.030704 -0.16907 0.23133 -0.081022 -0.1027 -0.17626 -0.06913 0.096244 -0.041617 -0.22303 -0.2905 -0.34726 -0.030762 0.15448 -0.21169 0.1838 -0.0018824 -0.19227 -0.64318 0.32535 0.1725 0.44902 0.048221 -0.0084626 -0.0019986 0.14322 -0.2034 0.011625 -0.22555 0.063832 0.17834 -0.38746 0.36412 -0.033027 0.17879 0.365 -0.17127 0.079897 -0.073253 -0.20526 0.49328 -0.14045 -0.05005 0.018345 -0.35285 -0.33937 0.0059224 0.21673 0.082057 0.28954 -0.22086 0.031591 0.20965 -0.035297 0.27347 -0.0047962 0.14986 -0.21484 -0.037917 -0.17037 -0.15018 -0.1165 0.0059953 -0.16583 -0.046435 0.12919 0.074184 0.041679 0.05786 -0.13566 -0.26656 0.097467 0.31849 0.15671 0.34537 0.21941 -0.068809 -0.19456 0.039105 0.51275 -0.11403 -0.099571 0.076219 0.049929 0.26799 0.47089 0.12127 -0.018483 0.17981 -0.13794 -0.014241 0.041527 -0.30729 -0.16926 -0.020579 0.24949 0.005586 -0.0085989 0.25748 0.053638 0.37542 0.033673 0.052217 0.38405 -0.088592 0.3965 0.17785 -0.10348 -0.070865 0.040326 -0.090767 -0.050305 -0.0045986 -0.072558 0.21719 -0.39732 -0.32087 0.28503 -0.16321 0.35372 -0.23627 0.25949 0.10245 -0.5414 0.037547
attitude -0.16209 0.12351 -0.22113 -0.028985 -0.025738 0.3586 -0.10666 -0.018097 -0.2275 0.35206 0.29523 -0.21247 -0.17634 0.14313 -0.1943 0.24401 -0.060266 -0.039353 0.45053 -0.085751 0.054254 -0.043795 0.19362 -0.19155 0.10973 -0.055323 -0.0014065 -0.3228 -0.60796 0.041552 -0.45713 0.041972 0.11271 0.0033737 -0.20911 -0.25322 -0.11571 -0.25917 0.20996 0.23156 -0.25212 0.017741 0.16572 -0.24377 0.2542 -0.08919 0.099628 -0.029679 -0.20204 0.21135 -0.012611 0.24428 -0.19557 0.096359 -0.010491 -0.22379 0.22936 -0.26362 -0.52801 0.11441 0.15645 0.049815 -0.03851 -0.012419 -0.16756 -0.15972 -0.29295 -0.55717 -0.016336 0.06433 0.39166 0.11312 0.18438 0.047705 0.07442 0.26903 0.17708 -0.097898 0.010978 -0.036613 0.29312 -0.019496 -0.054224 -0.30311 0.32686 0.49247 -0.10517 0.059867 -0.10258 0.16782 0.07718 -0.15911 0.32257 0.32712 -0.12485 0.28215 -0.49323 0.041526 0.22466 0.15516 0.34746 -0.044889 -0.077472 0.054399 0.08621 0.065372 0.25054 -0.042585 0.2775 0.29239 0.078032 0.51967 0.097072 -0.22459 0.032195 -0.048934 0.37144 -0.26492 -0.016869 -0.29225 -0.063422 0.46464 -0.24133 -0.18636 -0.51323 0.16693 -0.14661 0.15801 -0.15287 -0.23783 0.10604 -0.15309 0.20581 0.029301 -0.16591 -0.25965 -0.25439 0.1666 0.11554 0.054393 0.14285 -0.2885 0.14818 0.062701 0.15377 -0.044593 -0.3183 0.17736 -0.01131 0.14368 0.013866 -0.19092 -0.13432 0.46802 -0.065744 -0.40234 -0.068356 -0.027843 0.026167 0.073905 0.22404 -0.10276 -0.14706 0.33726 0.30833 -0.18475 -0.27961 0.15228 0.34457 0.1002 0.045692 -0.017449 -0.25319 0.067406 -0.45816 -0.0077293 -0.24612 0.10851 -0.25963 0.030345 -0.51318 -0.25597 0.25453 0.079109 -0.14159 -0.15722 0.017676 0.10068 -0.12582 0.12949 0.095987 -0.26443 -0.070582 -0.18958 0.16981 -0.21808 -0.18432 -0.26886 0.36025 -0.63084 0.25273 -0.46068 0.49649 -0.24395 -0.11852 -0.35623 -0.064271 0.088942 -0.33786 -0.13627 0.41028 0.093786 -0.15997 0.20375 -0.050692 0.2732 -0.03432 -0.53802 -0.0094368 0.095197 -0.37087 -0.20342 0.28215 0.0030873 0.15987 0.15789 0.030841 0.34446 -0.43656 -0.020478 -0.073251 0.12311 0.13323 -0.15698 0.06021 0.039266 0.15611 -0.0019008 -0.3578 -0.24999 -0.17117 -0.1864 -0.11109 -0.14486 0.072103 0.071471 -0.45612 0.25541 0.0021323 -0.36206 -0.35681 0.23619 -0.18629 -0.022373 0.15773 0.24572 0.35426 0.060476 0.27141 -0.228 -0.041884 -0.17484 0.216 0.52193 -0.089224 0.057205 -0.099549 -0.29578 0.14213 0.17558 -0.025245 0.15917 0.16887 0.090814 -0.16753 0.51864 0.30033 0.27639 -0.042456 -0.39043 0.37221 0.40504 -0.070758 0.051408 -0.0029065 0.30351 0.015021 -0.11953 0.04006 -0.050337 0.12938 -0.11256 0.11505 0.01634 0.010132 0.21104 0.35909 0.2501 -0.54139 -0.0024668
treatment 0.38426 -0.31099 -0.16601 9.9842E-4 -0.072887 0.39543 -0.13565 -0.33435 0.22696 -0.17668 0.31434 0.24045 -0.10854 -0.21253 -0.020737 0.29174 0.2971 -0.1709 -0.19966 0.34833 0.14924 -0.056279 0.010609 -0.14105 0.0086162 -0.21078 -0.13742 0.028835 -0.3355 -0.080408 -0.14303 0.49189 0.039458 0.053049 -0.053161 -0.042313 -0.5594 -0.46169 0.4079 -0.085075 -0.13783 -0.13245 -0.13858 -0.37459 0.049943 0.17347 0.27495 -0.43976 0.38046 -0.015503 0.28548 -0.6354 0.043967 -0.24384 -0.17478 0.044043 -0.0010378 0.11029 -0.021043 0.46494 0.0031221 0.17333 0.39194 0.29436 -0.29411 -0.13995 0.019548 0.24329 0.013729 -0.0715 0.09048 0.41061 -0.019754 0.16089 -0.055707 0.2434 -0.15192 -0.0047528 -0.25576 0.081325 0.086862 -0.16504 0.09355 0.14526 0.12378 0.078419 -0.060676 -0.087428 0.025446 -0.38783 -0.30516 -0.35849 -0.099642 0.21452 -0.071837 -0.19061 -0.23249 -0.052811 6.9316E-4 0.025906 0.1097 0.31651 -0.25485 0.34418 0.022298 0.20815 0.201 0.14293 0.24117 0.0070557 0.25721 0.66841 0.42781 -0.49317 -0.22288 0.4562 0.15197 0.35616 0.33124 -0.25445 -0.025399 0.12353 0.049025 -0.16105 0.014017 0.076703 -0.24793 0.042987 -0.037439 0.28716 0.098424 -0.089874 0.01147 0.06632 -0.2262 -0.21479 -0.0965 0.28862 0.037151 0.24633 0.21876 -0.14101 -0.041142 -0.27464 0.017844 0.19944 0.054738 0.025237 0.17816 -0.0139 -0.084091 0.30131 0.074082 -0.052107 -0.10813 -0.15815 -0.11225 -0.1614 0.16644 -0.14988 0.071228 -0.12358 -0.11715 0.22415 0.049679 -0.38023 -0.015652 0.17454 -0.092358 0.04934 -0.19605 -0.097226 -0.2264 0.32977 -0.083631 0.043805 -0.22057 -0.1998 -0.54348 -0.13179 0.25098 0.13366 0.19504 0.17609 0.36369 -0.2686 0.32431 0.16681 -0.013091 -0.35804 0.025149 0.027704 -0.3108 -0.16646 -0.21612 0.0036953 0.30081 -0.073466 0.2167 -0.3411 -0.22097 -0.12106 0.023931 -0.066136 -0.015792 -0.0055899 -0.11966 -0.13156 -0.21339 0.222 -0.038256 -0.45605 -0.039382 -0.029797 -0.068022 0.09199 -0.12071 -2.9095E-4 0.35039 -0.094996 0.2796 -0.07452 -0.12549 -0.013304 0.26116 0.10833 0.18299 -0.46623 -0.18907 -0.24363 -0.036584 -0.18025 0.039989 0.025057 -0.15091 0.24312 0.18786 0.20407 -0.18687 0.37824 -0.34725 -0.064624 0.29782 0.37724 -0.010013 -0.082518 -0.19875 -0.16877 0.039589 0.31032 0.29284 0.16769 0.14757 -0.29435 -0.069734 0.045964 0.13223 0.035121 0.044342 -0.21491 0.56446 -0.14949 0.020399 0.012054 0.12463 -0.2151 -0.029705 -0.17173 0.24942 -0.20447 -0.067857 -0.25508 0.13006 -0.25016 0.28916 0.27405 0.1499 0.14933 -0.090018 -0.33129 0.11165 0.1078 0.062697 0.25324 -0.03658 0.019479 0.049888 -0.11808 -0.33742 0.40456 0.55445 -0.26158 -0.078184 -0.13303 0.01441 0.12092 -0.095411 0.11702 -0.27015 0.48402
flight 0.2053 0.59739 -0.094299 -0.41785 0.17693 -0.024779 -0.39365 -0.050855 0.14806 -0.14858 -0.30272 0.12863 -0.11264 0.066048 0.36881 0.10138 0.0058698 0.068905 5.6264E-4 -0.14231 0.21124 0.18913 0.25873 0.28532 0.23486 -0.34856 0.26737 -0.14621 0.093472 -0.26651 -0.3122 0.59186 0.12149 0.30589 -0.058957 0.1671 0.080636 0.3829 0.19307 -0.038895 0.014729 -0.10023 -0.20331 0.024975 -0.042191 0.050644 0.63629 0.29636 -0.12726 -0.14288 -0.30094 -0.43162 -0.58356 -0.18838 0.24345 -0.0096295 0.3094 -0.17475 -0.25052 -0.43284 -0.26713 0.064453 -0.049115 -0.088274 -0.05914 -0.1657 0.11613 0.083029 -0.029861 0.20507 0.23648 -0.17329 0.27103 0.18585 -0.11511 0.39374 0.4277 0.2001 0.050666 -0.03657 0.097047 -0.1836 -0.39227 0.0337 -0.19908 -0.088281 -0.16534 0.059177 0.083898 0.30139 -0.14698 0.19633 -0.020541 -0.12326 -0.1204 -0.20171 -0.15843 -0.29651 0.10314 0.11611 0.35888 0.050167 0.12823 0.55872 0.44717 0.42483 -0.095812 -0.013823 0.21061 -0.25331 0.15405 0.2189 0.24863 -0.20248 -0.1056 0.21204 -0.0012308 0.091733 -0.25231 -0.051128 -0.19932 -0.021501 0.31519 -0.1777 0.073922 -0.11943 0.67676 0.13567 0.32842 -0.12207 0.037943 -0.34629 -0.26644 -0.22146 -0.14553 0.16899 0.29846 -0.21149 -0.13271 -0.12993 0.16752 -0.062039 0.02077 -0.33766 0.23798 0.20098 0.0090591 -0.32412 -0.44589 0.27447 0.13126 0.091952 -0.032498 0.13535 -0.052535 0.093349 -0.25007 0.058791 -0.025261 0.18348 0.12683 0.034538 -0.15318 -0.27164 0.10698 -0.22142 0.060892 -0.051934 -0.30315 0.16786 0.019872 -0.24173 0.032461 -0.25514 -0.10216 -0.018189 -9.5698E-4 -0.044356 -0.3733 -0.029999 0.17797 0.017 -0.072906 0.11857 -0.14017 0.050078 -0.49603 0.13749 0.15359 0.10002 0.49757 -0.46952 -0.24406 -0.14875 -0.18176 -0.26597 -0.31828 -0.011815 0.34325 -0.060191 0.19466 -0.68634 0.29677 -0.081434 -0.0469 0.14702 0.19926 -0.48863 0.16701 0.09421 -0.24814 -0.13223 -0.14345 -0.058024 -0.48391 0.61702 0.086198 0.035434 -0.39115 0.12796 -0.24566 -0.36923 -0.13343 0.1809 0.16118 -0.015966 -0.28684 -0.45156 -0.29315 -0.21352 -0.29408 0.41626 -0.093173 -0.42239 0.33603 -0.1111 0.67306 -0.023964 0.14001 -0.17342 -0.050552 -0.285 -3.2571E-4 0.092742 0.33953 0.28305 -0.17166 0.084811 -0.082433 0.0085965 0.42237 0.2616 -0.018544 -0.33347 -0.118 0.21243 0.072283 -0.079711 0.25488 0.41372 0.23815 -0.23086 0.40599 0.081417 0.17552 0.17775 -0.23676 0.27033 0.22487 -0.17797 0.12431 0.32872 0.23883 -0.037679 -0.033303 0.22217 0.15231 0.010883 0.29538 -0.38721 0.10203 0.18771 -0.12465 0.017202 -0.12282 -0.19491 0.2778 0.004954 -0.0011421 0.30705 -0.15958 0.030654 -0.26612 -0.34465 -0.023006 -0.52513 -0.092783 0.22984 -0.24603 0.31038
forest 0.16068 0.29769 -0.47122 0.22011 0.42956 -0.061361 -0.33594 -0.20349 0.51956 0.29015 -0.044403 -0.13665 0.547 0.22854 -0.21784 0.28945 0.28699 0.24569 -0.065096 0.23177 -0.039211 0.15075 0.16564 0.33171 -0.14893 -0.23007 -0.16545 0.019557 -0.057093 0.044284 0.15565 0.16338 0.23717 0.067715 0.073673 -0.39276 -0.050477 -0.099222 0.014743 0.10261 -0.34719 -0.2316 -0.11189 0.12419 -0.3256 -0.042322 0.43652 -0.34084 0.12312 -0.50483 0.35228 0.18495 -0.6621 0.085665 0.16094 -0.17494 0.082381 0.22583 -0.28866 -0.25951 -0.0029594 0.020559 0.091889 0.050067 0.36926 -0.18577 -0.57407 0.14604 -0.19185 0.27965 0.88176 -0.30425 -0.076121 -0.29598 0.21258 0.2433 -0.068387 -0.24018 0.042618 0.046327 -0.12372 -0.16173 0.081383 0.095896 -0.071723 0.15585 0.34699 0.14889 0.047405 0.14271 0.51682 -0.043549 0.14179 0.23475 0.22926 0.15472 -0.087382 -0.21541 0.036626 -0.26169 0.0092498 -0.013866 -0.40189 0.314 -0.009263 0.035985 -0.067209 0.027801 0.062708 0.098123 0.25459 0.46014 -0.038863 -0.080287 -0.090635 0.058875 0.10699 -0.11583 -0.020233 0.0096397 -0.014615 -0.44206 -0.060412 0.073254 0.2302 -0.31536 0.37021 -0.055694 0.29189 -0.29821 -0.18119 -0.25759 -0.093244 -0.15327 -0.40617 -0.5021 -0.20288 0.29852 0.38138 0.15803 0.18176 -0.17196 -0.477 0.16977 -0.26552 -0.17773 -0.18712 -0.34325 -0.0053629 0.43034 0.040062 0.34519 -0.29296 -0.31431 -0.35189 -0.05466 -0.21597 -0.036021 0.26378 0.17175 0.35435 0.33021 0.36721 0.13721 0.03092 -0.33227 -0.4771 0.19247 -0.38719 0.47783 -0.045054 0.062717 -0.29499 -0.34462 -0.18382 -0.61261 0.26044 0.44486 -0.18993 -0.31509 0.045014 -0.41694 -0.48763 0.1 0.18486 0.03824 -0.040062 0.38611 0.089647 0.12164 -0.17173 0.083995 -0.0043332 0.0014856 -0.46419 -0.073977 -0.095358 -0.12143 -0.0072831 -0.14888 -0.020841 -0.17204 0.25895 0.27453 0.40591 -0.061242 -0.50585 0.16036 -0.232 0.23586 0.05645 -0.27971 0.34652 -0.49268 -0.37808 0.2015 -0.37972 0.022966 -0.0144 0.10822 0.003288 -0.086347 0.064307 0.60782 0.26747 -0.1393 0.25977 -0.17541 0.12775 0.058459 -0.57015 0.17818 0.30849 -0.19279 0.044227 -0.20576 -0.29231 -0.035831 -0.12585 0.33716 0.12444 -0.26511 -0.0038792 -0.17374 0.19062 -0.22707 -0.017635 -0.17502 -0.64182 0.17035 0.29477 0.26979 0.26186 -0.048897 0.22021 0.20747 -0.21662 -0.094655 -0.34357 0.17298 0.60773 0.32821 -0.085071 0.1732 0.012549 0.13802 -0.19261 0.071001 -0.038622 -0.15307 -0.013559 0.10875 0.27756 0.033652 -0.011075 -0.30455 0.086158 0.069022 0.19356 -0.1263 0.065031 0.24599 -0.017955 0.25663 -0.032153 0.0038107 -0.23586 0.35311 0.45304 0.091848 -0.41884 0.055319 0.14917 -0.42059 0.41153 -0.2267 -0.23222 0.037588 -0.090795 0.45677
abuse 0.56793 -0.12478 -0.42711 0.29746 0.15942 0.1232 -0.19035 0.10806 0.30259 -0.079567 -0.037605 -0.17691 -0.26352 -0.18341 -0.46361 0.26773 0.50327 0.066668 0.0311 0.28306 0.13654 -0.39448 -0.50287 -0.36614 -0.015994 -0.10837 -0.072447 0.022799 -0.018463 0.0097256 0.044982 0.41523 0.35324 0.39584 0.25715 -0.016017 -0.51459 0.10027 0.041151 -0.091031 -0.22268 0.13417 -0.14651 -0.49596 0.041055 0.048149 -0.073752 -0.14025 0.029327 -0.46196 -0.053767 -0.59662 -0.27227 -0.026122 -0.26596 -0.15852 0.13698 -0.30797 -0.10062 0.12971 -0.13814 -0.098925 -0.15654 0.15415 -0.14115 -0.25978 -0.081489 -0.1274 0.14422 -0.32153 0.43525 0.26053 0.16763 -0.095857 -0.26327 0.14469 0.15431 0.27023 -0.30198 0.20302 0.037854 0.113 -0.11899 0.052883 0.15409 -0.007986 0.18526 0.09202 0.20324 -0.38322 0.4516 -0.53653 -0.029136 0.19538 -0.089225 -0.15423 -0.51008 0.074096 0.30551 -0.14977 0.014695 0.057791 -0.24012 0.097976 0.075776 0.39256 -0.0035237 -0.13565 0.056629 0.36236 0.38677 0.013575 0.2088 0.2541 -0.30338 0.46117 0.53655 -0.01827 0.011928 0.16277 0.02737 0.2936 -0.086762 -0.65955 0.30848 0.15734 -0.032771 -0.31174 -0.34516 -0.16976 0.36549 -0.10416 0.23698 -0.54607 0.0089582 0.57715 -0.3481 0.12708 -0.12823 0.014876 -0.074184 -0.28808 0.09726 0.46159 0.13798 -0.13911 -0.28072 -0.33398 -0.12764 -0.041421 0.48716 0.43688 -0.38193 0.26746 -0.20614 -0.23433 -0.11923 -0.026662 0.30759 0.20925 0.2008 -0.078559 0.11421 -0.09038 0.46005 -0.12349 0.21017 -0.41178 0.01694 0.45984 -0.012244 -0.2532 -0.62058 0.41255 -0.40179 -0.11685 -0.12164 -0.3138 -0.36689 -0.046905 -0.20333 -0.17863 0.21656 0.0012679 0.10925 -0.1558 0.52895 0.16454 -0.041977 -0.35491 0.20908 -0.33943 0.010142 -0.2624 -0.40278 0.08059 0.013047 -0.28048 0.22445 0.03155 -0.034183 0.17666 -0.22259 -0.063345 0.38028 -0.2566 -0.26488 -0.10062 -0.16591 -0.15307 -0.096608 -0.093012 0.25622 0.22772 -0.024365 0.37456 -0.21128 -0.21094 -0.067424 -0.23452 0.40212 -0.31854 0.20231 0.13634 -0.064623 0.28613 0.14826 -0.068142 0.047149 -0.52709 -0.33394 0.061924 0.096171 0.27538 0.094838 0.038707 0.35077 -0.024611 0.19326 0.22475 0.17292 0.1749 -0.38241 0.24174 0.50775 -0.33529 -0.020227 0.34396 0.14077 0.45189 0.13526 -0.089649 -0.11389 -0.22917 -0.04464 0.24211 0.26297 -0.098511 0.11395 0.35818 0.29698 0.10808 -0.26077 0.053415 0.038151 -0.46268 -0.27159 -0.33629 0.53385 -0.26681 -0.42815 -0.082316 0.17303 -0.31377 -0.30574 0.20961 0.22436 0.15588 -0.11047 -0.30654 0.237 -0.039634 0.046536 -0.32623 0.19993 0.12729 -0.03475 -0.21243 0.23488 0.20753 0.24562 -0.14015 0.22808 0.14315 0.26213 -0.1283 0.065946 -0.11892 0.095106 -0.0058597
criterion -0.093148 0.24045 -0.13646 1.1055E-4 -0.33916 -0.050032 0.07009 -0.18272 -0.084295 0.26477 0.15561 -0.32769 -0.20843 -0.10599 0.26232 0.38497 -0.019645 -0.14345 -0.033828 -0.10709 -0.055907 0.13957 -0.13336 0.15751 -0.34604 0.031293 0.13609 0.045363 -0.29809 -0.47967 -0.44206 0.098904 0.075121 -0.1905 0.095057 -0.11011 0.10523 -0.077534 0.055585 -0.10697 -0.016797 0.17213 -0.036993 -0.1258 0.1755 0.22439 -0.0082854 0.024612 -0.02869 0.24113 0.061887 -0.26009 -0.3212 -0.057836 -0.24822 -0.062772 -0.2551 -0.21472 -0.25841 0.046176 0.13232 -0.17384 0.26388 0.25841 -0.12649 0.088965 0.057289 0.10942 0.069282 -0.067429 0.2142 -0.33633 0.036456 -0.023689 -0.19984 -0.076548 0.10139 0.061364 -0.2728 0.118 0.34572 -0.054348 -0.15439 0.10658 0.044066 0.11924 -0.17383 -0.1257 -0.095281 -0.35439 -0.01438 -0.27477 -0.070784 0.10155 -0.19654 0.16153 -0.15154 -0.20176 -0.025757 0.027081 0.17854 0.10827 0.063361 0.16135 -0.10397 0.21784 0.021985 -0.0076982 0.47823 0.032275 0.34476 0.36407 0.064068 -0.21114 -0.043988 0.24584 0.028756 0.11223 0.2418 -0.20805 -0.094471 -0.10048 -0.16278 0.065799 0.051116 -0.33764 -0.081414 0.12835 -0.044123 -0.13512 -0.021809 -0.20703 0.13978 -0.067639 0.021016 0.041102 -0.15027 0.086445 -0.20804 -0.0033406 0.52833 -0.32635 0.26205 -0.23455 -0.1929 -0.025911 -0.19096 0.036736 0.23667 -0.062999 0.27731 0.0081789 0.040233 0.17106 -0.31767 -0.0048031 -0.12448 0.30354 0.057207 0.28085 -0.14544 0.2315 -0.12779 0.04716 -0.16876 0.30499 -0.10039 0.11227 -0.061154 -0.14156 0.094938 0.1272 0.2839 0.16574 -0.41321 0.22596 -0.045784 0.11412 -0.68914 -0.23537 0.14057 0.13927 -0.024477 -0.078548 0.060216 -0.20863 -0.063182 -0.09441 0.13603 -0.032435 0.14865 -0.091955 -0.18279 -0.10465 0.12863 -0.29351 -0.20842 0.16104 3.195E-4 -0.38395 0.086125 -0.1791 0.037459 -0.0091173 0.10128 -0.088124 -0.023498 0.10804 0.018308 0.1792 0.12231 -0.3414 -0.29474 -0.034477 -1.0341E-4 0.24061 -0.4202 -0.42586 -0.08008 0.0078617 -0.13928 -0.08703 -0.040728 0.16247 -0.0016696 0.0023816 0.0072504 0.33992 0.26435 -0.20209 0.26789 0.23818 0.058292 -0.016142 0.19552 0.031565 0.026701 0.25153 -0.026184 -0.44051 -0.011927 -0.18857 0.010966 -0.095916 0.21962 -0.17326 0.089213 0.42669 0.11251 0.48081 0.2377 0.34031 -0.12088 -0.14824 0.49282 0.14704 0.030664 -0.13521 -0.06907 0.27579 -0.066753 0.3583 -0.0056781 -0.0013599 -0.23407 -0.10968 0.099603 0.14111 -0.0613 -0.010034 -0.014524 -0.29858 0.20757 0.26236 0.027486 -0.16503 -0.077312 0.17065 -0.24838 -0.057828 0.077062 -0.0010244 0.043893 0.31106 -0.10507 -0.31499 -6.2126E-4 0.36437 -0.10627 -0.054056 0.067141 -0.23854 -0.02016 0.026207 0.12783 -0.10884 0.40097 0.2887 -0.23593 0.10456
sea -0.15513 0.15844 0.40091 -0.040324 0.56195 0.52026 -0.022459 -0.31746 0.20577 -0.072883 0.23315 0.59413 0.50015 -0.062992 -0.16166 -0.36846 0.65648 0.38152 -0.049476 -0.012986 -0.28667 0.18468 0.0256 0.25027 0.26533 -0.35938 0.14252 0.17287 0.098936 0.027802 -0.26953 -0.0028062 0.2498 -0.21531 0.19102 -0.40617 -0.13184 -0.061193 0.11055 0.06417 -0.10314 -0.18776 -0.26018 -0.2142 -0.062236 -0.13171 0.62262 -0.27645 -0.071501 -0.12006 0.4747 -0.39098 0.24354 0.067701 0.13167 0.11433 0.10871 -0.17801 0.38058 -0.018389 0.035375 -0.14608 -0.22095 -0.32253 0.029175 -0.46574 0.21747 0.23272 -0.39819 0.35957 0.30691 -0.23783 0.24803 -0.155 0.16219 0.0077692 -0.015478 -0.074704 0.028508 0.13512 -0.15538 -0.12033 -0.091637 0.19998 0.39763 -0.063825 -0.13048 -0.14138 -0.25197 0.13765 0.30373 -0.015578 0.13027 0.063078 0.57093 0.17117 -0.46715 0.35379 0.35801 0.13674 -0.049314 0.20247 -0.3054 0.30589 0.21178 -0.074267 -0.037104 -0.29081 -0.10117 0.14515 0.33107 0.56412 -0.51503 -0.10454 0.19589 0.17937 0.10699 0.037553 -0.023826 -0.1808 0.25741 0.1917 0.38967 0.096062 0.012719 0.18392 0.18276 0.46709 0.16695 -0.19536 0.17646 -0.021764 -0.23644 -0.39539 0.27267 -0.22517 0.26683 -0.085073 0.19202 0.17964 -0.13451 -0.37919 -0.4032 0.16686 0.066951 0.13216 -0.045449 -0.073069 -0.31284 0.44949 -0.064002 0.31199 -0.34247 0.048929 0.04254 -0.13891 -0.2369 0.042046 -0.15658 0.24065 0.057745 -7.7984E-4 -0.32097 0.2392 -0.062692 -0.66192 0.1583 -0.20456 -0.19187 0.029064 0.22761 0.0067681 -0.37985 0.1844 0.065793 -0.21828 0.29302 0.26759 -0.093184 -0.058717 -0.080232 -0.030745 -0.093292 0.38375 0.088476 -0.093514 0.029685 0.32234 0.92568 0.013901 0.062026 -0.0093156 -0.21717 -0.5281 0.34195 -0.16967 0.11958 -0.12029 -0.022133 0.041827 0.19803 0.048327 -0.16593 -0.17661 0.11784 0.33729 -0.30812 -0.13106 0.06371 0.12292 0.24392 -0.083695 0.23986 -0.089491 -0.15688 -0.10796 0.066978 -0.040568 -0.43299 0.23135 -0.2845 -0.047401 -0.17255 -0.14956 0.47838 -0.13906 0.31197 -0.25259 0.24623 -0.23442 -0.28072 0.25321 -0.13038 -0.21002 -0.028724 -0.060493 -0.19994 0.2057 -0.28859 0.046374 -0.22157 -0.23943 -0.22399 -0.15593 0.51406 -0.26112 0.037832 0.58896 0.27135 -0.092386 -0.0019036 0.26537 0.044025 -0.38612 0.30387 -0.13227 -0.077048 0.31779 0.19109 0.27572 0.43748 -0.0045467 -0.03376 0.12319 0.037204 -0.23144 -0.34641 0.10175 0.13746 0.26706 -0.026137 0.051271 0.13832 -0.31636 -0.20282 0.14609 -0.082512 -0.085667 -0.33882 -0.16355 0.14241 -0.10338 -0.042317 0.79119 0.058594 0.0056764 0.42565 -0.25293 0.04721 -0.19605 0.28762 0.25085 0.33526 -0.63391 0.092115 0.091151 0.047879 0.090929 -0.56211 0.30738
dollar -0.0037976 -0.15622 0.10205 -0.043826 0.16463 0.33789 -0.011746 -0.091014 -0.55452 -0.13709 0.096521 -0.2663 0.28857 -0.1875 -0.091875 0.27883 0.033697 0.061066 0.078446 -0.14367 0.066433 -0.1981 -0.086498 0.11595 -0.13394 -0.21083 0.35031 -0.39684 -0.28547 -0.11418 0.11369 0.23927 0.11734 -0.23975 -0.21361 -0.2193 0.10516 -0.041265 0.24651 0.18916 0.068569 0.52412 0.30234 -0.12328 -0.068651 -0.16188 -0.13255 -0.17051 0.035048 0.058588 -0.030446 -0.52243 -0.15887 -0.26249 -0.091782 0.18557 -0.11364 -0.74445 0.052867 -0.1292 0.27261 0.3161 0.14545 -0.030334 0.43955 0.008979 -0.39882 -0.15063 -0.56917 0.2466 -0.075264 -0.18589 0.36093 -0.3542 -0.050733 -0.24184 0.45134 -0.026361 -0.29383 -0.10342 -0.39406 -0.40026 -0.611 -0.050429 -0.44802 -0.020457 0.15393 -0.47306 0.28017 0.4243 0.15649 0.028398 0.25273 -0.081337 -0.19658 0.036346 -0.062328 -0.12851 -0.12907 -0.033219 0.77482 -0.024385 0.1137 0.20425 -0.26042 0.31652 0.3791 -0.026963 0.39125 0.147 0.07253 0.31953 0.12296 -0.13639 -0.3608 0.067481 0.22269 -0.16613 0.36734 -0.50324 0.12301 0.02323 -0.31266 0.24032 0.16494 0.066381 0.31368 -0.15391 0.11785 -0.20347 0.13665 -0.1309 0.06979 -0.17494 -0.084673 -0.65521 0.7354 0.45307 0.072754 -0.26403 -0.15816 0.36861 -0.38353 0.003918 0.014105 0.15454 -0.59262 -0.16533 -0.14808 0.046313 0.1756 0.50622 -0.076702 -0.34749 -0.26785 -0.3676 -0.2087 -0.29618 -0.069104 -0.12753 -0.2777 -0.80592 0.27233 -0.124 -0.45392 -0.030069 0.2573 0.1586 -0.36865 0.3125 -0.24977 0.17846 -0.20645 -0.072116 0.090246 -0.35493 -0.026939 0.17102 -0.0015002 0.17189 0.26705 -0.080098 -0.2465 0.54851 0.10426 0.068828 -0.017553 -0.0024087 0.53423 -0.048687 0.13014 -0.32504 0.12564 -0.038734 0.029314 -0.046471 -0.20719 -0.13241 0.059147 0.022376 0.20348 -0.15994 -0.37685 -0.37565 -0.31475 0.18823 -0.23402 -0.027111 0.47 0.16479 0.047583 -0.38231 0.40631 0.19584 0.17312 0.2725 -0.016323 -0.2118 -0.34351 0.15729 -0.35907 -0.2594 -0.024221 0.68583 0.29087 -0.32332 0.20989 -0.4347 -0.12684 -0.24307 0.033402 -0.038557 0.28032 -0.16157 -0.10491 -0.30902 0.050829 -0.17322 0.19649 -0.3151 -0.18307 0.2226 -0.28736 0.11781 -0.13396 -0.12556 -0.14173 0.2808 0.65163 0.11315 0.1942 -0.74274 -0.0829 0.031799 0.0046272 -0.35319 0.16727 0.12517 -0.20993 -0.10286 -0.50612 0.26049 0.30258 0.36835 0.081462 -0.21605 0.058031 -0.073788 -0.2399 0.068503 0.50885 -0.041504 0.1538 0.24479 -0.45909 -0.17771 -0.015256 0.03023 0.022422 -0.055349 -0.048435 0.15299 -0.19378 0.062944 -0.046104 0.38207 0.067395 -0.14212 0.073655 0.20806 -0.26001 -0.13934 -0.0039564 0.0533 0.37524 0.13341 0.45736 -0.15435 0.20862 0.27957
example -0.038231 0.090357 0.055968 -0.29401 0.2018 0.15415 0.016188 -0.10665 -0.12248 0.088646 0.29197 -0.27892 0.18075 -0.012165 0.12556 0.32863 0.02395 0.044546 0.066646 0.014016 -0.32205 0.082958 -0.010893 -0.050615 0.009723 -0.0028823 -0.17614 -0.20577 -0.3802 0.16993 -0.031884 -0.060907 0.07506 -0.13021 -0.36224 -0.16302 -0.07029 -0.0083138 0.070271 -0.12109 -0.19754 0.15048 0.18223 0.073053 0.14414 -0.19497 0.21494 0.13831 0.089146 0.16904 0.1979 -0.14138 -0.11291 0.28258 -0.27964 -0.12218 -0.23482 -0.23554 -0.29595 -0.080699 0.15656 0.041434 0.052972 0.022934 0.045127 0.013197 -0.14204 0.31257 0.062355 -0.27093 0.003413 -0.089785 0.080173 0.12727 -0.12301 0.46056 -0.079706 -0.026583 -0.11221 0.18468 -0.10151 -0.093623 -0.071066 -0.14394 0.10161 0.13638 -0.15057 -0.034627 0.092547 -0.24768 0.22138 -0.25563 -0.26729 0.14275 0.30672 -0.094465 0.069198 -0.06809 0.075393 -0.073086 0.18285 -0.12347 0.039763 0.15195 -0.10632 0.078348 -0.26836 -0.01436 0.082195 -0.10928 0.44825 -0.094659 -0.12514 -0.13489 0.048343 0.40005 0.22905 -0.048317 0.14651 -0.26781 0.32266 -0.038848 -0.11223 0.27445 -0.25424 0.28131 0.30988 -0.18043 -0.30174 0.030143 -0.25333 -0.14036 0.08753 0.079183 -0.043351 -0.47206 -0.065176 0.23587 -0.16681 -0.03174 0.25833 -0.013779 0.16385 -0.072724 0.029651 -0.19706 -0.34032 0.11331 -0.05139 0.0046403 -0.050456 0.13077 0.058736 0.16457 -0.21394 -0.073768 -0.025223 0.28423 -0.36542 0.070007 0.03068 -0.062085 -0.01122 -0.098619 -0.066046 -0.076215 -0.082861 -0.10401 -0.081974 0.060558 0.026741 -0.092652 0.013564 0.3463 -0.23766 -0.0090994 0.12728 -0.097112 -0.24874 0.12158 0.23591 0.072047 0.36851 -0.11392 0.13256 -0.056235 0.17272 0.054434 0.089185 0.22983 -0.042986 -0.22676 0.019542 0.038618 -0.091362 0.06999 0.016179 -0.089474 0.19437 -0.089448 0.24308 -0.31785 -0.1642 0.027371 -0.17403 0.14076 -0.023225 -0.14313 -0.23501 0.14783 0.28236 -0.26639 0.24574 -0.078892 -0.14174 0.16886 -0.16575 -0.15964 -0.076757 0.18277 -0.13749 -0.14959 0.15421 -0.033778 -0.18056 -0.3247 0.090749 0.035572 0.17683 -0.39551 -0.29763 -0.13386 -0.18323 -0.10313 -0.20023 0.036067 0.20657 0.057036 -0.060654 0.22467 0.078094 0.075216 -0.01656 0.16843 0.10258 0.26601 -0.11875 0.24359 -0.11976 0.093979 0.25602 -0.10383 -0.088342 0.14074 0.42487 0.071473 0.14208 -0.17524 0.11076 0.1787 0.11125 0.19048 0.24053 0.31473 0.18478 0.037899 0.29027 -0.071353 0.18178 0.069496 -0.046331 -0.15478 0.074511 0.091961 0.20242 -0.018068 0.20831 -0.012176 0.24996 -0.31379 -0.042264 0.17078 0.10793 -0.13616 0.12534 -0.15119 0.064636 0.15836 -0.30582 0.070503 -0.058707 -0.20238 0.041975 -0.044875 0.15803 -0.029761 0.18224 -0.044554 -0.078074 0.25023
journal 0.54643 0.53293 0.087738 -0.45572 0.23625 0.085976 0.012046 0.012026 0.21587 -0.71485 -0.067439 -0.38601 0.28187 -0.72887 -0.098071 0.07394 -0.30369 0.22913 0.41827 0.29202 -0.692 0.19108 -0.36006 -0.010561 0.24312 -0.3246 0.31004 -0.042518 -0.44982 0.24556 -0.18173 -0.43459 -0.042516 0.35001 0.51394 0.39778 0.070981 0.1676 0.21707 0.11781 0.13057 -0.21811 0.15478 -0.32946 0.023305 0.22197 0.41028 -0.49598 -0.16413 -0.53966 0.39042 -0.045845 -0.57844 -0.2823 -0.047293 0.19569 0.0041384 0.36229 -0.4809 -0.06573 0.083138 -0.27158 0.16873 0.30972 0.36678 -0.053465 0.12056 -0.10338 0.10996 -0.45554 0.32983 -0.38953 -0.18103 -0.1203 0.29542 0.053001 0.1216 -0.40241 0.042563 0.24615 -0.15131 0.20936 0.18217 -0.41224 0.19735 0.22198 0.20736 0.054023 0.20552 -0.29306 -0.4986 -0.10078 0.019909 -0.082637 0.10565 -0.032577 -0.10581 -0.13376 -0.089618 -0.26026 0.42323 -0.045562 0.15845 0.032456 0.29168 0.21091 0.31642 -0.19622 0.80175 -0.076686 0.28048 0.027221 -0.40701 -0.22236 0.1347 0.22438 0.38513 0.20448 0.045939 -0.42972 0.16722 -0.2851 -0.3262 0.23919 -0.04074 -0.18304 -0.040944 -0.67604 -0.23903 -0.012896 -0.050987 0.22807 0.18277 -0.010587 -0.54861 -0.61711 -0.40687 0.074927 0.20614 0.0012785 0.17024 0.12259 0.17201 0.085465 -0.14685 0.17388 -0.4105 -0.019422 -0.55137 0.46514 0.22003 -0.0045704 -0.21728 -0.016405 -0.44249 -0.32192 -0.22054 0.056649 0.15051 -0.28851 -0.3618 -0.28855 -0.18007 -0.29026 -0.029412 -0.15323 0.14085 -0.039428 -0.054447 -0.046027 -0.23141 -0.057685 0.16468 0.37466 -0.45752 0.3019 -0.15666 0.039132 -0.48695 -0.013991 0.11413 -0.2253 0.098747 0.34298 0.69973 0.3997 -0.077547 -0.063605 -0.20645 -0.048343 0.26687 -0.061122 0.035872 -0.41616 -0.077195 -0.074669 -0.068465 -0.026956 -0.22075 -0.0067722 0.26673 -0.025734 0.27111 0.11368 -0.084529 0.2374 -0.24149 -0.1444 -0.22351 0.077681 0.47034 -0.53707 -0.108 -0.13663 -0.36248 0.22847 0.1651 -0.48392 -0.24417 -0.2877 0.34071 -0.16538 -0.19401 0.30466 -0.13293 -0.25645 0.4128 -0.34259 -0.050565 -0.14664 0.19751 0.14413 0.4573 -0.26735 0.16039 0.58135 0.21927 0.092487 -0.44105 0.53883 -0.17087 -0.32305 -0.054329 0.082027 0.066804 -0.05389 0.085558 -0.0049442 -0.29645 0.29902 0.056009 0.39276 0.29674 -0.52169 0.096572 0.29503 0.24657 0.1144 0.38207 -0.26078 0.15852 0.19164 0.16155 0.3971 -0.46581 -0.16038 0.018542 0.23354 0.24697 0.086336 0.052621 -0.20497 0.33925 -0.045149 -0.064829 0.071123 0.27997 -0.20206 -0.22609 -0.58495 -0.081587 0.36573 0.12259 0.59987 0.0094685 0.16725 0.0046949 0.21455 -0.14048 -0.17735 -0.43863 -0.07365 -0.43519 -0.11982 0.29169 0.10111 0.13419 0.38877 -0.16274 0.37511
laundering 0.085203 0.12068 0.19407 0.14586 0.21336 0.18999 -0.083473 0.17376 0.035893 -0.34308 0.20768 -0.61958 -0.034674 -0.24502 -0.42456 0.076904 0.25286 0.27966 0.14394 0.22193 0.048005 0.094186 -0.41987 -0.26011 0.14792 -0.28369 -0.0099567 -0.16267 0.065657 -0.66791 0.080418 0.22752 0.28058 0.075845 0.10426 -0.15803 -0.091472 0.15429 0.051574 0.0036159 -0.021483 0.43288 0.043898 -0.26058 -0.27618 -0.11968 -0.5448 0.056607 -0.42664 -0.23251 -0.44302 -0.37507 -0.63336 -0.09406 -0.22761 0.37432 0.18237 -0.45425 -0.017749 0.25916 0.28623 -0.047929 0.32205 -0.09579 0.2175 -0.057176 -0.3915 0.011541 0.0011056 0.1296 0.43861 0.28079 0.04716 0.18911 0.0023206 0.086194 0.28329 -0.17877 0.1636 -0.041358 -0.073094 -0.2208 -0.34383 -0.011883 0.37748 -0.014538 -0.026231 -0.37442 -0.18209 -0.11279 -0.2452 0.25719 0.18133 -0.10102 -0.051557 -0.19851 -0.11944 -0.064387 -0.13004 -0.084182 0.54215 0.043589 -0.33561 0.40258 -0.19599 0.33969 0.52732 0.51872 -0.059282 0.12417 0.32955 0.48038 0.23213 0.049426 -0.21852 0.26646 0.15202 -0.17956 0.34688 0.29044 -0.32292 -0.012546 -0.15254 -0.16529 0.075336 0.067755 -0.029573 -0.097041 0.24382 0.095583 0.42031 -0.1616 0.2978 -0.33858 -0.07718 -0.23847 -0.25583 0.28767 0.031388 0.20201 -0.15638 0.065008 0.045687 0.20771 0.14878 0.10245 0.060208 -0.32135 -0.17837 -0.13465 -0.42328 -0.30424 -0.31536 0.059384 -0.12129 0.22863 -0.30919 0.0040485 -0.1196 0.48741 -0.056566 0.18897 0.10516 -0.055326 0.13681 -0.17 0.21241 0.030554 -0.49679 -0.0066044 0.25426 -0.50665 -0.29616 0.18382 -0.36282 0.15889 0.24023 -0.28798 -0.071549 0.045815 0.058694 0.030271 0.12614 0.14474 0.10235 -0.18526 -0.015418 -0.43953 0.39412 0.10402 -0.23013 -0.49251 -0.24709 0.24238 -0.083438 -0.26923 -0.23923 -0.34283 0.065206 -0.35192 0.42341 0.28046 -0.18614 -0.41758 0.19251 -0.016168 -0.24051 -0.24342 -0.055706 0.17243 -0.026495 0.25808 0.24901 0.27432 -0.081229 -0.12128 -0.18693 -0.284 -0.21291 -0.068178 0.16682 0.0062977 0.12813 0.24836 -0.04029 -0.11149 0.48113 -0.29825 -0.061972 0.15729 0.037442 -0.17285 -0.0082464 0.23489 -0.098283 -0.0973 0.16291 0.38694 0.23337 -0.24763 0.31218 0.086655 -0.28073 0.79184 0.32776 -0.16893 -0.04556 0.34897 0.046403 0.3822 0.32363 0.139 0.28365 -0.29904 0.35576 0.15459 -0.19343 -0.030107 0.10957 0.18777 0.18264 -0.15276 -0.015002 0.33741 0.52581 -0.20466 -0.045737 -0.050782 0.076801 -0.0015915 -0.071729 -0.21236 -0.22499 -0.12235 -0.20942 0.085088 -0.23946 -0.29283 -0.15591 -0.41241 -0.43209 0.33794 0.012209 0.067328 0.13287 -0.0088001 -0.14248 -0.025665 0.074001 0.1756 0.14405 0.080788 0.39219 0.08156 0.077595 -0.17724 -0.056789 -0.11671 0.1526 -0.082281
hotel 0.27295 0.37271 -0.28729 -0.026129 -0.15195 -0.086725 -0.21477 0.025008 -0.0028346 -0.1624 -0.010222 -0.23003 -0.1075 -0.023792 -0.3794 0.20317 0.43524 0.14901 -0.026834 0.20454 -0.36809 0.35817 0.31168 0.32082 0.094102 0.16424 0.18503 0.19253 0.074893 -0.0097006 -0.12161 0.4263 -0.0073317 -0.17151 0.0015281 -0.14564 0.013518 0.16888 0.31252 -0.028009 -0.14615 0.17474 -0.24776 0.30967 -0.031804 -0.11788 0.043242 0.28157 -0.13272 -0.26537 -0.24975 -0.58665 -0.038319 -0.15892 0.011397 0.17573 0.16842 -0.18497 -0.050415 -0.13729 -0.057343 -0.01237 -0.19559 -0.083208 -0.042722 -0.13234 -0.31968 0.01827 0.11899 -0.1705 0.022634 0.1854 0.070197 0.0078278 0.13969 -0.089626 0.41512 0.26214 -0.050646 -0.1427 0.11019 -0.24328 0.072728 0.29189 0.35043 0.0062769 -0.32177 0.05704 0.091276 -0.0077042 -0.11719 -0.18982 0.19591 0.11321 0.18523 0.10271 -0.15397 0.038669 0.22254 -0.14637 0.14288 0.094786 0.0033303 0.21148 0.1938 0.36177 -0.042881 0.34667 0.14914 0.055679 0.36558 0.39819 0.166 0.12074 -0.0049916 -0.069411 0.097611 -0.11831 0.11127 -0.034192 -0.27352 0.46285 -0.010316 -0.75261 -0.049166 -0.23701 0.20299 0.24221 0.041657 0.25811 -0.018596 -0.15547 -0.20219 -0.14279 -0.18781 -0.34062 -0.32826 0.082413 0.12057 -0.31113 0.016599 0.072224 4.8392E-4 0.017786 -0.057907 0.29069 -0.40398 0.31879 0.20033 0.068859 0.075316 -0.25561 -0.13349 -0.10823 -0.37787 0.044358 -0.15141 -0.07424 -0.33157 0.25632 -0.099302 -0.067066 0.021922 0.30836 -0.46453 -0.42508 -0.19716 0.48271 -0.16844 -0.31374 0.039439 0.12965 -0.2763 -0.17081 0.14158 -0.2614 -0.15729 -0.17425 -0.097087 -0.12656 -0.089456 0.25161 -0.41093 0.12994 0.27623 0.23889 -0.26552 0.13911 0.26189 0.4428 0.028426 0.31447 -0.17239 0.088961 -0.40457 -0.16866 -0.091902 0.18298 0.28249 -0.27051 0.18036 -0.35859 -0.16196 -0.13372 0.12534 0.081027 -0.4313 -0.16153 -0.27943 0.43345 0.25749 0.062384 0.10859 -0.30277 -0.42832 0.30936 0.15056 0.1441 -0.24345 0.23205 -0.33309 -0.2016 -0.19294 -0.068545 -0.20259 -0.12468 0.33541 -0.15525 0.059255 0.19159 0.18038 0.15083 -0.077847 -0.43667 0.20942 0.13154 0.28409 0.18602 -0.1276 0.23613 -0.038375 0.085806 -0.37491 0.088802 0.08493 -0.36055 -0.2007 0.30092 -0.014815 -0.1502 0.092342 0.23367 0.11876 0.0075212 0.1904 0.17424 -0.035242 -0.087661 0.33998 0.63563 0.21191 0.25492 0.23311 -0.019729 0.14592 0.028482 -0.031624 -0.063521 -0.048245 -0.10294 0.62842 0.2395 0.11922 -0.30107 -0.42101 -0.022961 -0.28532 0.25847 -0.11375 -0.073133 -0.011939 0.45717 0.21974 0.30906 0.35425 0.32197 0.072228 -0.067882 0.018168 0.21023 0.0069462 0.1275 -0.076171 -0.22233 -0.17014 -0.08921 0.092378 -0.1261 0.13318 0.45734
term 0.19912 0.031478 -0.085082 0.039199 0.0020365 -0.081408 -0.1593 -0.22577 -0.16877 0.26674 0.10775 -0.20662 0.37819 -0.13635 0.0060448 -0.05203 0.35428 0.12577 -0.41296 0.25025 -0.076186 0.087281 -0.27599 -0.073224 -0.10622 -0.12362 -0.10838 0.40076 -0.17896 0.023085 -0.31253 -0.079248 0.1226 -0.040316 -0.3905 -0.17262 0.22868 0.051293 -0.070134 0.24137 1.9344E-5 -0.057366 0.13313 -0.18812 0.28919 -0.34968 0.2777 0.25453 0.0090136 -0.45372 0.17366 -0.35568 -0.28414 0.15788 0.025215 0.35782 0.26582 -0.043552 -0.20759 0.32556 0.013351 0.06312 -0.06169 0.11787 -0.042504 0.23978 -0.20787 -0.019453 -0.1292 -0.27547 0.10429 0.12724 0.22861 0.13731 -0.2007 0.16213 -0.045998 0.14584 -0.3442 0.22471 0.18461 -0.36702 -0.23993 -0.049338 0.0066432 0.15519 -0.28384 0.071214 -0.079179 -0.0076946 -0.041531 -0.5781 0.14022 -0.6157 0.019789 0.24905 -0.2074 0.066061 -0.42916 0.073461 0.61352 0.075223 -0.2021 0.061161 -0.37626 0.3024 -0.026902 0.15657 0.24811 0.18293 -0.12716 0.29365 0.025459 -0.22604 -0.059933 0.24397 -0.46956 -0.13467 0.46523 -0.32084 -0.30385 -0.2132 0.28765 -0.22671 0.059326 0.076603 -0.32201 0.076247 0.21182 -0.20388 0.11935 -0.14335 -0.14548 -0.064323 0.31963 -0.3718 0.034241 0.27092 0.061347 0.20204 -0.0049638 -0.004469 0.086496 0.071982 0.052307 -0.51721 -0.29817 -0.16018 -0.22469 -0.15356 -0.069842 -0.021278 0.34724 -0.098096 -0.38973 0.08383 -0.1552 -0.053435 0.30179 -0.049089 0.26975 0.047207 -0.044771 -0.27569 -0.32531 0.15335 -0.26673 0.094375 -0.36201 -0.10687 -0.15073 -0.45318 -0.59323 0.53479 -0.3539 0.29932 -0.049507 -0.32883 -0.25725 -0.13747 0.14089 -0.29948 -0.22914 0.20328 0.49273 -0.15741 0.13996 -0.08781 0.71157 0.043494 -0.030637 -0.56074 -0.096164 -0.036178 -0.33063 0.15165 -0.08774 -0.093786 -0.075726 0.036812 0.44069 -0.11406 -0.40368 -0.17294 -0.22153 0.33722 0.14889 -0.22667 -0.03617 -0.12274 -0.14651 -0.3318 0.28716 -0.22918 -0.103 -0.0028308 -0.55252 -0.41472 -0.057849 -0.35576 0.032225 0.0023613 0.093944 -0.02105 0.01818 0.44299 0.054296 -0.52735 -0.064691 0.10093 0.291 0.66061 0.0075082 0.11188 -0.11958 -0.065339 -0.32388 0.24262 -0.21962 -0.19105 -0.2591 -0.028001 -0.18935 -0.013543 -0.44873 -0.048917 0.22376 0.26968 0.45751 0.77901 -0.048717 0.30045 -0.095784 0.45874 0.313 -0.20231 -0.14359 0.025074 -0.11386 0.19758 -0.088036 -0.012911 -0.14017 0.56083 0.044734 -0.013852 0.35539 0.088618 -0.46145 -0.23908 0.30995 -0.25973 0.22314 0.043358 0.028625 0.52061 0.083474 0.032038 -0.047265 0.0012877 0.17227 0.061368 0.22757 0.010423 -0.40267 -0.24354 -0.3411 0.11991 -0.093717 -0.047692 -0.0074118 0.088766 -0.20791 0.30642 -0.33154 -0.11847 0.012338 0.46869 -0.27567 -0.24834
listing -0.36105 0.26213 0.019015 -0.16002 0.12821 -0.029892 0.16496 -0.33197 0.29794 -0.12842 0.069279 -0.51991 0.052103 -0.29403 0.22608 0.18795 -0.026031 0.40652 -0.091173 0.36462 2.1266E-4 0.06997 0.017966 0.24054 0.0942 0.098129 0.15125 0.087692 -0.40575 -0.17647 -0.023896 0.44262 -0.071222 -0.17995 0.073615 -0.040811 0.029524 0.19778 -0.16826 -0.21438 -0.097438 0.35031 0.22825 0.03297 -0.067764 0.094734 0.26341 0.064179 -0.059074 -0.051474 -0.31691 -0.48697 -0.17532 0.033517 -0.11794 -0.13472 -0.17654 0.1435 -0.17036 -0.0019261 0.096335 0.16272 0.026197 0.38784 0.40014 0.4735 -0.35903 0.29912 -0.093767 -0.0027679 -0.22677 0.11468 0.07431 0.2024 -0.11473 -0.096797 -0.18524 0.055337 -0.20867 -0.076442 0.27053 -0.068093 -0.3903 -2.4575E-4 0.16079 -0.093674 0.059863 -0.19223 -0.17387 0.23475 -0.10996 -0.097235 -0.67033 0.35433 0.3906 0.089328 -0.21259 0.11426 -0.042793 0.087257 0.37781 -0.23816 -0.22399 0.026792 -0.37221 0.26725 -0.19839 0.3591 0.1635 0.36434 0.3562 0.34304 0.19581 0.35809 0.14585 0.015666 0.031756 -0.1525 0.2759 -0.10252 -0.16927 0.16997 -0.058593 0.18685 -0.14123 -0.0071312 0.31227 0.35654 0.39975 0.14216 0.13406 -0.03907 -0.048157 0.12842 -0.040926 -0.12585 0.085539 0.23036 0.13791 0.30682 0.39036 2.0255E-5 0.11007 0.033275 -0.20874 0.20465 -0.21673 -0.098838 -0.44167 -0.010602 -0.034267 0.092227 -0.31718 -0.10201 -0.4256 -0.014999 -0.36792 -0.022296 0.027732 -0.13458 0.060398 -0.18802 -0.22546 0.075333 -0.23822 0.054024 0.11515 0.41191 -0.36122 -0.17424 -0.21974 0.085214 -0.013929 -0.059784 -0.17807 0.097447 0.083954 0.26705 -0.61738 0.31699 -0.14042 -7.3329E-4 -0.36704 0.01299 -0.18446 0.044997 0.21524 -0.095004 0.28012 0.12092 0.11131 -0.29245 -0.22247 0.0046248 -0.17426 -0.1597 -0.29288 0.27919 -0.090626 0.42961 0.16739 -0.11606 -0.27808 0.18091 0.090095 0.051011 -0.23451 -0.095922 -0.19304 -0.043677 0.14357 -0.052765 -0.27029 0.098786 -0.098434 0.049925 -0.0089577 -0.12256 -0.10529 0.051557 0.004993 -0.54139 0.40219 0.10317 0.19916 -0.035996 0.047441 -0.18165 -0.22956 -0.1435 0.061343 0.063279 0.026534 0.077564 0.21565 0.018397 -0.19111 0.31458 0.007638 0.08584 0.050734 -0.28379 0.082626 -0.22486 0.014848 0.042146 -0.24352 0.18239 0.35611 0.43748 0.28057 -0.17068 0.049648 0.012069 0.20414 -0.099641 -0.19218 0.097372 -0.041082 0.22073 0.0031559 -0.054796 0.14366 0.005136 0.072309 0.20201 -0.30258 -0.0061481 0.056933 0.075531 -0.079982 -0.24631 -0.040518 0.22228 0.21561 -0.0058319 0.34985 0.0098446 -0.20827 -0.27349 0.19461 0.13777 0.0021266 0.14576 -0.11287 0.13165 -0.20126 0.12971 -0.6139 0.13046 -0.2772 -0.1752 0.14646 0.010421 0.006521 -0.015948 0.05974 0.48695 -0.20384 0.63896
