432 300
plane -0.076873 -0.29249 -0.08018 -0.33731 0.17645 0.11631 0.41021 -0.19102 0.0013586 -0.16439 0.034477 -0.16435 -0.31993 0.15804 -0.12783 0.30689 0.10845 -0.066341 -0.12081 -0.37963 0.19544 0.11564 -0.13568 0.37385 0.038589 -0.14515 0.43931 -0.14544 0.2211 0.1803 -0.12037 -0.35227 0.064055 -0.10053 -0.047865 -0.070292 -0.27151 -0.15887 0.15817 0.22438 0.21298 -0.29285 -0.27138 0.34614 -0.059187 0.26818 0.2927 0.1891 -0.094244 -0.50801 -0.16256 -0.37949 -0.12772 -0.16936 0.35747 -0.2485 0.19472 -0.10794 -0.14895 -0.070878 0.14585 -0.041891 0.074584 -0.40963 0.3236 -0.11231 -0.030515 0.074154 -0.19605 -0.092114 -0.0091751 0.12003 -0.081708 -0.045758 -0.32703 0.30251 0.52983 0.11246 -0.043339 0.22759 -0.016849 -0.10839 0.13508 0.23644 0.12526 -0.018178 -0.041814 -0.053309 0.098178 -0.30266 -0.23835 0.03906 0.10889 -0.070345 -0.25603 0.2696 0.27659 0.10664 0.036948 0.13045 -0.020344 -0.14504 -0.47886 0.59642 0.077975 0.055928 -0.039444 -0.24003 -0.022998 0.098535 0.020582 0.36277 -0.098684 0.0031823 -0.14147 0.27399 0.1031 -0.010807 0.11185 -0.11131 -0.052896 -0.035652 -0.04642 -0.16396 -0.25612 0.029109 0.47794 0.058568 -0.15807 -0.38389 0.16859 -0.29836 0.07932 0.15655 -0.24507 -0.20064 0.41942 -0.47303 0.27307 0.28471 -0.096018 0.017564 -0.05225 -0.18267 -0.28219 -0.11212 -0.20997 -0.027535 -0.63456 -0.082547 -0.44512 -0.099785 -0.059101 0.21874 -0.19378 -0.032486 -0.2426 0.10022 -0.24163 0.14003 0.1837 0.055386 0.095721 -0.41298 0.17584 -0.21726 -0.18647 -0.086825 -0.35969 0.10207 -0.043176 -0.099323 -0.11678 -0.12513 0.069818 -0.10924 0.41409 -0.35181 -0.072842 0.14581 0.042872 0.20744 0.34604 -0.10521 0.18448 0.25737 0.29844 -0.23737 -0.19568 0.2075 0.13489 -0.24836 -0.57634 -0.098078 -0.44997 -0.25197 -0.25781 -0.32633 -0.094444 0.16113 -0.056128 0.19241 0.16 -0.44516 0.092376 -0.097952 0.021214 -0.44884 0.38441 -0.17569 0.19596 0.051665 0.18587 -0.23574 -0.1514 0.31973 -0.14684 -0.15777 -0.17 -0.25294 0.22893 0.39683 0.3234 0.25676 -0.18541 0.15559 0.29685 -0.27199 -0.12223 -0.12574 -0.38118 -0.47855 -0.21997 -0.1056 0.19402 0.27739 0.16083 0.10611 0.13697 0.051043 0.30018 -0.1732 -0.21467 0.25771 0.17869 -0.15923 0.13897 -0.17249 -0.17932 0.15937 0.20916 0.11582 0.27005 -0.45357 0.11769 -0.11319 -0.045109 0.067426 0.28139 -0.079574 0.19664 0.034259 0.058972 -0.063267 0.27478 0.059033 -0.16818 0.34653 0.1862 0.031071 0.014639 0.43404 0.13868 0.55536 -0.3282 0.34958 0.11813 -0.22069 0.14211 -0.57481 -0.18117 0.16653 0.16037 0.28377 -0.17772 -0.1154 0.067687 -0.48556 0.026504 0.16527 0.19272 -0.03429 -0.090349 -0.46826 0.14592 0.24273 -0.36125 0.30571 -0.26833 0.12001
stupid -0.084583 0.1011 0.0036933 -0.13187 0.097355 0.31314 0.18009 -0.46414 0.074965 -0.42236 0.13709 -0.38193 -0.11354 0.1315 -0.02193 -0.4083 0.091916 0.028494 -0.38944 -0.26973 0.12266 -0.015514 -0.10606 -0.2526 0.23621 0.1032 0.27572 0.29021 -0.02381 -0.072296 -0.30465 -0.18187 0.55448 0.046219 -0.10144 -0.57137 -0.34576 -0.23758 0.14211 0.24477 0.27998 0.1561 -0.086 0.011762 0.2936 0.3413 0.095432 0.026502 0.023514 -0.082166 -0.077604 -0.2988 -0.03624 0.25972 -0.1714 0.19167 0.13262 -0.13785 -0.14591 -0.26657 -0.071112 -0.35982 0.33234 -0.2816 0.042178 -0.1821 0.031066 -0.060141 -0.16171 0.067434 0.10338 0.059137 -0.079038 0.22301 0.048742 0.31852 0.30617 0.23515 -0.1038 0.09798 -0.10975 0.0050702 -0.058021 -0.29048 0.0011058 0.10569 0.27776 -0.30279 0.36888 0.26129 0.32368 -0.078815 0.55862 -0.11746 0.35583 0.40097 -0.12067 0.0094859 0.11829 -0.28774 -0.37004 0.2411 0.074395 -0.079403 -0.095182 0.42535 -0.24468 0.020733 -0.080385 0.14466 0.35105 0.26638 -0.081368 -0.0073473 0.095334 0.49369 0.11901 -0.1771 0.093158 0.077401 -0.033944 0.18713 0.38154 -0.17338 -0.0021891 -0.45186 0.12672 0.10617 -0.10177 -0.16888 -0.27769 -0.20495 0.32764 0.16089 -0.41143 -0.25367 0.29875 0.71253 0.031948 0.33359 -0.0041749 -0.069424 0.21938 0.37985 -0.23469 0.2652 -0.48386 0.007353 0.34938 0.29544 0.020959 -0.22954 0.19459 0.1161 -0.31471 -0.23869 -0.72498 -0.19873 0.32019 0.10983 0.082062 0.45327 0.22405 0.45338 0.1275 -0.0036429 -0.48616 0.028082 -0.29917 0.072116 0.35338 -0.03305 -0.10726 -0.20147 0.11149 0.32811 -0.12226 0.26219 -0.33262 -0.28687 -0.36569 -0.24143 0.062818 -0.24972 0.42815 -0.25749 0.327 -0.19631 -0.17369 -0.13723 0.1565 -0.080442 -0.1697 0.0033169 0.10152 0.20129 0.12617 0.23208 -0.23757 -0.19331 -0.2204 -0.13365 0.13982 -0.063161 0.10444 -0.19086 -0.15487 0.23928 -0.10864 0.25841 0.30154 0.25872 -0.12466 0.15906 -0.22719 0.63202 0.12811 -0.28189 -0.16241 -0.14462 0.035629 -0.25557 0.21804 0.2517 0.36675 0.030343 -0.1519 0.029197 -0.25454 -0.092863 -0.17744 0.45702 0.20111 -0.020741 0.091858 0.18222 -0.31539 0.1983 -0.21883 0.41618 0.066867 0.083288 0.039698 -0.13425 -0.16353 -0.39406 -0.092704 -0.06768 -0.24596 0.07337 0.12152 0.2988 -0.058799 0.13784 0.46181 0.22498 0.47113 0.16549 -0.15652 0.22873 0.13388 0.099869 0.22394 0.1313 0.051116 -0.14877 0.18417 0.27824 -0.046888 -0.024115 0.033152 0.2533 0.19964 0.12118 0.029923 0.13638 0.20596 -0.32821 0.021697 -0.14454 0.31182 -0.11052 -0.04386 0.062902 0.071848 -0.34627 0.3801 0.14957 0.034785 0.1669 0.4663 -0.23131 0.30389 0.33719 0.040384 -0.16184 0.08498 0.15855 -0.11768 0.20007
egg 0.67942 -0.43666 -0.20042 -0.21125 -0.29295 0.30901 -0.023043 -0.10889 0.19833 -0.33516 0.29744 -0.21165 0.044043 0.092454 0.47651 0.36542 0.50832 -0.33516 0.10251 -0.50704 0.081109 -0.26373 -0.42445 -0.17297 0.32959 0.31957 -0.46556 -0.35046 -0.29616 -0.24133 -0.065623 -0.3942 0.14867 -0.45111 -0.092326 -0.29948 -0.064982 -0.44308 -0.60623 -0.10661 0.02431 -0.25197 -0.26357 -0.28151 0.13442 -0.097046 -0.075477 0.34246 -0.35748 0.43596 -0.095989 -0.35919 -0.4953 0.057386 -0.39055 0.087992 -0.24089 -0.051372 -0.17338 0.10867 0.046564 -0.34405 0.23336 -0.51352 0.35121 -0.1001 -0.39825 0.45821 -0.39136 -0.045607 0.2974 0.17839 0.094656 -0.27022 0.18013 0.45585 -0.38998 -0.34951 -0.25429 -0.096985 -0.38684 0.19856 -0.28457 0.31082 -0.2705 0.29496 -0.25936 0.57872 -0.059845 -0.35011 -0.092485 -0.17065 0.29008 0.13658 0.042853 -0.3313 -0.036341 0.22767 -0.25325 0.33506 0.20981 0.45271 -0.31493 -0.28831 0.27567 0.055066 -0.55356 0.26594 -0.1247 -0.18856 -0.0022892 -0.11019 0.35082 -0.16854 -0.038256 -0.011148 0.42351 -0.25687 0.020997 -0.35396 -0.28253 -0.40537 0.28236 -0.12053 0.34123 -0.32844 0.014921 0.014091 -0.75307 0.076882 -0.070003 -0.1277 0.23655 -0.064572 -0.19333 -0.14643 -0.16176 0.51897 -0.048166 0.065453 -0.063201 -0.13412 0.040443 0.30616 -0.26603 0.12634 -0.21459 0.023388 -0.17379 0.30381 0.18629 -0.2156 0.29424 -0.16448 0.028582 -0.12027 -0.40021 -0.23052 -0.28869 0.30172 0.57772 0.14596 -0.29653 0.23122 -0.026764 -0.45814 -0.29198 0.51185 -0.032592 0.019816 0.48797 -0.23594 -0.038059 0.55585 0.34376 0.056951 0.29922 -0.39651 -0.23207 -0.059096 0.31409 -0.51103 0.54118 0.39702 0.34478 -0.028864 0.23003 -0.093131 0.26048 0.53441 0.19706 0.21425 0.26826 0.2257 -0.056497 0.10057 -0.55101 0.062271 -0.034346 0.042083 0.018165 -0.42831 -0.081439 -0.65249 0.013259 0.24382 -0.12569 -0.37857 0.3252 -0.13056 0.19419 -0.46481 0.16429 0.25963 -0.60305 0.027293 -0.26792 -0.69928 -0.068939 0.3505 -0.1276 -0.44041 -0.019709 0.034321 0.21253 -0.038514 -0.044058 -0.085218 -0.053054 -0.064494 -0.30373 -0.0065637 -0.042264 -0.013261 -0.13335 -0.08893 -0.34687 0.49356 0.3757 0.052645 -0.042425 0.19051 0.10518 0.15173 0.43518 -0.18164 -0.16165 0.3043 -0.30458 0.13467 0.16295 0.27931 0.14269 -0.44373 -0.2126 0.28154 0.26886 0.37064 -0.27663 0.22977 -0.24427 -0.10808 -0.24179 0.17707 -0.34379 -0.4727 -0.13925 0.029509 0.31707 0.2206 0.31327 0.28809 0.37691 -0.56868 -0.63323 0.39867 0.29338 -0.0036195 -0.020135 -0.3505 0.15472 0.075361 0.018863 0.3877 0.46247 -0.13353 -0.03144 0.2057 0.20093 -0.085684 0.085044 0.29022 -0.01273 -0.1213 0.10947 0.039178 -0.34918 -0.15301 0.38194 0.30257
year 0.1866 0.042464 -0.24529 -0.15055 0.016732 0.083416 -0.03613 -0.15171 0.18945 -0.11565 0.18767 -0.13882 0.12344 -0.10948 0.18967 0.048764 -0.011012 0.19073 -0.0021953 0.024471 -0.03656 -0.14712 -0.075339 0.021255 -0.1481 0.04455 0.020432 -0.19749 -0.33852 0.063585 -0.003383 -0.15008 0.392 0.017824 0.019679 -0.14781 -0.1167 0.00358 -0.078153 0.087859 0.10616 0.19793 -0.022886 -0.050792 0.13183 -0.064997 0.25528 0.060984 -0.11474 0.16658 0.042314 -0.22245 0.073352 -0.16499 -0.0077062 -0.063314 -0.18662 -0.047447 0.2133 0.02611 0.016295 0.036255 -0.035417 -0.090694 -0.12265 0.029499 0.1344 -0.018153 0.23045 -0.048141 -0.13473 -0.17916 0.1581 0.094495 -0.095657 -0.053015 0.087537 0.021153 -0.10917 0.078057 0.013369 0.019651 -0.053925 0.003096 0.016168 0.25554 0.059612 0.29442 -0.15754 0.082911 0.17562 -0.11502 0.2376 0.019101 0.18829 0.12494 0.061174 0.040271 -0.32117 0.0043529 0.20666 0.024135 -0.014713 0.3526 -0.0099062 0.40712 0.23252 0.21599 -0.026723 0.08527 -0.083126 0.21587 0.086882 -0.18503 0.14193 0.19293 -0.1034 0.074652 0.044459 -0.070829 -0.30899 -0.04715 -0.042972 -0.047276 -0.15912 -0.040583 0.010389 0.13351 0.031649 0.0099334 -0.034872 0.081174 0.060014 0.16121 0.29221 -0.15883 0.23165 0.031915 0.134 -0.008302 -0.02804 -0.010375 -0.089427 -0.078804 0.16036 0.039075 0.065867 -0.28246 -0.016577 0.2142 0.1789 -0.095672 -0.23296 -0.27576 -0.24188 0.13808 -0.068613 0.11824 0.12207 -0.07878 0.16534 -0.34137 0.24486 4.3151E-4 -0.089897 0.018055 -0.072362 0.0093518 -0.124 -0.050703 0.013573 0.033925 -0.15399 0.18108 -0.27121 -0.1823 -0.021621 0.01282 -0.098619 8.9704E-4 0.29996 0.085072 -0.28074 0.13084 -0.063645 0.16575 -0.13902 0.22808 0.076396 0.032842 -0.031793 -0.11983 0.084586 0.12814 -0.0024413 -0.14743 -0.032333 -0.069244 -0.17475 0.15399 0.075066 -0.24359 -0.10946 -0.25196 -0.023212 -0.12064 -0.090348 -0.034716 -0.058508 -0.09276 0.28199 0.027244 -0.15734 0.067089 -0.053023 -0.0016078 -0.19978 -0.11272 -0.20514 0.2011 0.12508 0.089876 -0.19419 0.30606 -0.13556 -0.081688 0.062159 -0.01103 0.12134 -0.20798 0.021241 0.24006 0.046622 -0.38155 -0.093655 -0.084562 0.10991 0.24361 0.057634 -0.021802 -0.0013314 -0.14133 -0.12659 0.19705 -0.11306 -0.019225 -0.076111 0.1279 0.027377 0.27029 0.49067 0.0013717 0.082546 0.053927 0.16586 -0.0096846 -0.02099 -0.10934 0.020896 0.038425 -0.062567 0.094318 0.21433 0.091492 0.25284 0.19178 -0.19779 -0.14237 0.23642 -0.0055199 0.38674 0.0019264 0.17655 -0.032769 0.0982 -0.048592 -0.12 0.019322 0.14138 -0.18728 -0.0065078 0.060714 0.29001 -0.062712 0.027126 -0.0097206 0.089339 0.052304 -0.10624 0.077959 -0.15619 0.043666 -0.08602 -0.32461 0.02134 -0.029397 -0.064435 0.13172 0.11432 -0.085615
psychiatry 0.32918 0.22191 -0.2463 -0.19705 -0.16054 0.1376 0.39788 0.41274 -0.27682 -0.054827 0.081899 0.034403 -0.1948 -0.54603 0.21604 -0.21814 0.18712 0.088173 -0.18303 0.059764 0.19309 0.12366 -0.33958 -0.054668 -0.45507 -0.18137 0.48492 -0.10568 -0.31742 -0.70537 -0.59737 -0.070299 0.49745 0.083668 0.32469 0.07827 -0.15832 0.011276 0.3426 -0.13283 0.43135 0.097792 -0.088527 -0.53601 -0.093506 0.24782 -0.20618 0.21268 -0.31152 0.18146 0.028077 -0.33837 -0.24702 0.31843 0.17484 0.0083152 -0.44009 0.53847 -0.35503 0.10843 -0.26899 0.020802 -0.37762 -0.23615 -0.31766 0.10382 0.14524 0.0038259 -0.1066 -0.037996 0.62457 0.32974 0.23674 0.10108 -0.15518 0.15383 -0.018415 0.57553 -0.36701 0.48999 -0.16636 0.50264 0.32041 0.336 0.19962 -0.12934 0.015764 0.11553 0.22416 -0.23002 0.066868 -0.34443 0.052969 0.39022 0.06623 -0.039309 -0.27047 -0.24364 0.026361 0.093902 0.35521 0.22781 0.17389 0.23275 -0.35222 0.10272 0.57863 -0.32803 0.432 0.059411 -0.14117 0.28235 0.085233 -0.28466 -0.020698 0.41803 0.57098 -0.16334 -0.05454 -0.012287 -0.15406 0.29728 0.023911 -0.1455 -0.090367 0.1788 0.25191 -0.068006 0.14289 0.11729 -0.071192 -0.10305 0.029452 -0.079537 -0.17048 0.27715 -0.36957 0.11609 0.20755 0.05277 0.1846 0.0044284 0.3101 -0.21715 -0.25822 0.14606 -0.009693 -0.047496 -0.26369 -0.35778 -0.23235 -0.34484 -0.097911 0.078318 0.57351 0.17369 -0.41196 0.3149 0.096184 0.1914 0.16367 -0.0092301 -0.35188 -0.27031 0.048577 0.15233 -0.32015 -0.16222 0.34396 -0.082985 -0.16918 0.015172 -0.72811 0.40343 -0.84503 -0.017731 -0.1227 0.20509 0.11121 -0.24295 0.18798 -0.10799 0.69668 0.047087 0.36046 -0.095674 0.089362 -0.090405 -0.045384 0.015593 0.27825 0.033487 0.20013 0.076252 -0.28133 -0.38251 0.07284 -0.41574 0.066096 0.075402 0.22889 0.21867 -0.028194 0.11679 0.19296 0.13534 0.03661 0.33971 0.059919 0.29555 0.34621 -0.32827 0.2133 0.12246 0.21253 0.033511 0.16118 -0.26058 0.087254 -0.25572 0.24961 -0.45715 -0.074912 0.36236 0.23134 0.24038 -0.13563 -0.063569 -0.36701 -0.26174 -0.070343 -0.2405 0.010675 0.24683 -0.0049113 0.54602 0.054537 -0.0014062 -0.8184 0.23276 -0.15999 0.12227 0.24904 -0.016894 0.14132 -0.39597 -0.62526 -0.053613 -0.51453 0.096872 0.18972 -0.054262 -0.23301 0.084296 0.37923 0.47218 0.269 0.037904 -0.011942 0.19428 -0.2039 -0.33985 0.075077 0.55585 0.34539 0.012658 -0.16485 0.16431 0.37718 -0.50709 0.14264 0.21498 0.15004 -0.14986 -0.20074 0.10151 -0.014586 -0.093258 0.10677 -0.12254 -0.082822 -0.10479 0.34019 1.009 0.1813 0.14067 0.15382 0.32093 -0.11557 0.1116 0.12437 -0.25924 -0.2997 0.012074 0.26498 -0.28463 0.22085 0.073856 -0.039331 0.1212
asylum 0.02807 -0.052637 -0.3047 -0.18843 -0.13888 0.20973 -0.20466 -0.47646 -0.27237 0.30887 0.13303 -0.35066 0.28189 0.0087079 0.36718 0.18498 0.1327 0.066295 0.26848 -0.086773 -0.08403 -0.1161 -0.20594 0.019433 -0.0045559 -0.48684 0.55884 -0.01141 -0.28354 -0.27933 -0.49042 0.15844 0.29151 0.55666 -0.05969 0.4396 -0.084939 -0.087074 0.241 0.35333 0.078149 -0.093228 -0.035069 -0.17719 0.11641 0.030743 -0.082333 0.19291 -0.33089 -0.27034 0.169 -0.15519 -0.55748 0.30061 -0.25082 -0.45352 0.10084 0.44984 -0.022805 -0.2732 -0.14971 0.15889 0.3253 -0.070762 -0.045277 -0.28857 0.72399 0.001563 0.047794 0.254 0.15629 -0.044507 -0.082311 -0.18574 0.047277 -0.17994 0.18017 0.45519 0.098645 -0.055926 -0.3966 0.012746 0.49879 -0.17523 0.17505 0.14272 0.15068 0.38815 0.081224 0.067835 -0.11913 -0.05626 -0.084553 -0.069737 -0.19389 -0.10659 0.25465 0.031857 0.27123 0.23223 0.27496 -0.21636 -0.09025 0.50107 0.34689 0.25639 -0.2785 0.070952 0.035172 -0.56355 0.0068949 -0.11612 0.21854 0.066177 0.061875 0.51797 -0.24047 -0.34669 0.5574 -0.24232 0.018314 -0.10254 -0.3755 -0.020139 -0.14956 -0.16694 0.40248 0.16602 -0.3137 0.07116 0.15945 -0.37916 -0.091373 -0.2095 0.14764 0.0079554 0.077774 0.55934 -0.2066 0.14794 -0.3678 -0.043099 -0.035481 0.10115 0.025712 0.017871 0.12965 0.36375 0.18386 -0.14807 -0.30766 -0.14788 0.35092 0.457 -0.52633 0.38484 -0.27157 -0.14993 -0.059423 0.28041 0.26175 -0.036712 -0.02762 -0.082792 0.37504 0.20401 -0.19019 0.10734 0.033615 0.17051 -0.60329 0.35159 0.15862 0.050396 -0.5652 0.11173 0.57082 -0.1937 -0.35271 -0.20508 0.3297 0.37439 0.25967 -0.22647 -0.2177 0.16544 0.026941 0.095455 0.39653 -0.20339 -0.092956 -0.069835 0.1156 0.29354 -0.14134 0.1046 0.062172 0.26148 -0.36646 -0.41989 0.51143 -0.46336 0.1749 -0.24626 0.31748 -0.0030726 -0.14389 -6.7685E-4 -0.30915 0.58972 -0.12282 0.28292 -0.076038 -0.023459 0.47955 0.029461 -0.30436 -0.47949 0.14776 -0.73038 0.27536 0.015121 0.10346 0.24135 0.019659 -0.28399 -0.3001 -0.58056 -0.24648 0.21349 -0.4016 0.070925 0.42698 0.29922 -0.2861 0.066978 0.31571 0.33888 -0.34655 -0.26941 0.087666 0.055622 0.19137 0.1601 -0.17645 0.013861 0.18292 -0.0020347 0.1746 0.037945 0.71966 0.35817 0.29117 0.14426 0.34995 0.05753 0.22876 -0.31496 0.43478 0.026654 0.2803 0.091915 -0.013348 0.017668 0.1898 0.24907 -0.073354 -0.49651 -0.26568 -0.18654 -0.32981 0.23138 -0.071585 0.25622 -0.64419 0.24414 0.23491 -0.39938 -0.11335 -0.27574 -0.37336 -0.0075912 0.17583 0.28761 0.070428 0.0215 0.49249 -0.33477 0.23513 0.29228 0.23663 -0.52106 -0.0090823 -0.26565 0.30169 0.0089539 -0.033812 0.42801 0.055855 -0.053654
manslaughter 0.40432 0.5394 -0.25985 -0.15121 -0.057502 0.44704 -0.17223 0.10175 0.20822 -0.51714 -0.34784 -0.056248 0.20641 -0.13796 0.24975 0.020057 -0.03511 0.55158 0.055889 0.48675 -0.12916 0.16293 -0.33837 0.20027 -0.077727 -0.48058 -0.17993 0.27402 -0.22842 -0.38479 0.10374 -0.096877 0.13427 -0.035895 -0.03747 0.23447 -0.57955 0.14832 -0.30807 -0.093526 0.26059 0.032273 0.20721 -0.35386 -0.42602 0.052055 -0.01988 0.38957 -0.24604 -0.1262 -0.13325 -0.57608 -0.20712 -0.16264 -0.37195 0.01389 0.039691 -0.10312 -0.21863 0.4945 -0.051721 0.055647 0.037755 -0.039356 -0.3092 0.15226 0.50197 0.27579 0.1034 -0.10896 0.57287 0.48658 -0.3281 0.21675 0.042548 0.07478 0.24125 0.43546 -0.12239 0.18615 0.12698 -0.31305 0.0068409 0.40213 0.29007 -0.018659 0.11165 0.26114 0.34699 0.24259 0.057013 -0.53271 0.16569 0.13909 -0.1634 -0.22334 -0.17345 0.12368 -0.11021 0.23585 0.2733 -0.082547 0.15453 0.14822 -0.2308 -0.0065875 0.19503 -0.050691 0.3298 0.11312 0.4649 0.17136 0.47839 -0.068771 -0.1253 0.48604 -0.20429 -0.28891 0.36105 0.30115 -0.12298 -0.13276 0.4455 -0.086766 -0.48805 0.020443 0.15118 -0.14829 0.24355 -0.23414 0.24842 -0.54794 0.40344 -0.017816 -0.073249 0.46868 -0.4148 0.017693 0.067585 0.0044399 0.029082 -0.13618 -0.35707 0.075757 -0.53043 0.26736 0.43233 -0.1505 0.31795 -0.22646 0.015325 -0.19253 0.20074 -0.10225 -0.20444 -0.19438 0.15871 0.089898 -0.23156 0.26252 -0.035324 0.0090725 0.34298 -0.177 0.24355 0.22142 -0.32488 -0.10857 -0.13394 0.12343 0.04293 0.28884 -0.5013 0.0046755 -0.47473 0.15092 0.19967 -0.17815 -0.026635 -0.4342 0.036244 0.19485 0.13532 0.25498 0.59981 0.1552 -0.052922 0.082218 0.14705 0.026586 0.26009 -0.2842 -0.39606 0.19378 -0.064401 0.21169 -0.35927 -0.02505 0.19967 0.41341 0.43558 0.049502 0.054757 -0.37263 0.18223 0.2592 0.04167 -0.28255 0.064957 0.38576 -0.34467 0.10459 0.34502 -0.13235 -0.23653 0.25523 0.33112 -0.1549 -0.036479 0.26299 0.066497 -0.077766 0.12633 0.006602 -0.18485 0.3726 0.39715 -0.4758 -0.26163 -0.18508 -0.19684 -0.48938 0.065016 -0.049213 0.31732 0.12788 -0.12402 -0.01901 -0.057831 0.24817 -0.27725 0.12708 -0.43308 0.24191 -0.01084 -0.19873 -0.71407 0.13542 -0.64343 0.11842 0.36539 -0.14041 0.23312 -0.10371 0.18891 0.012916 0.1787 -0.26604 0.050744 0.22919 0.3641 -0.37201 0.19402 -0.16379 -0.30442 0.095866 0.17785 -0.032768 -0.017526 -0.37024 -0.343 0.04048 0.49167 0.024379 0.14995 0.6086 -0.49573 -0.3079 0.30052 -0.085975 -0.47041 -0.19425 0.15301 0.48725 0.18885 -0.16194 -0.21977 -0.17326 -0.25313 0.34991 0.0068903 -0.13264 -0.079675 0.48782 -0.39379 0.14224 0.27093 0.027391 -0.038387 -0.36166
music 0.2134 -0.19365 0.11909 0.040891 0.21853 0.128 -0.12768 -0.032831 -0.13503 -0.017307 0.23697 -0.34874 -0.0062278 -0.14134 0.13077 0.21227 -0.06612 0.32771 0.066456 0.21353 0.31771 -0.036645 -0.19495 0.076916 0.16294 -0.16667 0.010041 0.26864 0.0064824 0.14861 -0.53634 0.11566 0.22903 0.13323 -0.11846 -0.30295 -0.29926 0.055745 0.17964 -0.22622 -0.15513 -0.33772 -0.20479 -0.011956 0.075323 -0.30778 0.43461 0.19314 0.077921 -0.1286 0.25523 -0.33973 -0.31524 0.39997 0.10155 0.11222 0.090938 0.0013241 -0.18088 -0.060957 -0.37279 -0.14061 -0.20984 0.14497 0.18327 -0.017037 -0.0079508 0.19176 0.054181 0.29755 0.30629 -0.031982 -0.095101 0.066108 -0.22969 0.058516 0.15542 0.051148 -0.053464 0.4244 0.073584 0.19486 0.21456 -0.019193 0.38952 0.13979 0.034832 -0.087358 0.26073 -0.087254 -0.043899 0.14379 0.41664 -0.032162 -0.027915 0.11533 -0.19459 -0.16562 0.056809 0.17848 0.46478 0.013184 -0.19992 0.25147 -0.13807 0.27034 -0.13271 -0.28879 -0.57677 0.020708 0.2054 0.50578 -0.052987 -0.17352 -0.24072 0.36737 -0.085244 0.22082 0.19642 -0.15145 0.026956 0.12479 -0.19658 0.18654 -0.027519 0.19758 0.19247 -0.012277 0.052804 0.15959 0.16817 0.15428 -0.12071 -0.51578 0.38666 -0.0026465 -0.12593 0.25527 -0.11578 -0.12244 0.074067 -0.23466 0.074009 0.1203 -0.0057362 0.10317 0.045272 -0.22331 0.14412 -0.097787 -0.090297 0.34199 -0.046281 0.16306 0.11995 0.022172 -0.052012 -0.070057 0.015582 0.14155 -0.060636 0.21113 -0.055365 -0.18913 -0.078698 0.042288 -0.14691 0.099936 0.012311 0.24675 -0.20638 0.16128 -0.4927 0.16166 -0.48801 -7.9928E-4 -0.17446 0.1191 -0.1285 0.17863 0.17006 0.036633 -0.1237 0.28627 -0.33274 -0.058342 0.24595 -0.082881 0.26443 -0.075617 0.1965 -0.07572 -0.29347 -0.14206 -0.12868 -0.13047 9.4213E-4 -0.17781 0.49387 0.2477 0.052549 -0.076504 -0.04751 -0.23412 0.28483 -0.26448 0.024528 -0.11615 -0.16763 -0.091866 0.47354 -0.034258 -0.17962 -0.17334 -0.3688 0.20481 0.06188 -0.34269 0.13212 -0.07287 0.12839 -0.6376 0.10432 0.18513 0.026377 0.070302 0.10187 0.15917 -0.22171 0.14005 0.13085 0.22959 -0.26003 -0.303 0.028379 0.10199 -0.24204 0.078199 0.16907 -0.016533 -0.55287 -0.44351 0.052576 0.05352 0.083745 -0.11686 0.060868 0.68487 -0.23921 0.26343 0.096693 -0.0022733 0.0011615 0.024735 -0.0095863 0.29368 0.34636 0.26834 0.30367 0.27418 0.12015 0.045783 0.012182 0.1729 -0.21438 -0.10302 0.07206 -0.01541 0.12378 -0.22064 -0.30958 -0.25587 0.19471 0.1457 -0.22201 0.077827 0.31913 0.30958 0.2047 -0.55297 0.0034002 0.23134 -0.32144 0.19056 0.34892 -0.049426 -0.094394 0.083118 0.37474 -0.16528 0.18102 -0.030514 -0.29195 -0.21054 0.044638 -0.19844 0.042974 0.039496 0.36325 -0.22763
record 0.014644 0.19699 0.14295 0.29869 0.19432 -0.0095593 0.043371 -0.22198 0.16527 -0.21367 -0.36333 -0.18574 0.38335 -0.39929 -0.082201 0.14391 -0.25366 0.30234 -0.30942 -0.20057 -0.43355 0.035466 -0.41119 0.13137 0.35077 0.059013 0.021969 0.088296 -0.096101 -0.041194 -0.44306 0.18411 0.37222 0.13671 -0.12344 -0.23478 -0.12615 -0.038919 -0.075171 0.18485 -0.044474 -0.35012 0.24699 0.077369 0.0016286 -0.30873 0.13019 -0.063107 -0.31433 0.058249 -0.20128 -0.18044 0.12633 -0.35981 -0.23092 0.031843 -0.24486 -0.076929 0.13266 0.021688 -0.1257 -0.0097208 -0.014526 -0.22056 0.11127 -0.14723 -0.0010183 0.12535 -0.18527 0.16796 -0.19616 -0.40485 0.052405 0.091547 0.11139 -0.22798 0.19935 -0.10231 0.31667 -0.02088 -0.35711 -0.11406 -0.14414 0.040311 -0.059176 -0.022352 -0.0983 -0.26029 0.17717 0.17962 0.035359 0.042539 0.29612 0.34303 0.19367 0.23853 -0.057968 -0.074919 -0.28822 -0.10991 0.37977 -0.096383 0.1694 0.32863 0.16621 0.42441 0.061006 0.097037 -0.24648 0.17582 0.32076 0.20615 -0.28157 -0.052169 -0.17065 0.1773 0.18641 0.075516 0.21625 0.023315 -0.3879 -0.14515 -0.15733 -0.047126 0.025928 0.16695 0.158 0.20523 0.081394 -0.29768 -0.065235 -0.21011 -0.3123 0.011211 0.053283 -0.084638 0.02674 -0.1437 0.057534 0.16514 0.18099 0.016606 -0.16562 0.11016 -0.48463 0.35769 0.036322 -0.32314 -0.11662 0.078022 -0.13635 0.21207 -0.33585 0.25915 0.12395 0.080731 -0.17675 0.11983 0.18586 -0.057835 -0.22217 -0.30774 0.25464 -0.24362 0.02544 0.12051 -0.22336 0.1323 -0.39776 -0.31567 0.1008 0.09216 -0.05957 0.34282 -0.30657 -0.29062 0.13873 -0.042438 -0.19133 0.1392 0.26553 -0.04808 -0.24456 -0.013962 -0.058388 -0.17188 0.068362 0.078399 -0.062717 -0.30794 -0.023547 0.031248 -0.25928 -0.15647 -0.35401 -0.055903 -0.24843 0.10664 0.073745 0.088053 0.17035 -0.48724 -0.037058 -0.0028899 0.020501 -0.1939 0.11616 0.081122 0.18136 0.13173 -0.072936 0.078783 -0.20346 0.073518 0.034634 -0.0058436 0.23372 -0.3474 -0.10763 0.26104 -0.1802 -0.11354 -0.46038 0.029949 0.044258 -0.022121 0.25272 0.083397 0.10671 -0.21014 0.022462 -0.11867 -0.28812 -0.10545 -0.16543 -0.064101 -0.27598 0.0869 0.010737 -0.21162 -0.13936 0.031409 -0.25786 0.19488 0.075607 -0.205 -0.20227 0.43984 -0.15847 0.10801 0.33224 0.053531 0.12332 0.39836 0.084054 0.17764 -0.074393 0.02741 0.28546 0.1017 -0.13701 0.065312 0.056319 0.048846 0.26505 0.083567 -0.0098003 -0.030404 0.14197 -0.036832 -0.040783 -0.23847 0.038422 0.13218 -0.27668 0.18635 0.043244 -0.064546 0.046725 -0.48086 -0.31804 -0.092085 -0.17447 0.064898 0.31516 0.24074 0.30394 0.1846 -0.21095 0.17918 -0.14453 0.21655 -0.082274 -0.13387 -0.070384 0.035857 0.063229 -0.06601 0.18157 0.13836
energy 0.3863 -0.31967 -0.34958 -0.26109 0.58307 0.25239 -0.019359 -0.41691 0.069849 -0.092969 0.62771 0.078018 -0.056597 -0.16799 -0.15674 0.10888 0.073581 -0.22252 0.074933 0.16766 -0.073471 0.16389 -0.32505 -0.11268 -0.066462 -0.11134 -0.026343 -0.13817 -0.07399 -0.1107 -0.18102 -0.01965 0.38304 -0.52077 -0.24044 -0.31441 -0.014731 -0.27239 0.095682 0.0010345 0.24181 -0.079038 0.073709 0.15975 -0.0074252 0.28107 0.18687 0.19151 0.13412 0.14228 -0.17802 -0.28905 -0.30021 -0.02232 0.012548 0.28648 0.072397 0.15546 0.14032 -0.10117 -0.077279 0.080449 -0.28335 0.15643 0.28743 0.1411 -0.37852 -0.094292 0.011107 -0.21053 0.15359 -0.15409 0.36561 0.38052 -0.2197 -0.1576 0.15623 -0.23064 -0.35209 0.17511 -0.31267 -0.2811 -0.11665 0.08757 -0.44349 -0.20855 0.050388 0.27696 0.35983 0.072961 0.25374 0.19972 0.17285 -0.22081 -0.19672 -0.31988 -0.20555 0.22326 -0.0052121 0.15429 0.41779 -0.0176 -0.48449 0.40956 -0.1108 0.16974 0.10856 0.2448 -0.12751 0.24813 0.41181 -0.15151 -0.31831 0.017764 -0.23451 0.13724 0.32559 0.11707 0.19841 -0.063747 -0.048282 0.37624 0.09836 0.082581 -0.053684 -0.088954 0.30536 0.22327 0.38918 0.37891 0.35267 -0.20818 -0.29422 -0.25701 -0.020207 -0.085534 0.13959 -0.084867 -0.0028313 -0.027746 -0.063194 -0.35994 0.039064 -0.025512 -0.24094 -0.042871 -0.47584 -0.071655 0.013754 -0.17914 -0.26499 -0.12871 0.19445 0.010827 0.14844 -0.23596 -0.39126 0.2179 -0.35566 0.26824 0.012782 0.065473 -0.28775 0.10016 -0.15571 -0.019975 0.099302 0.26414 0.28809 -0.069102 -0.076774 -0.027726 0.231 -0.30504 -0.23497 -0.095756 0.1069 0.26112 -0.20251 -0.11775 -0.082207 0.062424 -0.20226 0.093197 0.1848 -0.25641 -0.051036 0.0084183 0.5342 -0.0039065 0.37734 0.14798 -0.2423 -0.34029 -0.028265 -0.2767 -0.24044 0.20602 0.077633 -0.38628 0.14327 -0.33186 -0.23238 0.31834 0.032142 0.031023 0.1823 0.10241 -0.28288 0.276 0.28401 0.23584 0.23232 0.30905 0.028363 0.25803 -0.34307 0.1684 0.068767 0.011274 0.046963 0.10038 -0.35453 0.14899 0.012885 -0.017148 -0.071215 -0.17251 -0.014072 0.39203 0.051483 -0.093263 0.20664 -0.13237 -0.13546 0.14701 -0.042666 -0.054199 0.035507 -0.013189 0.16073 0.11536 -0.13655 0.1989 0.11821 -0.13982 -0.28451 0.22713 0.15071 0.45935 -0.026153 0.17783 -0.079765 -0.24421 0.25133 -0.14804 -0.038972 0.060964 0.060894 0.10319 0.1901 -0.23119 0.029836 0.056199 0.148 0.07822 0.15864 -0.25437 -0.11745 0.069948 0.1391 0.051921 0.53378 0.020394 -0.027371 0.0065496 0.26033 -0.031651 0.012546 -0.30337 -0.09986 -0.13516 -0.16198 0.24104 0.21107 0.021519 -0.014157 0.38179 -0.18059 0.16628 -0.28034 -0.13766 0.014816 -0.28978 0.36544 -0.22668 -0.13064 0.073652 -0.10758 -0.28508
announcement -0.083367 0.15812 -0.081239 -0.16786 -0.074594 -0.22526 0.095889 -0.23136 0.06378 -0.23393 0.29059 -0.19056 -0.048283 -0.051517 -0.038168 0.25078 0.27455 -0.047043 -0.17003 0.23929 -0.21552 -0.023178 -0.14798 0.025537 0.085772 0.19738 0.06873 -0.13655 -0.34405 0.36396 -0.087345 0.19141 0.20986 0.18822 0.25017 -0.33782 0.030017 0.194 0.054754 -0.032778 0.26874 0.053299 -0.056795 -0.11035 0.13408 0.51871 0.47212 0.2849 0.022998 -0.086942 -0.17712 -0.43778 -0.079785 0.16732 -0.11974 0.037475 -0.11391 -0.1203 -0.24875 0.071597 0.38018 -0.056484 -0.21109 -0.07446 -0.10275 -0.13867 0.054023 0.38874 -0.10881 -0.24316 0.29995 -0.066886 0.41158 0.21652 -0.087585 -0.038683 0.15128 -0.069503 -0.15602 0.32753 -0.076781 -0.063093 -0.26677 0.13778 -0.13444 0.25751 -0.20462 -0.070681 -3.4266E-4 -0.060632 -0.21357 -0.040826 -0.062685 0.1886 0.17945 0.056743 -0.20053 0.13238 -0.20579 -0.067236 0.39619 0.024994 -0.2056 0.27333 0.39774 0.19268 -0.15731 0.13442 0.19651 0.15397 0.0017182 0.1901 0.25984 -0.022385 -0.0055531 -0.095438 -0.069408 -0.069228 0.12735 -0.21414 -0.16264 0.34099 -0.03554 -0.084069 0.053681 -0.15168 0.45138 0.23525 0.16748 -0.063398 0.11151 -0.25331 0.21385 -0.11369 -0.20003 -0.035644 0.13094 -0.19731 -0.027027 0.1204 0.20753 0.34566 -0.24878 -0.3946 0.096185 -0.1653 0.18885 -0.2557 -0.12512 0.1626 0.21165 0.15041 -0.077913 -0.10873 -0.23864 0.063927 0.018949 -0.17295 -0.1033 0.14991 -0.019309 0.032523 0.10821 -0.084648 -0.14455 0.17952 -0.14837 0.17769 -0.19802 0.30797 0.052058 0.20505 0.27287 0.03436 -0.27435 -0.098571 0.15243 0.085643 -0.28941 0.065249 0.10789 0.069525 0.024821 0.12828 0.091439 0.089623 -0.034932 -0.032069 0.060316 0.38352 -0.14918 0.021716 -0.11031 -0.0090773 -0.19059 -0.11227 -0.37789 0.42216 0.070509 -0.037851 0.35094 -0.0050696 -0.13654 -0.25721 0.40978 0.048533 -0.23559 0.31296 0.16728 -0.13373 0.17089 -0.0091869 -0.13309 -0.047401 0.016721 0.052164 -0.14312 -0.03988 0.07222 0.031461 0.018485 -0.055953 -0.16714 0.15368 -0.021589 -0.040173 0.13776 -0.053443 -0.012026 -0.20009 0.21453 0.18105 0.048587 -0.35888 -0.13769 -0.073103 0.15241 0.11695 -0.15402 -0.09477 0.26053 -0.26543 -0.13255 -0.17137 -0.12439 0.072435 -0.16117 0.28705 -0.18887 -0.024818 -0.080804 -0.1503 0.10993 -0.1243 0.34748 -0.13603 -0.22292 0.21974 -0.0053829 -0.1535 -0.27336 0.012479 0.02983 -0.08884 -0.064116 -0.2433 -0.43354 0.12154 -0.16694 0.042299 -0.0060951 0.018252 -0.038886 0.26169 -0.079909 0.023711 0.11916 0.19664 -0.12721 -0.15375 0.18059 -0.18978 0.45109 -0.11597 0.13141 -0.1201 0.087143 -0.12101 -0.070899 -0.033931 -0.28543 -0.18052 -0.17319 -0.094424 0.044188 0.56501 -0.058377 -0.12744 -0.10121 0.15912
mile 0.036912 -0.2474 -0.45004 0.24565 0.37993 -0.21322 0.11356 -0.50871 0.38595 -0.35017 0.064582 0.17736 0.02549 -0.015323 -0.022319 -0.1527 0.3277 -0.21742 0.14444 0.038795 0.021186 -0.33561 -0.015732 0.23402 -0.141 -0.23019 -0.38188 -0.092712 -0.34781 0.020652 -0.21975 -0.008562 6.3824E-4 -0.14288 0.088235 -0.088042 -0.1353 0.059392 0.23247 -0.10473 0.4287 -0.035012 -0.11195 -0.20511 0.21444 0.2181 0.32321 0.23511 -0.10648 -0.23987 0.025412 -0.12574 -0.11239 -0.052332 0.1384 -0.31177 -0.16295 0.10041 -0.11447 0.21821 0.11131 0.052941 -0.12335 -0.029574 -0.10406 -0.04956 -0.042919 0.068249 -0.0040681 0.16947 -0.15326 0.28094 -0.011439 -0.094709 -0.087022 -0.20656 0.59441 0.056547 0.52725 -0.11699 0.24989 -0.23679 0.16594 0.21364 0.18296 -0.066293 0.11542 0.12628 -0.37466 -0.055338 0.11599 0.056449 0.35618 -0.38422 0.30253 0.081039 0.093038 -0.069008 -0.36587 0.13138 0.3889 0.042339 -0.3312 0.1642 0.031935 0.29693 -0.088629 -0.12491 -0.16251 -0.10983 -0.069435 0.061265 -0.40465 0.26056 0.67554 0.18603 -0.098562 -0.25027 -0.10467 -0.032459 -0.16117 -0.075612 -0.26823 -0.16031 -0.011249 -0.18149 0.52998 0.0093438 0.29601 -0.17593 0.14771 -0.19452 0.1818 0.48035 -0.020102 0.15167 -0.3136 -0.069552 0.042295 0.13251 0.064976 -0.22358 0.10348 0.061636 -0.21563 -0.34063 -0.18688 0.36816 0.18268 0.29 0.042685 -0.28936 0.033672 -0.11886 0.10515 0.01556 0.13669 0.072468 -0.16416 -0.03866 0.29 -0.13723 -0.13341 0.10572 -0.027213 -0.29069 -0.16928 0.2369 -0.57476 -0.094625 0.14787 -0.35521 -0.65577 0.29829 -0.014961 -0.28239 0.029099 0.18175 -0.21053 0.14229 0.13738 0.035139 -0.085802 0.20503 0.27077 -0.31525 -0.10208 0.22864 -0.018517 -0.12327 0.14628 -0.15936 -0.36006 0.20609 -0.33837 0.52259 -0.28349 0.047467 0.085538 0.055453 0.31451 0.074032 0.25595 -0.19721 0.13415 0.22755 -0.15053 -0.17732 0.16803 -0.20335 -0.17479 0.041557 0.22549 0.072388 -0.0013142 -0.20142 -0.20811 0.34586 -0.2298 0.62708 0.16754 0.32639 0.056832 0.36392 0.43051 0.3142 0.13826 -0.12382 0.55246 1.3344E-4 0.038833 -0.033484 0.28652 -0.26044 0.031974 -0.10436 0.25711 0.20697 0.065241 0.0075424 0.0022061 -0.36964 -0.29537 0.47431 0.21715 -0.10212 -0.36022 0.2381 -0.19412 0.050184 0.56234 -0.075584 -0.19388 0.21264 -0.023275 -0.038511 -0.1067 0.057819 0.2354 0.11525 0.64987 0.084985 -0.33621 -0.16078 0.13199 -0.32675 -0.018127 -0.13515 -0.11985 -0.086567 0.39154 0.12992 0.17823 0.43871 -0.235 0.13882 -0.21494 0.062364 0.28851 -0.20201 0.28879 -0.11854 0.12988 -0.068967 0.82463 0.086753 0.1755 0.19733 0.0099456 0.3752 -0.049291 0.058682 -0.018687 0.23897 0.38215 -0.46869 -0.31067 0.090506 -0.23862 0.10277
airport -0.20227 -0.19001 -0.23307 0.13736 0.45305 -0.0033195 0.070461 -0.26365 -0.10502 -0.51376 0.17631 0.068526 -0.0030549 0.019033 0.16698 -0.061636 0.47466 0.042565 0.032609 0.02982 0.26989 -0.067541 -0.24792 0.13141 -0.37691 -0.422 -0.080584 -0.2195 -0.096423 0.24137 -0.10081 0.067126 0.091828 0.20459 0.10727 0.26165 -0.12396 0.13216 0.011608 0.40955 -0.24032 -0.27993 -0.22351 0.28374 0.097557 0.073758 0.41089 0.2294 0.19052 -0.42044 -0.47398 -0.42805 -0.44685 0.098359 0.25206 0.12865 0.16237 0.014788 -0.072628 -0.25616 0.066812 -0.17632 -0.099816 0.022546 0.080213 -0.12598 0.32582 -0.12416 0.28107 -0.1432 -0.13737 0.1549 0.15964 0.39251 -0.28565 0.2406 0.19152 0.21132 0.40248 -0.11104 -0.2859 -0.075394 0.15474 0.16717 0.19585 0.10676 0.036758 0.015828 0.061835 -0.3685 -0.097135 0.2146 0.27936 -0.22523 0.058542 -0.033454 -0.045428 -0.11974 0.017034 0.072093 -0.1672 0.10154 -0.33463 0.39509 0.12701 0.28239 -0.12857 -0.26704 0.020145 0.054611 0.23575 0.038689 0.43532 0.10855 0.089127 0.081129 0.28049 0.022308 0.015352 0.19068 -0.1063 0.25765 -0.13319 -0.070723 -0.18982 -0.030863 0.35807 0.01422 0.073958 -0.24538 0.14236 -0.24225 -0.14582 0.38974 -0.10842 0.035506 0.33028 -0.55283 0.29826 0.13235 0.07318 -0.069707 -0.095656 0.062776 -0.19209 0.044331 -0.29784 0.32969 -0.24028 -0.26824 -0.29864 -0.1852 -0.09359 0.18164 -0.11835 0.11692 -0.20569 0.20829 0.02519 0.088918 0.10231 0.33119 0.10581 -0.37494 -0.032215 -0.19849 -0.29211 0.085152 0.01465 0.22565 -0.08647 0.013598 -0.16962 -0.24951 -0.15883 0.044283 0.45662 -0.34137 -0.020136 -0.11614 0.018741 0.36176 0.01684 0.0079784 -0.11455 0.4861 0.34876 0.25908 -0.097133 0.014472 0.026005 -0.1735 -0.69326 0.3109 -0.58 -0.28155 -0.31255 -0.56638 -0.24498 -0.16073 -0.088196 0.03892 0.11222 -0.40347 0.12776 0.19979 -0.10407 -0.42351 0.063065 -0.075369 -0.14578 0.17304 0.39458 -0.065558 0.1599 0.28224 -0.13538 0.17078 0.055724 -0.22927 0.18645 0.093034 0.032798 0.43396 -0.055212 -0.12694 0.59054 -0.12842 -0.087264 0.0026928 -0.62561 0.08048 -0.027378 0.21726 -0.17228 0.1412 0.31521 0.15907 -0.0056238 0.027485 0.11211 -0.43552 -0.1966 0.19329 0.35947 -0.10736 0.19333 -0.19893 -0.12494 0.4141 0.18724 0.23094 0.28345 -0.20848 0.1035 -0.038623 0.19006 0.044317 0.31756 0.055869 0.23908 -0.094252 0.16478 -0.23906 0.2449 -0.10325 -0.21842 0.27574 -0.073306 -0.32356 -0.14452 0.30957 0.25079 0.017576 -0.15383 0.20068 0.04569 -0.26085 0.085629 -0.20153 0.13686 0.27413 -0.13369 -0.35367 0.2063 0.02698 0.29485 -0.54317 -0.23986 0.036018 0.16913 -0.18529 0.004682 0.02197 0.27963 0.17643 -0.31275 0.092372 -0.11425 0.19736
population -0.090973 -0.25965 -0.19831 -0.074749 -0.016074 -0.087323 -0.20874 -0.34354 0.33135 -0.26528 0.12876 -0.04672 -0.016247 -0.16489 0.081172 0.37721 0.1123 0.081404 0.22358 0.36783 0.16854 -0.1699 0.1285 0.057931 -0.2762 0.0064398 0.38354 -0.029333 -0.10071 0.0032906 -0.074993 0.043683 0.28441 0.18617 0.031529 -0.093889 -0.12911 -0.45666 0.10871 0.038783 -0.17364 -0.24567 -0.039079 -0.21344 -0.0088467 0.16492 0.62385 -0.052956 -0.23643 -0.1101 -0.24213 -0.0040078 -0.43429 0.023568 -0.098959 0.21561 -0.025669 0.035971 -0.26115 0.039976 -0.1896 0.0045276 -0.015158 -0.071229 -0.080291 -0.11407 0.21258 -0.062795 -0.18481 -0.18195 -0.13526 0.27372 0.60915 -0.17101 0.13066 -0.031514 0.33312 0.036205 0.28077 0.13056 -0.097224 0.14799 0.14512 -0.4691 0.079726 0.14162 -0.0093104 0.19624 -0.026 -0.040673 -0.0046093 -0.17345 0.36914 0.12397 0.05372 0.22033 -0.091592 -0.20634 -0.24402 0.42381 -0.017864 0.13647 -0.21301 0.26319 0.038189 0.064248 0.075466 -0.038199 0.025991 -0.062998 -0.33759 -0.31126 0.25506 -0.26688 0.23955 0.37037 0.31046 0.083753 0.078929 -0.31876 -0.08887 -0.45011 -0.27758 -0.25145 -0.19033 0.12961 0.11734 0.092086 0.35895 -0.072788 0.10347 -0.31686 0.34309 0.063487 0.17916 -0.066636 -0.15358 0.065862 -0.18912 -5.7458E-4 0.16719 0.039594 0.095075 -0.062382 0.0074495 0.085288 -0.05066 0.22136 -0.029711 1.024E-4 0.095555 0.12826 0.40065 0.094861 -0.12709 0.052422 0.0074068 -0.14072 -0.30688 0.20727 0.15793 -0.079881 -0.061787 0.22089 -0.2273 0.11166 -0.063299 -0.14994 0.15689 -0.55575 0.068736 -0.18521 -0.43489 0.64767 -0.036481 -0.14367 0.21777 -0.020141 -0.088492 -0.020059 0.52461 -0.15936 0.065839 0.22591 -0.10768 -0.1138 0.085018 0.049936 0.031639 0.16243 0.10601 -0.10298 0.20407 -0.064863 -0.1566 0.24502 -0.24743 -0.34697 -0.17626 -0.5761 0.10258 -0.34621 0.043244 -0.31632 -0.10141 -0.055722 0.095851 0.0067826 -0.14283 0.14462 0.056984 0.12624 0.31605 0.29726 -0.12069 -0.086041 -0.15511 -0.065143 0.25559 0.12737 0.05664 0.21841 0.12155 -0.078698 0.1764 -0.13215 -0.28742 -0.43153 -0.13841 -0.20823 -0.023504 0.17324 0.40663 0.094259 0.042074 -0.10254 0.20653 -0.096382 -0.17144 0.25204 -0.041391 -0.051872 -0.069934 0.27801 -0.22409 -0.11094 -0.048421 0.063439 0.052198 0.33228 0.032116 0.11585 0.16912 0.12918 0.32243 -0.22812 -0.088069 -0.24006 0.19904 -0.032236 0.14281 0.34507 0.35555 0.31807 0.22969 0.28318 0.14459 -0.10823 -0.34321 0.17309 0.038611 -0.051287 0.40905 -0.30356 -0.15484 0.10208 0.29505 0.12514 -0.0935 0.025113 -0.094545 0.0072732 0.13989 0.24072 0.3041 -0.031735 0.20185 0.19183 0.15517 -0.0016577 0.12588 0.18683 0.013549 -0.18368 0.20522 -0.23847 -0.058383 0.21277 -0.30988 -0.37582
planning 0.019348 0.23178 -0.059785 -0.26987 -0.10343 0.10538 0.17566 -0.08095 -0.23062 -0.22626 0.24455 -0.047073 -0.089365 -0.20537 0.19834 0.12431 0.27594 0.024099 -0.017377 0.20035 0.019314 0.077275 0.11249 -0.089177 0.16837 0.076094 0.021393 -0.22908 -0.29335 0.1277 -0.045395 0.32916 0.44345 -0.081957 -0.019225 0.031959 0.032499 -0.072545 -0.0018729 0.038756 -0.21306 0.014093 0.037496 0.0061651 0.071428 0.078236 0.10209 0.2012 0.10707 -0.18011 -5.7367E-4 -0.12602 -0.070735 0.12836 0.18966 0.16701 0.10743 9.7903E-4 0.086588 0.30667 -0.18161 0.11383 -0.13641 -0.1103 -0.32685 3.5163E-4 0.064704 -0.30269 -0.24762 -0.16784 0.10062 0.011799 -0.010241 0.066609 -0.029852 -0.075204 0.15696 0.13017 -0.19541 0.036715 -0.092094 -0.38459 0.022926 0.27867 0.35243 0.11454 -0.0061438 0.16801 0.12939 0.10686 0.081444 -0.39309 0.30691 -0.15796 0.04933 -0.12901 -0.093211 0.088931 -0.24511 0.09341 0.17807 -0.058461 -0.041149 0.052176 -0.037957 0.31851 -0.12867 0.1693 0.040134 0.065313 0.14695 -0.11861 -0.19333 -0.14425 -0.10988 0.037948 0.19595 0.048971 0.2473 0.15503 -0.16605 0.12296 0.051269 -0.27707 0.20005 -0.15287 0.3165 -0.10636 -0.23109 -0.055497 0.17433 0.10844 0.26514 -0.057255 0.0090927 -0.071203 -0.18323 -0.33974 -0.099538 0.16795 0.084529 0.02461 0.15399 -0.15059 -0.082187 0.083193 -0.10978 -0.26765 -0.19049 -0.17708 0.023364 -0.042723 -0.19036 -0.2736 -0.26029 0.098329 -0.026608 0.0066853 -0.20457 0.25993 0.095538 0.15839 0.18063 -0.26433 -0.18334 0.24221 0.25274 -0.16051 -0.12939 -0.13464 -0.2331 0.047202 -0.24066 -0.032986 -0.11974 -0.11848 -0.024277 0.18019 -0.24876 -0.15728 0.11178 0.18534 -0.092404 0.13032 0.058331 -0.0268 0.02412 0.027792 -0.026676 0.063657 0.0034404 0.021166 -0.41067 0.080586 0.029819 -0.042104 -0.24478 0.071354 -0.019496 -0.084952 0.27251 -0.14577 0.0066713 -0.23578 0.28136 -0.12793 -0.26054 -0.026956 0.18678 0.23625 0.11987 0.29847 -0.0081927 -0.11503 0.056492 0.11185 -0.22575 -0.10668 -0.029607 -0.24308 -0.013747 -0.20257 -0.28111 0.11605 0.030541 -0.07517 0.067977 0.21521 0.25939 -0.054432 -0.22657 0.17907 0.093518 0.028191 0.23494 0.19751 0.24124 0.21701 0.19605 -0.058999 -0.041645 -0.18557 -0.39336 -0.0066692 0.06955 -0.19767 -0.07105 -0.23332 -0.14761 -0.0087677 0.21521 -0.0251 -0.178 -0.17768 0.56135 0.047924 -0.085968 -0.20182 -0.12908 0.21747 0.12259 0.020382 0.2144 0.060293 0.0040106 -0.032908 -0.089375 0.022622 -0.066592 -0.17043 0.025789 -0.15555 0.048641 0.058119 0.052085 2.2533E-4 0.13375 0.23556 -0.27664 -0.19693 -0.10512 0.031988 0.020876 0.039736 -0.12332 -0.36819 -0.041524 -0.28426 -0.10208 0.35282 0.21662 -0.12859 0.078949 -0.28931 -0.006444 0.10686 -0.15145 0.13331 -0.091077 0.019556
canyon -0.045424 0.23204 0.08844 0.39388 0.56406 0.21449 0.40114 -0.18056 0.7359 -0.076451 -0.092174 0.025604 -0.12024 0.03873 -0.26474 0.23622 0.271 0.18324 0.23752 -0.12053 0.042575 -0.2471 0.046788 0.54543 -0.042223 -0.081987 -0.22313 0.12159 -0.1287 -0.44237 -0.14609 0.26243 -0.14659 -0.094595 0.014123 -0.14829 -0.15691 -0.26866 0.27922 0.24068 0.25369 0.13565 0.0057101 0.26464 -0.036905 -0.20593 -0.20127 -0.035986 -0.11849 -0.10933 -0.30712 -0.22539 -0.26144 -0.0078231 -0.041935 -0.34704 0.044173 -0.29572 0.11068 0.091736 0.39011 -0.27156 -0.059845 -0.46722 0.28653 0.0096099 0.21216 0.087971 -0.14285 0.57706 -0.17211 0.39183 0.16564 0.013924 0.18076 0.2615 0.73143 -0.20969 0.32981 0.086287 0.043792 -0.10801 0.15406 0.10642 0.099681 0.044842 0.053372 0.31393 -0.29909 0.28249 0.26744 -0.11519 3.9569E-4 0.17146 -0.13971 0.33799 -0.11207 -0.041772 0.0062647 0.03463 0.20863 0.14373 -0.28854 0.27992 -0.037576 -0.30821 -0.26283 -0.14744 0.087926 -0.21184 0.14588 0.57504 -0.37364 0.18289 0.50234 0.27637 0.14467 -0.33555 -0.042878 -0.21207 0.26952 -0.28062 -0.064975 -0.4288 -0.6717 0.13311 0.057666 -0.41831 0.15685 -0.45165 0.12373 -0.34667 -0.16977 -0.2691 -0.09816 -0.10986 -0.39429 0.029239 -0.17869 -0.051399 0.18729 0.014509 0.11976 0.26449 -0.13355 -0.1665 0.14109 0.64013 0.015347 0.073701 -0.22545 -0.21766 -0.018721 -0.021514 -0.02579 0.020284 0.042707 0.41123 -0.15437 1.9414E-4 0.060424 0.056348 0.2802 0.38609 -0.21008 -0.64585 -0.013313 0.1832 -0.30616 -0.075466 0.094837 0.20514 -0.65431 0.25825 -0.62924 -0.41347 0.34812 0.012369 -0.16605 -0.086158 -0.073215 0.11969 -0.3189 0.11915 -0.1289 -0.58049 -0.68057 -0.010425 -0.075406 -0.32484 0.11846 -0.2788 -0.35931 -0.37541 -0.548 -0.17069 -0.13648 0.33379 0.15081 -0.095396 -0.090948 0.028699 0.044231 -0.25123 0.25918 -0.012747 -0.31167 -0.16742 0.075782 -0.24529 0.17341 0.055295 0.22735 -0.075504 0.13846 0.31173 -0.23503 0.038959 -0.17941 0.32529 -0.18689 0.0433 0.10944 0.39015 -0.23783 0.044229 0.35418 -0.27524 -0.024731 0.0031711 -0.2688 -0.043132 0.13526 -0.23735 -0.29995 -0.26934 0.027701 -0.0037095 0.094874 0.13675 -0.13446 -0.15904 0.016875 0.04702 0.30764 -0.061469 -0.14853 0.059244 -0.16999 0.15933 0.54904 0.088683 0.21285 -0.12866 0.092574 0.49397 -0.074034 -0.21625 0.1837 0.079302 0.48991 -0.06699 -0.03905 0.12077 0.043496 -0.32251 -0.019843 -0.085342 0.19919 0.12506 0.35251 0.16274 0.016834 0.2876 -0.61325 0.05214 0.082806 0.15102 -0.1672 -0.34142 0.20617 -0.004639 0.023769 -0.047694 -0.042249 0.44694 0.4637 -0.18997 0.30527 0.072222 0.24214 -0.041072 -0.033617 0.22709 0.24287 -0.10239 0.17021 -0.26457 0.14643 -0.02693
delay 0.17641 0.45385 0.2526 -0.11131 0.18218 0.24443 0.10128 -0.24181 0.061023 0.15189 0.35538 -0.22244 0.06154 0.18015 0.33026 0.18574 0.21642 0.28158 0.073465 0.38971 -0.0089216 0.24144 -0.24423 -0.17571 -0.18152 0.30804 -0.11023 -0.33213 -0.25547 0.2043 -0.22157 -0.18928 0.43658 0.020451 0.26877 -0.06083 0.052954 -0.13485 -0.056612 0.55809 0.19014 0.12574 -0.27195 -0.066225 0.0083323 0.30896 0.34482 0.26102 -0.098889 -0.20809 -0.11083 -0.032245 -0.079377 -0.087619 0.1094 0.088159 0.0065942 -0.049634 -0.20642 -0.026982 0.33761 0.071953 -0.10556 0.10931 0.052835 -0.32464 0.063667 0.24281 -0.026483 -0.099118 0.055701 0.010855 0.11023 0.20922 0.28819 0.027674 0.38391 0.21642 0.22965 -5.4208E-4 -0.24854 -0.24336 -0.10389 0.15975 -0.16571 0.24927 0.27695 0.29 -0.041824 -0.098394 -0.051863 0.019814 -0.016367 -0.062488 0.17913 -0.14885 -0.318 -0.088372 -0.1773 0.035555 0.081696 0.20903 0.062265 0.39022 0.17851 0.47527 -0.20792 0.021951 0.096152 0.0061981 0.10874 0.20487 -0.13258 -0.037355 -0.19346 0.093176 0.34584 0.030963 0.34113 0.049633 0.054313 0.16271 0.15572 0.073568 0.22981 0.23362 0.42106 0.052122 0.016543 -0.39365 0.13183 0.041943 0.017882 0.17113 -0.29015 -0.13426 0.23167 0.052746 -0.29608 -0.17882 0.048416 0.15058 -0.21483 -0.36693 0.2613 0.18624 -0.10533 -0.39177 -0.036974 0.055091 0.21204 -0.12168 0.16351 -0.035908 -0.22311 0.12895 0.18169 0.071984 -0.31505 -0.33347 -0.21295 -0.1357 -0.064295 -0.38701 0.12389 0.22435 0.15346 -0.4041 -0.17134 0.22501 0.15104 0.19773 -0.20511 0.12579 -0.13538 -0.0343 0.20929 -0.22014 -0.14955 -0.083325 -0.0084747 -0.23393 0.34136 0.075968 0.051977 0.19576 0.089473 -0.36935 0.19787 0.088482 0.23203 -0.30531 -0.03544 -0.32607 -0.015796 0.20953 -0.42223 0.28234 0.07441 0.13104 0.069549 0.04213 0.11331 -0.33516 -0.013558 0.16447 -0.37168 0.0038848 0.48219 0.24138 -0.34545 0.066039 0.026651 -0.30661 0.12086 0.22376 -0.22732 -0.054475 -0.09299 -0.34747 -0.050602 -0.069895 0.23125 -0.13152 0.26868 -0.15996 0.016296 0.093997 -0.10118 -0.13755 -0.23293 0.091542 0.10088 0.21317 0.13323 0.45142 -0.24522 0.075225 0.056233 -0.13226 0.35968 -0.07494 -0.16823 0.084685 -0.13991 -0.33959 -0.29851 -0.1881 -0.2513 0.072492 -0.14464 0.013143 -0.059754 -0.31025 0.39616 -0.066825 0.094087 -0.29684 -0.13037 -0.048333 -0.28105 -0.068372 -0.06583 -0.19363 -0.24645 0.0097178 -0.016249 -0.074711 -0.030364 0.10111 0.21377 -0.25752 0.23194 -0.10643 0.017934 0.10679 -0.095751 -0.11337 -0.098305 -0.3152 -0.14727 -0.11064 0.19014 0.36558 0.073244 0.18231 -0.036233 -0.085678 -0.017599 0.2854 -0.16768 -0.28891 -0.048829 -0.13378 0.13141 0.33306 -0.042074 -0.019727 0.13656 0.070757
size 0.078453 -0.29955 -0.055421 -0.20737 0.010689 0.18187 0.32731 -0.34445 0.40884 -0.28234 0.24793 0.29768 -0.090866 -0.15608 0.095124 0.18498 -0.089747 -0.049927 0.35672 -0.15333 0.078089 0.25762 -0.35552 -0.21929 -0.092918 0.089667 -0.2717 -0.24157 0.22106 -0.082467 -0.10975 0.07859 0.19189 -0.047069 0.024282 -0.023008 0.13963 -0.29729 0.20848 0.07441 -0.093711 0.10219 0.1728 -0.37496 0.19637 -0.048428 0.3876 -0.20083 -0.044707 -0.044005 -0.10141 -0.38095 -0.089596 -0.11652 -0.24679 0.10438 -0.30553 -0.26888 -0.24827 0.18234 0.065731 -0.065163 0.13776 -0.025561 0.33552 -0.37055 0.094591 0.012313 0.030177 0.14277 -0.076471 -0.19333 0.28303 0.1157 0.083524 -0.30897 0.012094 -0.32286 0.20719 -0.060332 -0.16887 0.16475 -0.10946 0.091953 -0.053685 0.039916 -0.23156 0.42835 -0.2815 0.051244 -0.15154 -0.19587 -0.16872 -0.18322 -0.052043 0.099694 -0.13881 0.13943 -0.16382 0.16076 0.013518 0.11705 -0.16676 -0.040717 0.28024 -0.26774 0.27677 -0.072704 -0.25546 0.095705 0.070435 0.10846 -0.10752 -0.42894 0.38518 0.21122 0.21729 -0.2294 0.068264 -0.0036604 -0.18152 -0.23903 -0.23118 0.06026 0.05662 -0.070613 0.17206 -2.5101E-4 0.19504 0.12185 0.1249 -0.09211 0.12983 -0.15898 -0.34931 -0.19564 -0.19697 2.2652E-4 -0.17169 0.020047 0.15352 -0.11132 -0.13057 -0.071923 -0.21548 -0.047961 -0.12443 0.3183 -0.016134 0.15762 -0.0010782 0.34414 0.021875 -0.52644 -0.43287 -0.35167 -0.039046 -0.1368 -0.30714 0.032496 0.20224 -0.027104 -0.29047 0.040003 -0.14125 -0.082106 -0.055266 0.043226 0.039024 0.01463 -1.5104E-4 -0.12456 -0.53253 0.18075 -0.067162 0.063199 0.37012 -0.22114 0.19726 0.051111 0.21001 -0.18989 0.2554 0.22869 -0.126 -0.11107 0.20509 0.090359 -0.098479 0.48665 -0.040967 0.17538 0.063147 -0.26231 -0.32841 -0.35183 -0.25233 0.23103 0.11154 -0.62915 0.016346 -0.048317 0.11814 -0.19518 -0.17636 0.23085 -0.18676 0.011679 0.32206 -0.070575 0.060441 -0.02871 0.38654 -0.063172 -0.26578 0.41399 -0.035499 -0.021743 -0.09784 0.15122 -0.31413 0.21502 0.091702 0.24329 0.052413 -0.0057552 -0.086607 0.027628 -0.034304 -0.25659 -0.0683 0.17587 0.14825 -0.11735 0.12764 0.19356 0.21108 0.26119 -0.088487 -0.14352 0.21347 0.0045662 -0.0044703 0.13228 0.11044 0.12075 0.21791 -0.2885 -0.094379 0.3727 0.46238 -0.0092557 -0.083201 -0.18584 0.095134 0.2876 0.07887 -0.14338 -0.34902 -0.09285 0.27001 0.19604 0.33475 -0.107 -0.064857 -0.059647 -0.067022 -3.6265E-4 -0.44266 -0.017448 -0.0089878 0.039171 0.37173 0.026915 -0.008089 0.025581 0.14167 0.087631 -0.11509 -0.31825 -0.10095 -0.028296 0.1147 -0.099172 -0.061341 -0.26632 0.32427 0.49969 -0.47805 -0.23044 0.17614 -0.058399 -0.11508 -0.067202 0.038685 0.014426 0.15482 0.13021 -0.43101 -0.10328
peace -0.25532 0.11819 -0.41597 -0.1493 0.3473 -0.15399 0.45932 -0.022897 0.10987 -0.073501 0.085909 0.014387 0.30146 0.16483 -0.055714 -0.086054 0.073767 -0.093276 0.17847 -0.10416 -0.44358 0.21604 -0.046036 0.096293 -0.096014 0.12127 0.20038 -0.20676 0.42705 0.071334 -0.17858 0.19644 0.045781 -0.12659 0.17748 -0.081293 0.29324 -0.18247 0.29272 0.16667 -0.011772 0.053892 -0.14788 -0.019077 -0.073223 -0.1552 -0.10718 0.18311 0.17487 -0.40331 -0.10979 -0.2871 -0.20561 0.22095 -0.43261 0.21449 0.3042 0.28905 -0.24477 -0.26012 0.13028 0.096934 -0.50676 0.46211 -0.12563 -0.34204 -0.017989 0.21073 0.085214 -0.12065 0.3342 0.28076 -0.0056233 0.38619 -0.57725 -0.096223 0.61067 0.23189 -0.065207 0.11167 -0.25821 -0.088487 -0.29188 0.20635 0.056811 0.32176 0.13913 0.16386 -0.1459 -0.0045262 -0.063399 -0.064995 0.49204 0.12597 0.28051 -0.22967 0.040382 -0.020764 -0.039141 0.06926 0.59405 0.14598 0.21531 0.20995 -0.11301 0.017487 0.089191 -0.24649 -0.41654 0.17698 -0.11297 0.41499 0.27779 -0.079423 -0.17478 0.1022 -0.28992 -0.16195 0.046263 -0.26107 0.30827 -0.11614 0.049005 -0.66081 0.17032 0.29628 0.24486 -0.2121 -0.040314 -0.32592 0.57257 -0.37117 -0.14618 0.16205 -0.016442 -0.21083 0.1475 0.0059245 -0.045455 -0.32774 0.20513 0.10859 0.20833 -0.29673 -0.012475 0.33277 -0.040102 -0.087622 -0.016098 0.02778 -0.083987 -0.022582 0.023071 0.18386 -0.27066 -0.052547 0.011314 -0.044154 0.039068 0.10395 0.34469 0.022315 0.27546 -0.006661 0.010935 0.27397 -0.58494 -0.37399 -0.092078 0.087621 -0.13074 0.43337 -0.0014797 0.20293 -0.81113 0.12718 0.17443 -0.32421 -0.28755 0.031771 0.13561 0.36732 -0.077856 0.19829 0.096335 0.19192 0.10656 -0.11639 -0.006 0.15277 -0.089014 -0.23801 -0.080249 -0.50425 -0.24192 0.013908 -0.21731 -0.12314 0.15649 -0.058035 0.37784 -0.55325 -0.012159 -0.31831 0.41774 -0.42464 0.10545 0.078378 -0.31135 -0.33322 0.17561 0.1513 -0.20291 0.27702 0.21159 0.23111 -0.63852 -0.20243 -0.027368 -0.18332 -0.16588 0.17144 0.14515 0.12858 0.28307 -0.25134 0.24297 -0.69873 -0.34121 0.50102 0.0088345 -0.52708 0.24753 -0.16428 -0.014472 0.13273 -0.12576 0.098455 -0.15099 0.084709 0.015047 0.36903 0.098246 -0.21409 0.451 0.022853 -0.35285 -0.26193 -0.040003 0.39971 -0.013111 -0.12772 0.084938 0.4501 0.26514 0.11693 0.27014 0.028847 0.079487 -0.080164 0.30258 0.0040013 0.19663 -0.050202 0.091824 -0.061255 -0.10868 -0.24411 -0.13335 0.010455 0.1693 -0.046531 -0.21789 -0.3111 -0.18777 0.10644 -0.24219 0.21662 0.36164 -0.045341 0.51772 0.46882 -0.12959 0.057744 0.42095 -0.0023149 -0.086573 0.096209 0.091897 -0.22395 0.34401 0.15327 -0.21214 -0.036308 -0.26289 0.039784 -0.11885 -0.21024 0.0092951 0.1997
science -0.052981 0.15513 -0.25124 -0.50025 0.072006 0.19982 0.23999 0.17016 -0.059929 -0.30676 0.015326 0.075092 -0.21737 -0.39575 0.16581 0.0036367 0.17286 0.14019 -0.12627 -0.16533 -0.13597 0.046963 -0.19752 0.031915 -0.48476 0.14376 0.40927 -0.077381 0.027347 -0.02788 -0.013292 -0.28886 0.31821 -0.031153 0.24694 -0.40697 -0.25168 -0.13131 0.20248 0.26583 0.37854 -0.2805 -0.1751 -0.068954 0.22168 0.23393 -0.050961 0.1626 0.095243 -0.10403 -0.28522 -0.043841 -0.23057 0.21236 0.11507 -0.30953 0.16751 -0.31307 -0.076694 0.1937 -0.07026 -0.12456 0.064506 0.10589 0.15654 0.059919 -0.12055 -0.37915 -0.041385 0.094163 0.040695 0.31771 0.018028 0.36456 9.0824E-4 -0.015374 0.25904 0.013112 -0.34983 0.1 -0.085421 0.16647 0.11631 0.10892 -0.090819 0.31807 -0.083747 0.02042 -0.14357 -0.0659 0.22393 -0.24828 0.16288 0.038532 0.2038 0.26395 -0.48876 0.13768 0.28456 -0.020882 0.3238 -0.020079 0.0078821 -0.13935 -0.068597 0.31089 0.26073 -0.052252 0.067384 -0.017292 -0.19001 -0.20983 -0.22878 -0.58616 -0.095961 0.26577 0.28412 0.18367 0.15145 -0.2179 0.039574 0.18313 0.14494 -0.1561 -0.20417 0.013918 0.20435 -0.099081 -0.16747 0.21475 0.1869 0.044324 0.15228 -0.0057435 -0.33148 -0.017277 -0.23626 0.024983 -0.04666 -0.16102 0.0032869 -0.32188 0.43105 0.11453 -0.54571 0.058482 -0.22903 -0.057975 -0.066053 0.046161 -0.13927 -0.12091 0.032104 -0.037122 0.34365 -0.1238 -0.22253 0.10303 -0.011905 -0.20373 0.047843 -0.032397 -0.19752 0.037011 -0.085963 0.10963 0.11958 -0.18831 0.15375 0.065225 0.14828 0.13361 -0.44991 0.39487 -0.38324 0.1396 0.13522 0.049026 -0.17313 0.13436 0.028262 0.28327 0.10966 0.23202 0.18057 -0.22455 -0.21822 -0.12702 -0.045521 3.2143E-4 0.37862 -0.16289 -0.13572 -0.052489 -0.11789 -0.35081 0.091757 -0.31735 -0.15549 0.044049 0.29763 -0.15727 -0.21512 -0.11738 0.060035 -0.2865 0.062225 0.40675 -0.19611 0.31494 0.38012 -0.29988 0.38691 -0.15579 -0.19612 0.021113 -0.17897 -0.18051 0.027437 -0.33242 0.27654 -0.10413 -0.053816 0.44395 0.20199 0.060793 -0.15983 0.29675 -0.041545 0.24182 -0.24435 0.13965 0.089732 -0.14548 -0.29202 0.17468 -0.054892 -0.058293 -0.25042 -0.17771 -0.010309 -0.1434 0.18158 0.18516 0.25755 -0.26298 0.051655 0.52348 -0.10926 0.23916 -0.12082 -0.0965 -0.024617 -0.01852 0.30286 0.16419 0.085689 0.16027 0.25378 0.28011 -0.011876 -0.26749 0.3428 0.026066 0.28057 -0.4314 0.054348 -0.32428 -0.024525 0.25939 -0.061711 -0.15158 0.16649 -0.051685 -0.47964 -0.026092 -0.12256 -0.39256 0.03015 0.11502 0.14967 -0.19515 0.076962 0.52425 -0.052919 0.1333 0.22294 0.38278 -0.134 -0.099117 -0.0096798 -0.25211 -0.082404 -0.2281 0.12478 0.26557 0.48877 -0.11298 0.02861 -0.25299
dawn 0.26072 -0.10288 -0.14197 -0.18289 0.52515 0.072539 0.042526 -0.42349 0.49642 0.0055946 0.086903 -0.31276 0.078195 -0.020019 0.10702 -0.22346 0.13086 -0.32632 0.002754 0.044338 -0.13092 -0.48594 -0.24077 -0.12301 -0.06127 0.28155 -0.14133 0.10031 -0.34409 -0.0048689 0.21046 0.4276 0.27039 -0.032608 0.54273 0.095046 -0.2658 0.16415 0.0088618 -0.011039 0.10324 0.080168 -0.078127 0.029811 0.024893 0.20426 0.53627 -0.18282 0.41407 -0.075478 -0.28364 -0.066597 -0.36625 0.048031 0.29505 -0.10417 -0.54936 -0.31087 0.15738 0.048729 -0.36278 -0.088546 -0.20276 -0.091741 -0.20354 -0.11073 0.22715 0.17865 -0.264 0.11838 0.090702 0.23868 0.10939 -0.46376 -0.037142 0.12868 0.2603 -0.12444 -0.19357 0.48329 0.2426 -0.36309 -0.0074905 0.4559 0.30666 0.31221 0.12354 0.38847 -0.22815 0.13747 -0.19281 -0.031967 0.35985 0.14269 0.13067 0.042485 0.10132 0.074601 -0.12473 0.013974 -0.14744 0.35536 -0.26163 0.095198 -0.44404 0.02831 -0.47151 -0.04579 -0.44277 0.33426 0.071599 0.20902 0.12178 0.12426 0.49122 -0.14969 -0.097701 0.1651 0.20841 0.18126 -0.1212 0.085594 -0.26214 -0.36384 -0.27827 -0.024616 0.053374 0.12174 0.38043 -0.27652 0.0027768 -0.54454 -0.13777 0.11367 -0.0027112 0.34466 -0.17111 -0.094571 -0.17467 -0.0015004 0.053113 0.32556 -0.15528 0.09817 -0.016756 -0.21905 0.042615 0.21187 -0.054472 0.041416 -0.11614 -0.17685 0.19343 0.21785 -0.45505 0.0095746 -0.049965 -0.14089 -0.33364 0.0049567 0.32434 0.024179 -0.44113 0.14601 0.10015 -0.593 -0.041905 0.015284 0.2644 0.20613 0.23223 0.18773 -0.2665 0.31991 0.013841 0.078787 -0.10388 -0.16299 -0.15981 -0.1493 0.15403 0.15112 -0.19278 0.06791 -0.044435 -0.18725 0.094362 0.0292 0.33038 -0.024753 -0.14459 -0.27666 -0.28663 -0.12156 0.036396 0.29897 -0.39762 -0.17485 0.013924 -0.22714 0.44427 -0.36432 -0.24487 -0.48071 -0.11295 -0.044146 -0.10966 -0.093734 -0.088678 -0.12685 0.076829 0.17833 0.19669 -0.1556 0.021442 0.57199 -0.43804 0.0031082 -0.015049 -0.26822 -0.0096153 0.66493 -0.070921 0.36506 -0.2314 -0.14664 0.078321 -0.13703 0.13922 0.18824 -0.059013 0.092161 0.045356 0.10707 -0.059169 -0.02864 -0.022019 0.31275 -0.40262 0.16946 -0.19551 -0.13886 0.15283 0.026823 0.62649 -0.3098 0.1727 0.21272 -0.039397 0.45198 0.20721 -0.016675 0.33201 0.012041 -0.094086 0.053329 -0.1791 0.0013742 0.503 -0.26656 0.054772 0.081985 -0.14652 0.12561 0.084452 -0.27052 -0.17867 -0.04291 0.026768 0.12881 -0.021102 0.26109 -0.14889 0.1792 -0.28097 -0.0617 -0.64486 0.086498 0.26237 -0.61813 0.35798 -0.26142 0.16777 -0.12085 0.42615 -0.43926 0.2246 -0.20347 0.43783 0.013477 -0.070202 -0.085695 0.11519 -0.059858 0.038153 0.017295 0.024129 -0.0051852 0.23741 0.49363
brother 0.11569 -0.049401 -0.19319 -0.34838 0.11791 0.40695 0.2497 -0.16363 0.62732 0.36586 0.065263 -0.15793 -0.064814 -0.10314 0.23858 0.059661 -0.19876 0.1718 0.048677 0.051052 0.21254 -0.21939 -0.40699 -0.053012 0.20066 -0.28281 0.12344 0.056801 -0.30372 -0.11607 -0.19944 -0.095753 -0.013013 0.16947 0.31954 0.3424 -0.65152 0.12818 0.3304 -0.093571 0.041502 -0.15659 0.046616 -0.55616 0.22904 -0.0598 0.19093 0.20669 -0.14937 -0.1592 0.12033 -0.069777 0.30661 0.037771 -0.10504 -0.12269 -0.087691 -0.036304 0.1573 0.14964 -0.020401 -0.1964 -0.3441 -0.15718 -0.048071 -0.14758 0.19161 0.34274 0.27737 -0.040486 0.61315 0.22381 -0.17484 0.1813 -0.10509 -0.35691 0.12945 0.16065 0.050296 0.10321 0.21783 -0.25544 -0.15984 0.1336 -0.20125 -0.064517 -0.026707 0.006529 0.090157 0.20684 0.13317 -0.11793 -0.039165 -0.37462 0.15963 0.35216 0.050576 0.057033 0.031425 0.091255 0.036004 0.24178 -0.09953 0.19687 0.15729 0.22247 -0.41005 0.099657 0.13867 -0.078659 -0.29162 0.55604 0.3593 -0.37489 -0.23997 -0.0035411 -0.24919 -0.3267 0.26199 0.13405 0.033533 -0.041199 0.15476 -0.21653 0.18819 -0.074035 -0.027067 -0.030969 -0.089237 -0.17537 0.22853 -0.21344 0.066252 -0.18306 0.068261 0.097753 -0.37127 -0.027171 0.40013 -0.14269 -0.019064 0.23501 -0.13855 0.24533 0.040402 0.28688 -0.15773 -0.017745 -0.091753 -0.31891 0.25588 -0.39855 0.062517 0.4294 -0.49764 -0.11938 -0.047728 -0.32357 -0.30134 -0.001334 0.21491 0.24704 0.10153 -0.24945 0.1467 0.17065 -0.38883 0.16772 -0.0028732 -0.088255 0.14261 -0.048554 -0.13151 -0.21337 0.137 0.11562 0.14437 -0.58394 -0.44401 0.17463 0.015834 -0.0015133 0.044322 -0.086203 0.0622 -0.15617 0.36763 0.11767 0.060436 -0.20385 -0.0035815 -0.32704 -0.29394 -0.11597 0.063275 0.20601 -0.15672 -0.050819 0.059236 -0.11882 0.4874 -0.26644 0.28319 -0.025393 -0.15854 -0.088779 0.21028 -0.20259 -0.013056 0.077676 0.068582 0.077512 0.011617 -0.01756 0.12955 0.029536 0.42024 -0.12697 -0.19878 0.096148 0.04379 -0.3359 -0.10301 0.26642 -0.2816 -0.228 0.12948 0.036326 -0.34629 0.10139 -0.24258 0.18566 -0.041981 -0.12865 0.15555 -0.064213 -0.10553 0.37498 -0.28958 0.16398 0.024532 -0.0090409 -0.43753 0.1665 0.36055 0.22816 -0.22506 0.20437 -0.29034 0.2485 0.094195 -0.0018458 0.03448 -0.11868 -0.011477 0.039397 0.030789 0.13975 0.13425 -0.038563 -0.16186 0.039224 -0.002627 0.39619 0.33399 0.13472 0.052209 -0.06698 -0.082569 -0.16118 -0.034598 0.19947 0.20383 0.29469 -0.086521 0.34205 -0.09543 -0.18215 -0.027213 -0.19214 0.14589 0.19841 0.26781 0.0060826 0.095781 6.1375E-4 -0.10957 0.091424 -0.07464 0.073858 0.24801 0.083125 -0.32446 0.079056 0.27463 -0.11069 0.081181 0.22061 -0.22452 -0.22664
wine 0.63871 -0.53529 -0.1668 0.24802 0.015243 0.58737 0.1347 -0.080363 -0.080787 0.016346 0.26845 -0.14646 0.030856 0.069732 0.4834 0.35346 0.1771 0.14496 0.029254 0.011837 0.17474 0.13808 -0.042223 0.19789 0.15204 -0.038256 -0.016121 -0.20541 -0.10934 0.078572 -0.17981 0.23637 -0.041391 0.0087771 0.17057 -0.29652 0.11715 -0.14206 0.15633 0.031837 0.092282 0.27949 -0.038987 0.12891 -0.0086515 -0.21636 0.5566 0.070207 0.44359 0.12034 0.19492 -0.62873 -0.29603 0.1096 -0.014112 0.29098 -0.50763 -0.1392 0.31419 -0.16824 0.024607 -0.21672 -0.82234 -0.43526 0.15835 -0.04982 0.024766 -0.06478 -0.0012237 0.28166 -0.10773 -0.074771 0.48508 -0.28445 -0.25243 0.49236 0.082516 0.017469 -0.1967 0.18988 -0.11313 0.18659 -0.37118 -0.60813 0.26209 0.0023219 0.23381 -0.16836 0.048311 -0.10607 -0.067224 -0.04554 0.21073 -0.44275 0.28597 0.16767 -0.26259 0.028375 -0.14959 0.014897 0.44033 0.17308 -0.11561 0.0016649 0.0035102 0.26779 0.33516 0.17274 -0.036387 0.08337 0.45478 0.2492 0.021704 -0.11068 -0.16251 0.15705 0.1247 0.079352 0.21915 -0.060032 -0.13955 0.009969 -0.047667 -0.091168 -0.11271 0.11318 0.077748 -0.27065 -0.051186 -0.11291 0.22881 -0.23448 0.19388 -0.30785 -0.14403 0.16727 -0.076989 0.056542 -0.14874 0.11605 -0.072631 -0.35234 0.28974 0.12443 0.041837 0.092864 -0.3565 0.57154 -0.15535 0.22075 -0.023547 0.27364 -0.22732 -0.31882 0.2145 0.077212 -0.14509 0.076133 -0.28722 0.13998 0.28101 0.34038 -0.17587 0.29322 -0.32053 -0.26212 -0.26332 -0.21376 -0.41592 0.07364 0.068185 0.22928 -0.12105 -0.36118 -0.11603 -0.15381 0.2797 0.054197 0.17568 0.0023566 -0.04312 0.14039 0.23956 0.026596 0.11517 0.11847 0.020294 -0.10501 0.12181 -0.037214 0.43592 -0.19435 0.097117 -0.34728 0.0092123 -0.17814 -0.12289 -0.84614 0.023546 0.10096 -0.078756 0.24585 -0.46594 -0.04635 0.40065 0.083252 -0.048912 -0.50128 -0.027459 -0.13212 -0.042507 -0.3836 -0.18714 -0.18593 -0.054282 0.12748 0.27082 -0.5205 -0.093749 -0.16363 -0.00257 -0.31098 -0.036992 0.18706 0.056267 -0.29201 0.044029 0.063501 0.16689 0.26648 -0.53494 -0.29696 -0.018355 -0.27448 0.0016278 -0.078115 0.27038 0.47513 -0.081495 0.058119 -0.10283 0.049331 0.20326 0.5278 0.1481 0.015703 -0.083016 0.24832 -0.29489 -0.0048001 -0.007077 -0.047219 0.018753 -0.054601 -0.0091527 0.17887 0.0386 -0.018011 -0.055129 0.16248 -0.087635 0.019317 0.26315 -0.07879 -0.24478 0.39554 0.13231 -0.027972 0.057037 -0.27847 -0.03346 0.070278 0.74806 0.005418 0.11436 0.1861 -0.080971 0.058558 0.18946 0.025576 0.41235 -0.17857 -0.51655 0.65523 0.24549 -0.24195 0.34649 0.4629 -0.16672 0.061169 0.27896 0.067234 0.58549 -0.1014 0.096093 -0.075479 -0.34332 -0.18502 0.042068 0.15334
object 0.2947 0.089017 -0.28083 0.11242 0.156 -0.014728 0.1204 0.069138 -0.029658 -0.3538 0.12456 -0.06134 -0.19725 -0.12746 0.018615 0.39264 0.092933 -0.33544 -0.28537 -0.15368 -0.22636 0.096616 -0.077129 0.18781 0.15613 -0.065693 0.17491 -0.10558 -0.13926 -0.11351 0.23347 -0.1046 0.033163 -0.16068 0.094818 -0.16308 0.10537 -0.2166 0.43991 0.22359 0.11719 -0.059797 -0.073238 -0.22094 0.013913 0.31176 -0.049218 0.1454 -0.052022 -0.21362 -0.19555 -0.1047 -0.36098 -0.09215 0.18363 0.013905 -0.020628 0.01774 -0.2701 -0.13524 -0.19752 -0.23822 0.086105 -0.32576 0.093192 0.12326 0.1332 -0.064823 -0.2349 -0.09197 0.30069 -0.12522 -0.12073 0.13503 -0.18074 -0.18669 -0.022252 -0.13166 0.085141 0.018287 0.35671 0.2449 -0.066756 0.24542 -0.002578 0.18337 0.1349 0.21438 -0.16477 -0.19133 -0.036099 -0.080165 0.44294 -0.13408 -0.054424 0.1566 -0.015186 0.064592 -0.13435 0.20345 0.17896 0.064858 -0.025413 0.1034 -0.21714 0.054641 0.24082 -0.18991 -0.21102 0.13076 -0.070986 0.20238 -0.19159 -0.13525 -0.12851 -0.21125 -0.034602 -0.02224 -0.079308 0.16126 -0.029812 -0.12302 -0.0077424 -0.090912 -0.26593 -0.24983 0.17663 -0.15494 0.19911 -0.14353 0.043933 -0.19876 -0.16728 0.3266 -0.11784 -0.21958 -0.499 0.32764 -0.015089 0.098145 0.062241 -0.095412 0.056968 -0.19775 -0.40873 0.090739 -0.17799 -0.0075303 0.13352 0.31249 0.062658 -0.069403 0.22152 -0.35143 0.018719 -0.13941 -0.43084 -0.052221 -0.28907 0.066433 -0.17682 0.19918 -0.13535 -0.0063269 -0.16751 0.17016 -0.075749 -0.039568 -0.44612 0.19355 -0.023158 -0.03876 -0.24636 0.10961 -0.13072 0.2023 0.073685 -0.17361 -0.47534 -0.13754 0.092108 0.12084 -0.0048249 -0.1607 -0.052715 -0.16381 -0.29666 0.037857 -0.059559 0.062487 0.0012734 -0.18691 -0.23073 -0.32721 -0.27971 -0.27179 -0.1294 0.16996 -0.026557 -0.23302 0.40215 0.013224 -0.017521 -0.21206 -0.085176 0.14247 -0.44003 0.10181 -0.033939 0.1589 0.52626 -0.006239 0.098196 -0.3298 0.016187 0.4103 -0.10198 0.014461 0.0051378 0.20694 -0.10417 -0.30942 0.33848 -0.051708 0.22223 0.043402 0.12506 -0.058656 -0.11774 0.17943 -0.49151 -0.22336 0.073068 0.16822 -0.032948 0.15463 -0.286 0.21891 -0.31667 0.086937 0.48248 -0.056812 0.10642 -0.12444 -0.28495 -0.022244 -0.019063 0.52491 -0.25623 0.10687 -0.17152 0.0083705 -0.22686 0.017452 0.11331 0.061676 0.14229 -0.046145 0.034062 0.048646 0.51246 -0.14705 0.17001 -0.086635 -0.11189 -0.091172 -0.0012121 0.14098 -0.024347 0.046995 -0.017872 0.20823 -0.12392 0.16713 0.0098089 0.33076 0.089143 0.099401 0.05471 0.14612 -0.077883 0.011295 -0.076304 0.078352 0.28712 0.029031 0.28451 -0.098058 0.090489 0.17198 0.15255 -0.1525 -0.081718 -0.32099 0.21478 -0.02635 -8.1899E-4 0.16146 -0.30111 0.46502
attitude 0.37146 0.25745 -0.14244 0.089154 0.39695 0.063647 -0.050034 -0.045248 -0.046252 0.32824 0.048826 -0.22089 0.2387 0.057438 0.051601 0.011908 -0.03098 -0.28944 -0.022075 -0.28068 -0.061213 -0.064645 -0.10748 -0.098719 0.18159 0.031939 -0.022231 0.28362 -0.0047054 -0.037626 -0.583 -0.088776 0.18994 -0.0084032 0.020295 -0.29812 -0.39532 -0.12605 0.34394 0.16051 -0.11983 0.45776 0.037229 -0.35875 0.14544 -0.38731 0.27253 0.21842 -0.12163 0.019583 -0.34748 -0.14764 -0.22915 0.11303 -0.20448 -0.14527 -0.098997 0.013276 -0.19969 -0.030501 0.05724 0.23265 -0.024156 -0.081875 0.18005 0.0039341 0.011783 0.20771 -0.040189 -0.2415 0.26482 -0.17582 0.2684 0.077466 -0.15837 -0.264 -0.14765 0.097321 -0.27966 -0.13431 -0.12454 0.11414 0.17242 -0.038704 0.13098 -0.13758 -0.16505 -0.12119 0.030177 -0.0019018 -0.028675 -0.058987 0.37822 -0.1469 -0.13264 0.2839 -0.2207 -0.042864 0.34649 0.24429 0.26833 -0.0043138 0.14883 0.28071 0.0048331 0.242 0.19751 0.17094 -0.021479 0.2583 -0.022175 0.093724 0.373 -0.097944 0.082139 0.51412 0.24008 0.1635 0.12233 -0.06666 -0.19465 -0.10222 -0.078502 -0.15836 -0.069404 -0.28906 0.33381 -0.12884 0.16603 -0.17126 -0.10887 -0.16623 0.04009 -0.10908 -0.13247 -0.16044 -0.013406 0.074035 0.14352 0.27725 -0.40348 0.17596 0.063099 -0.11565 -0.47899 -0.080185 -0.057249 0.23749 0.053401 -0.14517 0.038938 0.043134 0.34825 0.10388 -0.32489 -0.050863 -0.072643 -0.13051 -0.071828 0.44523 -0.19786 0.42883 0.23302 0.20522 0.12083 0.043403 -0.45302 -0.076768 -0.34691 0.37249 -0.14468 0.015944 -0.23841 -0.047732 -0.27718 0.2675 0.23278 -0.0086089 -0.33672 -0.16665 -0.1592 0.086921 0.21549 0.23651 0.29408 -0.091043 0.26608 0.010683 0.20447 0.030797 0.41004 0.0042991 -0.20481 -0.040083 0.16623 -0.26385 -0.080166 -0.27404 -0.21728 -0.2252 -0.37597 0.19179 0.038137 -0.16471 -0.11703 0.13754 -0.17342 0.66698 0.096804 0.080905 0.1044 0.30366 -0.045842 0.19607 0.22932 0.43813 0.12385 -0.15667 0.22099 -0.23768 -0.19465 -0.091203 0.12928 5.6768E-4 0.073834 -0.24123 -0.16453 -0.2302 -0.0074842 0.031031 0.21867 0.0020405 -0.053602 -0.057877 0.14892 0.065449 -0.026545 0.046853 0.13274 0.075358 -0.060241 0.24614 -0.24147 0.21863 0.085813 -0.090485 0.19821 0.086753 -0.10058 -0.036408 0.21424 -0.083595 -0.12651 0.36022 0.23578 0.041805 0.2562 0.49286 0.23912 -0.084734 0.15948 0.065525 0.15987 0.23066 0.15002 -0.021922 2.1949E-4 0.0476 -0.20496 -0.022035 0.21339 -0.15351 -0.09059 0.32317 -0.10013 -0.12542 0.20327 0.18322 -0.11712 -0.13965 0.11536 -0.013423 -0.18993 0.013852 0.15913 -0.083078 0.12948 -0.12115 0.13451 0.21903 0.18782 -0.082338 -0.18157 -0.35019 -0.091485 0.067373 0.063114 -0.16204 -0.30149 -0.27986
treatment 0.2505 0.26464 -0.35156 0.091295 -0.16793 0.096654 -0.10674 -0.21248 -0.18086 0.062029 0.074997 -0.15612 -0.17692 0.19182 0.2462 0.40499 0.23323 -0.081139 -0.37182 0.28333 -0.38447 0.072199 0.1341 -0.11288 -0.089283 -0.15819 0.43107 -0.10767 -0.46779 -0.39265 -0.35767 0.18852 0.32504 0.39054 -0.039254 0.21387 -0.079855 -0.34024 0.17256 -0.18182 0.020045 0.19525 -0.22352 -0.17454 -0.050388 0.068813 0.11907 0.18486 0.044443 -0.041204 -0.11936 -0.048389 -0.20433 0.10267 -0.18152 -0.11948 -0.27828 0.031497 -0.029886 -0.071423 -0.04231 -0.11123 -0.028912 0.085843 -0.10041 -0.079382 0.12164 0.091974 -0.0094749 -0.26239 -0.027579 -0.14014 0.19592 0.015774 0.25556 0.13755 0.05187 0.21041 0.12425 -0.20441 -0.26284 0.19094 0.12453 -0.16203 0.16688 0.025731 0.065195 0.12891 0.014239 0.14545 0.039308 -0.31436 0.089034 -0.032709 -0.16719 -0.51072 -0.23117 0.029347 0.09791 -0.065009 0.45331 -0.067228 0.0081651 -0.06787 0.15807 0.32399 -0.1957 0.35925 0.32517 -0.13134 0.067513 0.25555 0.10841 0.18329 0.11298 0.0024736 0.29964 -0.12594 0.20742 -0.033217 -0.13804 0.26425 0.23459 -0.43264 -0.3251 -0.015871 0.12095 0.08314 0.22911 -0.038707 -0.068483 -0.26429 0.049707 -0.12511 0.12059 0.19111 0.090442 -0.028899 -0.013734 0.010892 0.14262 -0.16022 0.048962 0.055973 -0.021888 -0.051967 -0.27422 0.29881 -0.084991 -0.09347 0.012742 -0.19683 0.2541 0.35735 -0.044498 -0.028322 -0.072663 0.13689 -0.065255 0.22275 0.10626 -0.10398 0.25614 0.2283 0.15181 -0.025725 -0.0014908 0.045084 0.0054256 -0.088115 -0.16902 3.3938E-4 -0.19859 0.48881 -0.30196 -0.037993 -0.1896 -0.15189 0.012258 -0.05589 0.29009 0.014621 0.31008 0.081889 0.21984 0.37356 -0.061849 0.17134 -0.011392 0.14549 0.36804 -0.0068962 0.13376 -0.025185 -0.33872 -0.3417 -0.13047 -0.41238 -0.17834 -0.11457 0.071571 -0.07257 -0.017189 -0.14561 0.099744 0.36106 -0.087107 -0.018786 0.38035 0.20039 -0.097203 -0.511 -0.07105 0.40606 0.22445 -0.34163 -0.15176 -0.24408 0.034594 -0.45623 -0.012299 0.056651 -0.11304 0.30334 0.38854 -0.085776 -0.081003 -0.058982 -0.21418 -0.11026 0.1235 -0.10065 0.12111 0.0070521 -0.15307 -0.032716 0.36633 0.33275 0.010873 -0.092633 0.01956 -0.024706 -0.090996 -0.095575 0.018738 0.2521 -0.14996 -0.051927 -0.18105 0.1238 0.056515 -0.12128 -0.15145 -0.15655 0.34622 0.39916 0.3245 -0.33367 -0.38715 -0.0091999 0.14356 -0.40228 0.06213 0.15285 0.15058 -0.055597 -0.02118 -0.073108 0.17121 -0.11746 0.18524 -0.33762 0.11827 -0.17219 -0.28712 -0.01321 0.11167 -0.036057 -0.19728 -0.12076 -0.39791 -0.025048 0.31066 0.26519 0.23162 0.085418 0.27877 -0.11245 -0.15465 -0.052849 0.034143 -0.51466 -0.23705 -0.060317 0.23595 -0.17696 -0.018362 0.3686 0.011166 0.002248
flight -0.017952 -0.12993 0.10338 -0.30465 0.042669 0.20477 0.13386 -0.18681 -0.33109 -0.29191 0.17988 -0.14997 -0.098128 -0.049471 0.020969 0.21291 -0.016478 0.033151 -0.1128 -0.31982 0.33395 0.15826 0.13123 0.29604 0.004651 -0.069752 0.13518 -0.091876 0.1959 0.18658 -0.40457 -0.19791 -0.0026018 0.17433 -0.03545 0.22501 -0.058375 0.0045808 -0.19557 0.38904 0.0376 -0.19997 -0.43754 0.18635 -0.084917 0.13986 0.35854 0.26882 -0.015681 -0.34578 -0.42188 -0.4782 -0.35243 0.10541 0.26114 -0.15031 0.45597 -0.13039 -0.40562 0.10469 0.0046868 -0.26144 -0.11234 -0.24267 0.32099 -0.31967 -0.050179 -0.0072239 -0.17786 -0.0801 -0.062834 0.24955 -0.040972 0.39011 -0.27299 0.028759 0.13282 0.0035908 0.32516 0.17383 -0.23721 -0.2044 0.12777 0.14769 0.094518 -0.12904 -0.17146 0.051395 -0.10318 -0.38288 -0.16422 0.053063 -0.0035564 -0.094387 0.018992 0.011204 -0.051965 -0.025757 0.21483 -0.069796 0.1971 0.034249 -0.21276 0.57373 0.25431 0.20996 0.27987 -0.10961 0.20386 -0.075204 0.077811 0.11235 0.096348 -0.22336 -0.035822 0.28353 0.20291 0.082274 0.073962 0.13306 0.088509 0.18004 -0.023761 0.050971 -0.26026 0.2433 0.43087 0.086213 0.0052435 -0.56986 -0.062405 -0.36187 -0.060634 0.249 -0.45231 -0.39012 0.31552 -0.28839 0.37822 0.17781 0.12281 -0.18287 -0.16075 0.12514 -0.0086057 0.11683 -0.19545 0.18576 -0.22956 -0.10435 0.099714 -0.024392 -0.12893 0.042058 -0.17274 -0.09059 -0.46516 0.22667 -0.064173 0.010313 0.093137 0.044133 0.099348 -0.45221 0.16005 -0.024556 -0.31095 -0.30744 -0.09649 0.19406 0.064529 -0.29906 -0.25295 0.065506 -0.16056 -0.2184 0.30519 -0.47589 0.11095 -0.072189 -0.10518 0.20915 0.18601 0.083311 -0.10728 0.27145 0.33727 -0.015686 0.02936 0.29683 0.038831 -0.30873 -0.46436 0.027311 -0.23155 -0.34145 -0.39476 -0.345 0.10669 0.27037 0.011257 0.26991 -0.055331 -0.57031 -0.012795 0.29246 0.13036 -0.26141 0.47413 -0.16673 -0.045313 0.18478 0.26759 -0.20726 0.01801 0.19911 0.024173 0.064656 -0.06333 -0.37127 0.17326 0.034131 0.24484 0.21526 -0.024033 0.078996 0.079715 -0.028617 -0.44568 -0.20841 -0.37239 -0.15511 -0.041753 -0.031979 0.0045447 0.20214 0.43267 -0.0056388 7.0019E-4 -0.12454 0.18489 -0.58404 -0.11029 0.13141 0.14074 -0.42879 -0.0061596 -0.11953 -0.2978 0.20638 0.13398 0.089071 0.16712 -0.32922 0.077355 -0.16992 0.13321 -0.09873 0.48562 0.026958 0.055971 0.11191 0.068544 -0.086632 -0.022483 -0.10991 -0.50183 0.21346 -0.035431 0.09349 0.080009 0.25497 0.046081 0.3302 -0.45887 0.12491 -0.054032 -0.5051 0.2084 -0.50506 0.062868 0.26493 -0.051941 0.21888 0.13304 0.13916 0.23931 -0.29492 0.093882 -0.047706 0.072295 -0.17139 -0.07484 -0.34091 0.0082112 0.074181 -0.5145 0.50213 -0.076986 -0.012981
forest 0.040844 0.02905 -0.67574 -0.072279 0.20779 0.25015 0.087038 -0.063628 0.098586 -0.43363 0.02365 0.23914 -0.18135 0.031718 0.22856 0.019603 0.45018 -0.28028 0.11171 0.3772 0.26573 -0.30914 0.13595 0.41568 -0.13847 0.074137 0.22045 0.066235 -0.17275 -0.11119 -0.033238 0.10457 0.018777 0.074415 0.090072 -0.011235 -0.038386 -0.4055 0.23816 0.28563 0.11549 0.071938 -0.20603 0.40775 -0.15603 -0.19193 0.17118 -0.034858 0.38915 -0.3966 -0.28989 -0.14434 -0.25026 0.0054284 0.092459 0.16056 0.12408 -0.23215 0.040144 0.14556 -0.065573 -0.2648 0.23706 -0.5683 -0.11049 -0.058643 -0.25722 0.068506 -0.066319 0.15896 0.18308 0.097411 -0.051809 0.27646 0.085695 0.3771 0.58348 0.012744 -0.053395 0.22816 -0.013747 -0.16095 0.12624 0.060714 -0.016453 0.25368 -0.051086 0.61449 -0.054057 0.36714 0.18184 -0.068756 0.31132 0.1484 0.13278 0.25192 -0.30172 0.006004 0.16399 0.069318 0.38173 -0.12896 -0.32484 0.47079 -0.012982 -0.20564 -0.28313 -0.0023647 -0.10464 -0.38664 0.3164 -0.01046 -0.22575 0.033464 -0.25096 -0.083319 0.40239 -0.046341 0.19207 0.02337 -0.18157 -0.243 -0.41442 -0.53126 -0.15923 0.088854 -0.015493 -0.12828 -0.043771 -0.023544 0.18579 -0.05539 0.11714 -0.17996 0.12691 -0.063949 -0.45019 -0.022953 0.041766 -0.011418 0.27755 -0.06269 -0.14938 0.045525 0.20075 0.19326 -0.25997 0.29009 0.079045 0.10457 -0.14529 -0.076176 -0.068872 -0.011481 0.1518 -0.1688 -0.21042 0.29049 0.0039362 -0.0069652 0.32387 0.13535 -0.14236 0.24304 0.051123 -0.53799 -0.054105 -0.1397 -0.3789 0.2581 0.033575 0.26736 -0.15655 0.1219 -0.37975 -0.35441 0.20716 -0.1898 -0.24922 -0.030594 0.29633 0.039564 -0.27832 -0.0045882 0.25383 -0.28749 -0.47613 0.38657 -0.31985 0.1141 -0.086136 0.069832 -0.11277 -0.11831 -0.30292 -0.062025 0.076716 -0.021717 0.098831 -0.5726 0.32913 -0.42817 -0.018984 -0.13801 -0.032856 -0.022274 -0.30039 -0.2416 -0.3383 -0.14133 -0.063192 0.11369 0.36576 -0.092024 -0.39508 0.099492 -0.15183 -0.029618 0.28953 0.15981 -0.082308 0.44227 0.32245 0.06128 0.15298 0.049751 -0.054367 -0.057431 -0.00859 -0.093116 -0.60726 3.9429E-4 0.21733 0.087031 -0.14457 -0.12 0.24688 -0.016456 0.13685 0.35218 -0.28201 0.11642 -0.076197 0.40845 0.45355 -0.11617 -0.24758 -0.025723 -0.13981 0.14801 -0.03668 0.26837 0.1922 -0.46478 0.23585 0.064643 -0.10572 0.22025 0.33973 0.37897 0.33311 0.20552 0.16867 0.28425 0.23968 -0.1404 -0.016559 0.034566 0.15014 0.16229 0.0027957 -0.088582 0.32836 0.26914 -0.11896 -0.012816 0.36129 -0.036992 0.067441 -0.061775 0.44464 -0.45823 -0.10058 0.037221 0.68089 0.098571 0.034134 0.062798 0.55586 -0.43391 0.23086 -0.013713 -0.01049 -0.19078 0.18737 -0.15697 0.39583 0.091932 -0.28618 -0.287
abuse 0.30505 0.3128 -0.48286 0.050271 -0.24572 0.17628 0.1965 -0.17699 0.12761 -0.040281 -0.17912 0.19017 -0.25411 -0.35107 0.23155 0.35526 0.079583 0.13563 -0.042257 0.28382 -0.14547 0.44683 -0.12241 -0.18771 -0.19087 -0.11757 0.097488 0.12806 -0.37739 -0.19398 -0.47959 -0.014909 0.17395 0.14936 0.26166 -0.053109 -0.43519 0.091805 -0.40475 0.084384 0.027188 -0.28298 -0.32569 -0.41592 0.14874 0.18267 0.052023 0.11539 -0.31972 -0.25109 -0.46386 -0.29488 -0.33408 -0.058816 -0.19363 -0.14002 0.22493 0.24387 -0.060847 0.1276 -0.083949 -0.06848 -0.3434 -0.083969 0.22027 -0.10136 0.27926 0.43999 0.29304 -0.12281 0.24137 0.28958 -0.10627 -0.45656 0.3491 -0.12183 -0.03883 0.061261 -0.11544 0.15728 -0.14447 0.17339 -0.057482 -0.11511 0.15177 0.35394 0.027059 -0.081916 0.17531 0.031524 0.0033858 0.044337 0.2355 0.011294 -0.11338 -0.17314 -0.29914 0.13451 -0.22233 -0.096409 0.16747 0.53863 -0.35675 -0.12964 0.10067 0.46521 0.068652 -0.043825 -0.14819 0.022221 0.31878 0.28017 0.24378 -0.22251 -0.26524 0.50905 0.010566 -0.2001 0.067974 -0.15882 0.12639 -0.13992 0.23869 -0.34284 -0.15782 0.35892 0.14674 0.059581 0.12277 -0.16833 0.18257 -0.024651 0.035321 -0.17648 -0.34152 -0.07234 -0.35958 0.10253 0.24794 0.30456 -0.11329 0.029674 0.3097 0.10987 0.10446 -0.011347 0.27258 -0.25795 -0.42223 -0.42247 -0.33674 0.057229 0.26027 0.08541 -0.37332 -0.26618 -0.22882 0.29311 0.29695 0.22666 0.026475 0.36208 0.050061 0.1917 0.47202 0.23121 -0.19785 -0.19876 -0.062874 0.1938 -0.17135 0.02735 0.076097 0.16842 -0.63417 -0.064558 -9.9801E-4 -0.34069 0.087627 -0.32493 0.40201 -0.017835 0.13197 -0.081018 0.16372 0.11816 0.28185 0.38312 0.24218 -0.11803 0.017677 0.12148 0.26855 0.16585 0.2525 0.21942 -0.067005 0.16988 0.2194 -0.33829 0.0327 -0.1469 -0.068703 -0.21334 0.23007 -0.1721 -0.18415 -0.16395 -0.016041 0.31957 -0.18157 -0.3051 0.039889 0.17684 -0.025864 0.29654 -0.024696 0.067069 -0.19216 -0.3218 -0.078993 -0.22811 -0.10185 -0.02725 -0.1674 0.17997 -0.16871 -0.23809 0.17579 0.16888 0.21732 -0.058825 0.33584 0.091193 -0.14623 -0.041414 0.32354 -0.028214 -0.026484 0.31573 -0.028219 0.16343 0.23021 -0.024652 -0.21533 0.052435 -0.2526 0.15929 0.0052566 -0.0034731 0.30963 -0.28718 -0.21567 -0.33453 0.030616 0.013798 0.35313 0.12893 0.1038 0.37548 -0.0047966 -0.22393 0.22857 0.35029 0.0097771 0.25887 0.11179 -0.1455 0.17729 -0.92818 0.014178 -0.080213 0.072841 0.30088 -0.45605 0.19571 -0.078576 0.017227 0.10309 -0.21176 -0.37705 -0.095692 0.33305 0.25595 0.3011 0.13833 0.40122 -0.31601 -0.026246 0.0027704 0.35329 -0.37102 -0.28608 0.22686 0.42565 -0.11358 0.24687 -0.15343 0.28546 -0.23101
criterion 0.16668 0.072403 0.035601 -0.059731 0.085771 0.089352 0.30709 0.27525 0.034283 -0.12616 0.068504 0.30914 -0.087609 0.22779 0.31173 0.19291 0.13708 0.18525 -0.058218 -0.10497 -0.12078 -0.10237 -0.146 0.040075 -0.22363 -0.024659 0.22971 -0.087168 -0.27187 -0.33048 -0.43817 -0.069873 0.064849 -0.0086377 -0.094481 -0.35919 -0.12107 0.13 0.023579 0.18844 0.026395 0.15577 0.13921 -0.21303 0.33042 -0.024179 -0.10267 0.003669 -0.20703 0.027849 -0.024773 -0.21434 -0.23246 -0.21716 0.031697 0.20276 -0.50663 0.30487 -0.41363 0.061334 -0.17193 -0.047071 -0.064698 -0.14066 -0.094412 0.11167 0.23678 -0.079474 0.011928 0.13367 0.10601 0.050322 -0.046156 0.18306 -0.18867 -0.3199 0.14749 0.28096 -0.032885 -0.16418 -0.030781 0.34501 -0.39336 -0.42631 0.21225 0.15602 0.16335 0.048465 0.043683 -0.19503 0.048854 -0.40759 0.027755 0.11716 -0.12314 0.16538 -0.21322 0.2254 0.21077 0.26284 0.35456 -0.22193 0.25958 0.096729 -3.9399E-4 0.29131 0.001485 0.034057 0.27348 -0.034226 -0.033592 0.16369 0.054891 -0.29494 -0.25671 0.15491 0.18489 0.1005 4.8349E-4 0.39427 0.053168 0.003611 -0.073176 0.1607 -0.10593 0.20096 0.51102 0.26678 -0.030811 -0.026074 -0.0099891 -0.21481 0.18451 0.32953 -0.30069 0.04316 -0.0020919 0.3797 -0.21353 0.17342 -0.20868 -0.11895 -0.022801 -0.028873 -0.17469 0.31338 -0.057083 -0.25775 -0.10529 -0.3058 0.16759 0.13309 -0.081972 -0.079321 0.066164 -0.079116 -0.022598 0.027952 -0.12969 0.16575 -0.078351 0.020764 0.026555 -0.080287 0.048103 0.21252 -0.045124 -0.0044762 -0.1325 -0.015191 0.22349 0.27461 -0.42034 0.32425 -0.24889 0.15508 0.24712 -0.0028638 -0.1382 -0.15116 0.18818 -0.17338 0.24133 -0.15917 0.10203 0.12166 -0.11768 0.041619 -0.0028782 -0.060689 -0.071479 0.14703 -0.26296 -0.26722 0.046645 -0.46252 -0.11748 0.054256 0.22567 -0.01098 0.18765 -0.25702 0.19084 -0.42721 0.15427 -0.029288 -0.099423 -0.049337 -0.019356 0.18694 0.18757 -0.46318 0.10631 0.14552 -0.11562 0.20895 -0.061727 -0.20364 0.10716 0.019541 -0.30265 -0.42111 0.23201 0.29538 -0.028223 0.020466 -0.14838 0.21171 -0.07577 0.10724 -0.25359 0.13875 0.29713 -0.17539 -0.31371 0.14536 0.11335 0.37007 0.024622 -0.48119 0.022993 -0.27381 -0.025328 -0.0837 0.0044775 0.0241 0.11031 0.34966 -0.1639 -0.061201 0.055186 0.45812 -0.29144 0.061928 0.17503 0.21056 0.27623 0.05654 -0.29685 0.12353 0.144 0.17443 0.13217 -0.1303 -0.025908 -0.12819 -0.060077 0.058247 -0.081811 0.051369 0.17566 -0.13446 0.10677 -0.089392 -0.002885 -0.25448 0.069497 0.20141 -0.11889 0.16529 0.1317 -0.12272 0.083876 0.024054 0.068268 -0.15863 -0.040425 0.11973 -0.14173 0.20549 -0.070054 0.0064498 -0.11013 -0.19081 0.16897 0.033087 0.067371 0.053433 -0.46591 0.014414
sea 0.16159 -0.18277 -0.3454 0.044849 0.22793 0.33867 0.011214 -0.25772 0.19015 -0.073843 0.23957 -0.031217 0.0020014 0.18524 -0.052405 0.089233 0.22538 -0.34914 0.21839 -0.14986 -0.49787 0.15844 -0.35805 0.43739 -0.061569 -0.3945 -0.36236 -0.10863 0.050329 -0.13413 0.12941 0.40071 0.15798 0.13467 -0.27937 -0.26573 -0.37057 -0.33079 0.080965 0.020294 0.2406 -0.16198 -0.46551 0.01088 -0.24209 -0.20391 0.25796 0.24169 0.080734 0.0042173 -0.3389 -0.12273 -0.50883 0.12172 -0.041386 -0.029952 0.41871 -0.33853 0.41289 -0.038463 -0.088356 0.25741 -0.1734 0.025961 0.041406 -0.19621 0.29354 -0.13753 -0.24168 0.17745 -0.45819 0.41962 -0.0051234 2.717E-4 -0.16351 0.27089 0.75281 -0.03088 0.16994 0.0041563 -0.22891 -0.029027 0.054367 0.10365 0.28701 -0.050973 0.10162 0.12741 -0.032849 0.068143 0.2437 -0.062278 0.47588 0.038334 0.15072 0.064273 0.040279 0.027876 -0.021389 3.4537E-5 0.084431 -0.018635 -0.54468 0.24396 0.18366 -0.22286 0.12227 0.064189 -0.031639 -0.20661 -0.11709 0.38367 -0.12673 0.067808 0.35617 0.3085 0.18895 0.01688 0.13966 -0.21268 0.075152 -0.13102 -0.071884 -0.30587 -0.51266 0.18488 0.064999 -0.21275 0.10204 -0.29836 -0.091477 -0.42705 0.04861 -0.33298 -0.047404 -0.26574 0.33115 -0.058984 0.20363 -0.029753 0.22118 -0.16054 0.15433 0.10687 -0.43647 -0.24813 0.0082758 0.035214 0.074931 0.27161 -0.33284 0.31178 -0.098967 0.07398 -0.20789 -0.37912 -0.24983 -0.046717 0.03156 0.13912 0.27294 0.13329 -0.28237 0.11208 0.14963 -0.35388 0.036203 -0.0394 -0.31943 -0.14327 0.048316 0.017093 -0.21061 0.12875 0.20699 -0.31542 0.44576 -0.086206 0.18562 -0.10173 0.077792 0.36473 -0.17701 0.20136 0.080081 -0.40281 -0.091588 -0.020537 0.21331 0.020456 -0.12514 0.17722 -0.041475 -0.08314 -0.029406 0.11663 0.093505 -0.46799 -0.05222 -0.31383 0.52822 -0.12156 -0.081763 0.096857 0.098304 0.38839 0.015303 0.026041 0.049735 -0.11506 0.27786 0.014063 0.033696 -0.17832 -0.069676 -0.12345 -0.12376 -0.24734 -0.085133 -0.1553 -0.41748 0.17589 0.50099 0.10838 0.092505 -0.018148 0.1176 0.025994 0.1224 -0.01785 -0.20933 0.091261 0.12816 -0.31363 -0.13434 0.32482 -0.011136 0.32654 0.20191 -0.17619 0.0095519 0.14489 -0.18078 0.37666 0.23832 -0.046969 -0.028193 -0.13088 0.015329 0.26972 0.31538 0.14315 -0.15487 -0.39527 0.071627 0.05837 0.25649 -0.13244 0.078574 0.069629 0.3798 -0.29141 0.26492 -0.16968 0.33032 0.19162 -0.31793 -0.48468 0.6773 0.2178 0.23004 0.28323 0.30934 0.10629 -0.45233 0.31903 -0.30241 -0.057399 -0.14004 -0.29929 0.20736 0.22727 0.13882 0.25827 -0.18859 0.052369 -0.25825 0.18052 0.082201 -0.28091 -0.049504 0.085467 0.39305 -0.035604 0.51291 -0.14859 0.22712 -0.19708 -0.43113 0.16665
dollar -0.13325 -0.41407 0.14263 0.10268 0.06479 0.097576 -0.040217 -0.19227 0.10213 -0.52598 0.12245 -0.1824 0.36736 -0.49045 -0.0069348 0.34518 0.10859 0.11396 0.23639 0.0065292 -0.53445 0.15439 0.033935 -0.097606 0.33282 -0.24862 0.095651 -0.18363 -0.13344 -0.20577 -0.21608 0.15314 -0.11769 0.039367 0.080987 -0.079099 -0.25983 0.31733 -0.0089791 -0.018639 0.58749 0.31602 0.28549 0.15999 0.053546 -0.26046 0.27069 0.12662 0.27384 -0.026059 -0.20748 -0.24819 -0.1808 -0.010536 -0.37495 0.27835 -0.044476 -0.14268 0.087046 0.0054129 -0.034207 -0.052494 0.030711 0.027149 0.056091 -0.2167 0.077919 0.11679 -0.31762 0.10387 -0.22283 0.19903 0.10037 0.23889 0.055624 -0.068722 -0.35214 -0.0067162 0.13706 0.036466 -0.49343 0.10842 -0.2862 -0.087981 -0.42 -0.019428 -0.075237 0.076599 -0.31395 0.16901 0.15985 0.18164 0.17586 0.094006 -0.040716 0.25555 -0.23079 0.31865 -0.22657 -0.061347 0.16025 0.40002 -0.15188 0.33117 -0.054834 -0.056849 0.58582 -0.014883 0.50558 0.42902 0.2236 0.41846 -0.095904 -0.047934 0.094323 0.23008 -0.20753 -0.20362 0.16976 -0.48622 -0.13166 0.20101 -0.23201 0.017433 -0.1532 -0.12728 0.013085 0.42132 0.4642 -0.13294 0.078158 9.7316E-4 0.069581 -0.11139 -0.35988 -0.64593 0.27614 0.093121 0.046716 -0.23421 0.19861 0.32359 -0.3587 -0.19293 0.18189 -0.13094 -0.47559 -0.56428 0.10748 0.18592 0.077166 -0.32146 0.085215 -0.23481 0.19356 0.030312 -0.44991 0.049789 -0.022388 0.27908 -0.55682 -0.038782 0.17446 0.13823 -0.18847 -0.12659 0.049822 0.029348 -0.30188 0.11914 0.074389 0.12289 -0.017175 0.16044 0.21047 -0.23198 0.37798 0.10474 -0.043386 0.12239 0.068341 0.066763 -0.021549 0.23946 0.5892 0.019842 0.070232 -0.40248 -0.07053 0.15888 0.18715 -0.34484 -0.34228 -0.49628 -0.14022 0.23847 -0.69501 0.14346 -0.1316 -0.0079908 -0.16836 -0.27482 -0.28604 -0.1631 -0.056462 -0.052251 -0.25414 0.23228 -0.12499 -0.65202 -0.09295 -0.1277 0.17345 -0.26396 0.25177 0.15282 -0.19789 -0.28003 0.25488 0.037168 0.075138 0.18641 -0.11949 0.47311 -3.9131E-4 -0.025177 0.068629 -0.34546 -0.38097 -0.24142 0.18519 0.26905 0.024896 0.22283 -0.29145 0.22694 -0.12525 -0.15745 -0.0097549 0.028262 -0.40075 -0.10143 -0.27596 0.37559 -0.27851 0.10755 -0.22501 0.65726 0.4227 0.54747 0.25191 -0.14702 0.025966 -0.18324 0.037606 0.2058 -0.023418 -0.28935 -0.10233 -0.025154 0.11317 -0.060818 0.49565 0.15639 0.10658 0.021202 0.042488 -0.022694 -0.13545 0.16673 0.10603 0.054168 0.20922 -0.30965 -0.22647 0.26717 0.005261 -0.22886 -0.23623 -0.38606 -0.098734 0.0042031 -0.17452 0.056172 0.4623 0.15882 0.24033 0.061317 -0.2319 0.21286 -0.098416 0.29196 0.65266 -0.23917 0.33803 -0.20227 0.033938 0.14984 0.1935 -0.063207
example 0.02278 0.087261 0.17352 -0.12506 0.23305 0.10551 0.27161 0.030068 0.15493 0.060062 0.053427 0.094861 -0.062143 1.96E-4 0.1462 0.20418 -0.12523 -0.077506 -0.038242 -0.16048 -0.007163 -0.039369 0.10739 0.089132 0.14142 0.13426 -0.018533 0.088231 -0.069722 0.15798 -0.30009 -0.18362 0.19354 -0.2372 -0.082131 -0.077233 -0.18619 0.052946 0.10743 -0.0046368 0.2514 -0.058178 0.02963 0.21271 0.066639 -0.1624 0.33278 -0.0857 -0.12848 0.29381 0.037068 -0.022358 -0.45241 0.036287 0.028358 0.13378 -0.20975 0.023732 -0.33669 0.027343 0.16809 -0.12434 0.1275 -0.0234 -0.11099 0.21747 0.059619 0.191 0.25229 -0.096746 -0.0024935 0.080429 0.18918 -0.033566 -0.060747 0.39908 0.042311 0.038208 -0.24359 -0.01948 -0.27463 0.19409 -0.15418 -0.20646 0.0012238 0.082566 0.17456 0.12078 0.12699 -0.17728 0.15946 -0.087626 0.0097365 0.11116 0.094117 0.092137 -0.17515 0.05205 -0.07468 -0.038619 0.24835 0.19129 0.14709 0.28046 0.096773 0.23138 0.14192 0.21178 0.0015876 -0.11967 0.11122 0.24361 0.060448 -0.059856 0.037067 0.14405 0.054699 -0.15665 0.19652 -0.093836 -0.082084 -0.20826 0.087162 0.049051 -0.0068067 0.015756 0.35116 0.19777 -0.076377 -0.2215 0.055702 0.008774 0.1119 0.16534 -0.0027125 -0.055277 -0.29566 0.22775 -0.16036 -0.047464 0.087139 0.11078 0.070628 0.13188 -0.010593 0.25283 -0.033746 0.13023 0.0059432 -0.03209 -0.084869 0.018522 0.032863 -0.055166 -0.040883 -0.050161 -0.20874 -0.048612 0.10209 0.055246 0.1565 -0.027552 0.056369 -0.19243 -0.019624 -0.16616 -0.11113 -0.40893 -0.28068 0.14406 -0.17875 -0.03742 0.023193 0.093821 0.073599 -0.082328 0.018234 -0.15187 -0.1831 -0.29868 0.18542 0.082619 0.17887 0.017795 0.16343 -0.0066453 -0.088146 -0.14277 0.22656 0.15113 -0.014476 -0.053187 -0.28588 0.084684 0.13753 -0.05588 0.086535 0.088705 0.081021 -0.26419 0.13683 -0.0352 -0.21901 -0.12761 0.16593 -0.06107 -0.035041 -0.002636 -0.132 -0.11705 0.17574 -0.14445 0.1038 0.081234 0.077593 0.068926 0.011149 -0.25183 -0.029465 0.019947 -0.22575 -0.11283 -0.024292 0.23577 0.10724 0.072753 0.0737 -0.07358 0.15358 -0.087811 -0.28113 0.25852 0.078785 -0.054891 -0.01501 0.0013518 0.27019 0.1279 -0.24625 0.079646 0.11042 0.020561 -0.093745 -0.02346 -0.05379 0.20774 0.037713 0.16067 -0.046354 0.077662 0.2213 0.0049518 -0.069181 0.076897 0.11929 -0.08933 -0.1279 -0.029464 0.012428 0.10384 0.04053 -0.15745 0.070177 0.24832 0.37021 -0.046998 -0.044997 -0.027422 -0.1596 0.008163 0.25813 0.040992 0.12515 -0.15434 0.0080988 -0.20446 0.19154 -0.067384 0.070744 -0.30121 -0.066393 -0.010125 -0.16543 0.056631 0.1156 -0.01672 0.42728 0.26728 -0.11298 0.10962 0.044589 -0.04176 -0.26633 -0.14237 0.024162 0.038561 -0.0065993 -0.017665 -0.27612 0.26796
journal 0.36673 0.16588 -0.36641 -0.15222 0.23513 -0.16392 -0.20622 0.026943 0.28915 -0.37523 0.21456 0.27044 0.031195 -0.40192 0.14204 0.36756 0.15849 0.33273 0.35311 0.029852 -0.47648 0.088958 -0.20472 0.10694 -0.18555 -0.057108 0.2402 0.37441 -0.17589 -0.34508 -0.44848 -0.2379 0.33076 0.15574 0.2033 -0.13849 -0.36801 0.091601 0.093539 -0.042666 0.096608 0.20914 0.023606 -0.33313 -0.17758 0.35878 -0.057525 0.28832 -0.15849 -0.033824 0.14493 -0.14162 -0.15783 0.036919 0.3769 -0.09469 0.062566 0.063494 -0.37965 0.24593 -0.0050959 -0.18019 0.042161 0.014137 0.03727 -0.26769 0.15627 -0.48596 -0.1516 -0.22813 -0.011287 0.10703 0.36948 0.030214 0.012245 0.43149 0.17906 0.067053 -0.59733 0.19063 0.25122 0.1078 0.0019832 -0.086076 0.1747 -0.18161 -0.18625 0.3592 0.1451 -0.35435 -0.28387 -0.44653 -0.11991 0.24865 0.14 -0.055505 -0.18169 -0.60436 0.11149 -0.1096 0.487 0.14901 -0.095356 0.34405 -0.1186 -0.20478 -0.04406 0.16062 0.15052 -0.17577 0.17829 0.37164 0.18901 0.069634 -0.17022 0.28129 0.32118 -0.33783 -0.24046 -0.062515 0.079548 0.10272 -0.25212 -0.15452 -0.13236 -0.13747 0.11221 0.053576 -0.22106 0.09328 -0.37848 0.24261 0.469 -0.0025083 -0.2828 -0.2035 -0.18296 0.085359 0.024377 -0.08979 0.14211 0.40359 0.47371 -0.37217 -0.3702 0.30152 -0.23432 0.024246 -0.25833 -0.14866 -0.045827 0.034016 0.075822 0.35728 0.14551 -0.52122 -0.502 0.60152 -0.0063086 -0.17063 -0.087008 -0.19297 0.016891 0.045723 -0.17521 0.034922 -0.11377 -0.10199 -0.064299 0.46636 -0.52001 0.046942 -0.22328 0.62337 -0.18956 -0.13865 -0.18907 0.13859 -0.035185 -0.12063 0.20743 0.0066358 0.19327 0.24706 0.50505 -0.33897 -0.41597 -0.16834 -0.062845 0.53034 0.24448 0.0098661 -0.040302 0.15622 -0.12151 -0.13383 0.032047 -0.27113 0.36291 -0.12851 0.30259 -0.29512 -0.073948 0.21291 -0.073772 -0.020199 -0.11889 -0.014248 0.041016 0.074886 0.059151 -0.23712 -0.092881 0.01729 0.19045 -0.038131 -3.5127E-4 -0.5115 0.013063 -0.23467 0.31621 -0.081849 0.11917 0.21037 0.30758 -0.13042 -0.071774 -0.0014523 0.26993 -0.13911 -0.12932 0.054359 0.10843 -0.062215 -0.083359 0.1892 -0.29057 0.055383 -0.76671 0.22483 -0.081762 -0.17693 0.28511 0.59044 0.33029 -0.017373 -0.15181 0.19072 -0.1644 0.065059 0.33325 0.1265 0.12764 -0.27825 0.15808 0.082034 0.17391 0.026508 0.29782 0.0032123 -0.037338 0.14993 0.3735 0.25448 0.34358 -0.28407 -0.27315 -0.29987 0.22629 0.21411 0.10251 0.12312 0.27884 -0.22525 -0.40784 -0.13812 -0.05072 -0.095524 -0.055677 -0.38276 0.52028 -0.14144 0.55743 0.53008 0.026162 0.14584 -0.019437 0.29839 0.2712 -0.24087 -0.48214 -0.13093 -0.17235 -0.15592 -0.16931 -0.064453 0.33464 0.42895 -0.44527 -0.19561
laundering 0.049399 -0.18779 -0.22941 -0.041723 -0.034227 0.36565 -0.11203 -0.10826 0.1893 -0.20771 -0.025017 -0.43154 0.11725 -0.07534 -0.10131 0.095045 0.15106 0.023667 0.18612 0.0079205 -0.072961 0.32061 -0.45525 0.09228 0.090564 -0.41208 -0.53393 -0.27402 -0.093445 -0.61194 0.14638 0.36212 0.20588 0.29289 0.1186 -0.12522 -0.63364 0.13017 -0.25209 0.18642 -0.40741 0.33821 0.094823 0.03574 -0.19109 0.04368 0.016656 0.18543 0.10012 -0.42598 -0.51226 -0.44697 -0.40128 0.028567 -0.1981 0.065229 -0.35319 -0.13121 0.028538 0.055918 0.40742 -0.43082 -0.11734 0.22131 -0.814 0.092993 0.52157 -0.06045 0.12157 -0.046692 0.036573 0.37739 0.11643 -0.10383 0.34356 -0.18735 -0.15171 0.079445 -0.25324 0.11961 0.083606 -0.33954 -0.24379 -0.26057 0.23198 -0.12271 0.20916 0.047611 0.063505 -0.049929 0.050533 -0.1429 -0.17761 -0.37802 0.13796 -0.020621 -0.35407 0.34906 -0.18141 -0.13437 0.072543 0.10112 -0.18211 0.033212 0.072414 0.47499 -0.17113 0.20015 0.24948 0.22885 0.34927 0.38379 0.18635 0.32002 2.6101E-4 0.25962 -0.1549 -0.082492 0.43855 -0.17655 0.099575 -0.22268 0.29245 0.040891 -0.20926 0.026696 -0.0016783 0.034716 0.36689 -0.20988 0.41359 -0.2366 0.17415 -0.067157 -0.18777 -0.091581 -0.36966 -0.026555 0.019387 0.31741 0.24037 -0.38338 0.14432 -0.12454 0.06297 0.33467 -0.25993 -0.17872 -0.11212 -0.10716 -0.32399 -0.24391 -0.12223 -0.03105 -0.5533 -0.19608 0.0058073 0.24636 -0.16171 0.19859 -0.089964 -0.10711 0.24762 -0.33241 -0.033506 0.35634 -0.37197 -0.22429 -0.46184 0.20908 0.12236 0.029576 0.26601 -0.34165 -0.087661 0.05243 0.080469 -0.29641 0.24987 0.030077 0.6078 0.18211 -0.16037 0.1169 0.6046 -0.014478 0.12159 0.23269 0.35403 -0.0044303 0.25913 -0.37557 -0.22573 0.12825 0.081071 0.32964 -0.48438 0.059165 0.20827 0.21473 0.51963 -0.014284 -0.23978 0.10963 0.10911 0.03489 -0.19515 -0.052938 0.090785 0.53305 0.086572 0.34404 0.41443 0.2203 0.051144 0.060411 -0.10248 -0.33209 -0.19558 -0.072822 -0.0045379 -0.15774 -0.031318 0.13308 0.039803 0.12862 -0.0046085 -0.50409 -0.026977 0.1287 -0.27919 -0.018387 0.15891 0.2962 -0.31731 -0.21767 -0.04187 0.37425 0.13739 -0.17105 -0.039704 0.087217 -0.16715 0.26891 -0.050627 -0.39512 -0.32934 -0.014921 -0.04322 0.33536 0.23993 0.42989 0.17162 0.14463 0.13967 0.044799 0.20425 -0.11825 0.066458 0.15295 0.31448 -0.018773 0.30694 0.13559 0.22222 0.10166 0.17944 -0.16815 0.078133 -0.48988 0.16399 -0.44568 -0.10205 -0.20228 0.049338 0.14896 -0.37957 -0.42624 -0.078724 -0.36004 -0.14984 -0.051201 -0.069961 -0.11881 -0.037503 -0.09701 0.52795 -0.27102 -0.010253 0.095451 0.24592 0.125 0.038648 0.1512 -0.12264 0.21063 0.019964 0.039493 -0.060149 -0.32581
hotel 0.42653 0.076015 0.18329 0.51035 -0.39358 0.086299 0.080499 0.014189 -0.21798 0.10065 0.18562 -0.24383 0.097914 0.18841 -0.036395 -0.025448 0.131 0.26259 0.057682 -0.19609 -0.021485 -0.11435 -0.11121 0.14582 0.037944 -0.21408 -0.22594 -0.11739 -0.24197 0.0378 -0.35991 0.32665 -0.049357 0.071721 -0.16977 -0.0032617 -0.2113 0.37146 0.26655 0.084672 -0.36138 0.12538 -0.15441 0.14975 -0.22859 -0.32489 0.58692 -0.043788 0.62377 -0.56914 -0.16797 -0.29181 -0.29188 0.1107 0.23127 0.15284 0.13488 -0.14133 0.18807 -0.0065075 -0.25019 -0.23197 -0.19276 -0.29933 0.10672 0.056713 0.27466 0.080758 0.28743 -0.4212 -0.17852 0.25141 0.087967 0.26497 -0.45643 0.19723 -0.032153 -0.2187 0.20137 0.19976 -0.14735 -0.14506 -0.034444 0.052389 -0.075338 0.072295 -0.25142 0.21645 0.20929 0.016668 -0.15479 -0.076408 0.11543 -0.2135 0.15974 -0.0050148 0.19902 0.10298 0.095008 0.1668 0.18063 0.25732 -0.0922 0.41655 0.20817 0.39712 -0.38557 0.20888 0.40501 0.029989 0.17983 0.24573 0.30256 0.20601 0.29373 0.034796 -0.064801 0.012962 0.10153 -0.043821 -0.34045 0.36538 -0.48992 -0.21912 -0.14541 -0.094138 0.17419 0.19171 0.089594 0.067971 0.13864 -0.22152 -0.11385 -0.028457 -0.078825 0.22085 -0.20683 -0.033895 0.20115 -0.0095422 -0.023762 -0.049141 -0.058707 0.071131 0.022698 0.12628 -0.26618 0.14502 0.022281 -0.17095 0.055367 -0.093999 -0.21783 -0.1225 -0.020249 -0.31011 -0.055921 -0.0011049 0.024558 0.086539 0.23997 -0.032057 0.10522 0.081758 -0.067308 -0.16311 -0.28131 -0.1203 0.0061016 0.089036 -0.073765 0.22803 -0.34764 -0.32936 -0.34956 -0.013666 -0.037122 -0.066265 -0.0037929 -0.078881 -0.33588 -0.10258 0.063819 0.21705 0.12476 -0.0086774 -0.12012 -0.24055 0.0020228 0.387 -0.083873 -0.30344 -0.50008 -0.22972 -0.42818 -0.16666 -0.14163 -0.45583 0.028509 -0.40528 0.0065382 -0.1553 -0.22592 -0.11086 0.29379 0.21894 -0.0033511 -0.25689 0.011805 -0.23209 -0.079393 -0.030062 0.3493 0.37943 0.058645 0.23848 0.15038 -0.19724 -0.20435 0.024854 -0.18592 0.1055 0.096322 0.19828 -0.12453 -0.20669 0.48319 -0.42449 0.17663 0.15467 -0.22996 0.10598 0.068855 -0.098728 -0.2191 0.10144 0.099776 0.15172 0.10158 -0.063276 -0.0047248 -0.0085593 -0.27331 0.077557 0.13448 -0.31128 -0.031772 0.027222 -0.086235 0.14755 0.24712 0.025147 0.069628 -0.35169 0.079243 0.080323 0.41902 0.035523 0.28647 0.18441 0.060765 0.010204 0.20882 0.07519 0.10776 0.062485 -0.16479 0.10874 -0.027345 0.16531 0.059936 0.075249 0.0049878 0.26578 -0.10203 0.16516 -0.35889 0.040793 -0.35061 0.21581 0.033172 0.25238 -0.10566 -0.11054 0.2081 -0.17804 0.1375 0.10219 0.020198 0.12525 -1.8819E-4 0.20062 -0.10797 0.072331 0.0098959 -0.24113 -0.18738 0.013023 0.16191 0.26692
term 0.13654 -0.1819 -0.13686 0.097012 -0.11652 -0.0095976 0.031154 -0.28096 0.011243 -0.043973 0.029382 0.3088 0.16132 -0.23626 0.048373 0.11671 -0.073716 0.22367 -0.24169 0.228 0.11334 0.054164 0.074771 0.29241 0.24281 0.019515 0.17026 0.051505 -0.42467 0.12986 0.15582 -0.14234 -0.015958 0.2216 0.088723 -0.096522 -0.45639 0.071499 -0.018295 0.36489 0.20219 0.12913 0.15468 -0.16142 -0.40066 -0.071073 0.18736 0.22839 -0.44489 0.35433 0.20867 0.027392 -0.27904 -0.36544 -0.4324 0.086926 -0.21665 0.016876 -0.47932 0.13601 0.2241 -0.19486 -0.32197 0.37375 -0.58628 0.14061 0.158 -0.36513 0.26739 -0.14921 -0.24293 -0.29247 0.11347 0.48129 -0.096013 -0.050052 -0.032829 0.45112 -0.43691 0.15464 0.12003 -0.1569 -0.37701 0.066466 0.22312 -0.17016 0.080348 0.1794 0.15661 0.18031 0.30629 -0.39168 -0.025822 -0.14061 0.089558 -0.073747 -0.24585 0.26019 0.11219 -0.22708 0.30317 -1.0649E-4 -0.23922 0.50612 -0.093391 0.22511 0.26402 -0.12747 -0.014797 0.1877 -0.091235 0.13482 0.056189 -0.29776 -0.072915 -0.076628 0.16295 0.065835 0.28765 -0.36222 -0.093139 0.080065 0.20895 -0.096025 -0.32122 -0.0377 -0.029786 -0.11404 0.40977 0.10668 0.06715 -0.30632 0.052762 0.26852 -0.23352 -0.54657 0.21609 -0.24657 0.065398 0.46502 -0.020672 -0.36833 0.030277 -0.1082 -0.077982 0.11544 -0.24183 -0.24401 -0.016789 -0.3479 0.17759 0.0513 0.17642 0.12834 -0.14562 -0.064685 0.010739 -0.087289 -0.21331 0.15625 0.14129 0.075432 -0.0076914 -0.38576 -0.051506 0.14006 -0.27106 -0.143 -0.29387 -0.16496 0.198 -0.099413 -0.13292 0.41411 -0.4045 0.058374 -0.34031 -0.15613 -0.11751 -0.043844 0.22762 -0.44527 -0.16048 -0.10596 -0.14012 0.14848 0.0064324 -0.31517 0.22472 -0.093552 -0.21513 -0.62701 0.20458 -0.37908 -0.35314 -0.17299 -0.49161 -0.0066079 -0.057167 0.16189 0.1482 -0.32405 -0.037298 0.0023433 -0.049551 -0.060932 -0.3455 -0.10015 -0.18683 -0.015658 -0.25609 -0.040574 0.10578 0.41143 -0.1922 0.018717 0.068863 -0.17903 -0.11143 -0.26021 -0.066279 0.25785 -0.12529 0.17127 0.26682 0.017574 0.013467 0.0065583 -0.13081 0.18682 0.041615 0.35144 0.20208 0.044206 -0.35456 0.13362 -0.073629 -0.02727 -0.20809 0.052604 0.56745 -0.082625 -0.38692 0.19758 -0.37994 0.079026 -0.10813 0.27788 0.09565 0.29594 -0.071475 0.29688 0.20176 0.18111 0.42731 -0.021313 -0.15497 0.12071 -0.17862 0.063753 -0.056819 -0.02609 0.052635 -0.14318 0.042927 -0.29794 0.0039809 0.10208 -0.22875 0.022564 0.21308 -0.21174 -0.057015 -0.21086 -0.18579 0.082753 -0.12696 0.35726 0.050313 -0.054481 0.0093341 0.19795 0.30229 0.24283 0.41619 -0.032209 -0.12724 0.18065 0.11328 -0.018378 0.10595 0.053571 -0.19424 -0.12917 0.032036 -0.19005 -0.41888 0.091766 0.082366 0.0035286
